<?xml version="1.0" encoding="UTF-8"?>
<PMML version="4.1" xmlns="http://www.dmg.org/PMML-4_1">
  <Header copyright="Vfed">
    <Application name="KNIME" version="2.7.4"/>
  </Header>
  <DataDictionary numberOfFields="5">
    <DataField name="Sepal.Length" optype="continuous" dataType="double">
      <Interval closure="closedClosed" leftMargin="4.3" rightMargin="7.9"/>
    </DataField>
    <DataField name="Sepal.Width" optype="continuous" dataType="double">
      <Interval closure="closedClosed" leftMargin="2.0" rightMargin="4.4"/>
    </DataField>
    <DataField name="Petal.Length" optype="continuous" dataType="double">
      <Interval closure="closedClosed" leftMargin="1.0" rightMargin="6.9"/>
    </DataField>
    <DataField name="Petal.Width" optype="continuous" dataType="double">
      <Interval closure="closedClosed" leftMargin="0.1" rightMargin="2.5"/>
    </DataField>
    <DataField name="Species" optype="categorical" dataType="string">
      <Value value="setosa"/>
      <Value value="versicolor"/>
      <Value value="virginica"/>
    </DataField>
  </DataDictionary>
  <NeuralNetwork functionName="classification" algorithmName="RProp" activationFunction="logistic" normalizationMethod="none" width="0.0" numberOfLayers="2">
    <MiningSchema>
      <MiningField name="Sepal.Length" invalidValueTreatment="asIs"/>
      <MiningField name="Sepal.Width" invalidValueTreatment="asIs"/>
      <MiningField name="Petal.Length" invalidValueTreatment="asIs"/>
      <MiningField name="Petal.Width" invalidValueTreatment="asIs"/>
      <MiningField name="Species" invalidValueTreatment="asIs" usageType="predicted"/>
    </MiningSchema>
    <NeuralInputs numberOfInputs="4">
      <NeuralInput id="0,0">
        <DerivedField optype="continuous" dataType="double">
          <FieldRef field="Sepal.Length"/>
        </DerivedField>
      </NeuralInput>
      <NeuralInput id="0,1">
        <DerivedField optype="continuous" dataType="double">
          <FieldRef field="Sepal.Width"/>
        </DerivedField>
      </NeuralInput>
      <NeuralInput id="0,2">
        <DerivedField optype="continuous" dataType="double">
          <FieldRef field="Petal.Length"/>
        </DerivedField>
      </NeuralInput>
      <NeuralInput id="0,3">
        <DerivedField optype="continuous" dataType="double">
          <FieldRef field="Petal.Width"/>
        </DerivedField>
      </NeuralInput>
    </NeuralInputs>
    <NeuralLayer>
      <Neuron id="1,0" bias="1.24234313840564">
        <Con from="0,0" weight="0.18680316860405352"/>
        <Con from="0,1" weight="0.7742330178055067"/>
        <Con from="0,2" weight="-0.694679841122732"/>
        <Con from="0,3" weight="-1.6569940987393132"/>
      </Neuron>
      <Neuron id="1,1" bias="-0.2144986516351198">
        <Con from="0,0" weight="0.696305454016954"/>
        <Con from="0,1" weight="-0.025992083757863868"/>
        <Con from="0,2" weight="37.85907796456861"/>
        <Con from="0,3" weight="6.87013712753893"/>
      </Neuron>
      <Neuron id="1,2" bias="0.8370220822944668">
        <Con from="0,0" weight="0.3290999636558757"/>
        <Con from="0,1" weight="0.4848442310014729"/>
        <Con from="0,2" weight="-1.2642452035660952"/>
        <Con from="0,3" weight="-1.6999111708924404"/>
      </Neuron>
      <Neuron id="1,3" bias="1.071592380571765">
        <Con from="0,0" weight="0.1246979991360772"/>
        <Con from="0,1" weight="0.13898164693468557"/>
        <Con from="0,2" weight="-0.45432793778965974"/>
        <Con from="0,3" weight="-1.054232538159723"/>
      </Neuron>
      <Neuron id="1,4" bias="0.3464482082918419">
        <Con from="0,0" weight="-0.09789885653946595"/>
        <Con from="0,1" weight="0.06102914418229505"/>
        <Con from="0,2" weight="0.1594999621288042"/>
        <Con from="0,3" weight="-1.5791546689330194"/>
      </Neuron>
    </NeuralLayer>
    <NeuralLayer>
      <Neuron id="2,0" bias="-14.317768743821093">
        <Con from="1,0" weight="5.162066118422631"/>
        <Con from="1,1" weight="-40.16931661051865"/>
        <Con from="1,2" weight="113.1281290916809"/>
        <Con from="1,3" weight="2.154906716945041"/>
        <Con from="1,4" weight="-0.9118136635309866"/>
      </Neuron>
      <Neuron id="2,1" bias="-2.355030220872652">
        <Con from="1,0" weight="71.39777652696367"/>
        <Con from="1,1" weight="-16.491960063962175"/>
        <Con from="1,2" weight="-121.56026137332248"/>
        <Con from="1,3" weight="53.41306752315878"/>
        <Con from="1,4" weight="1.4434913074065292"/>
      </Neuron>
      <Neuron id="2,2" bias="17.695380567531654">
        <Con from="1,0" weight="-50.31986647763026"/>
        <Con from="1,1" weight="6.856189929204443"/>
        <Con from="1,2" weight="-3274.7137512199315"/>
        <Con from="1,3" weight="-1.3808139877922858"/>
        <Con from="1,4" weight="96.6337981026229"/>
      </Neuron>
    </NeuralLayer>
    <NeuralOutputs numberOfOutputs="3">
      <NeuralOutput outputNeuron="2,0">
        <DerivedField optype="categorical" dataType="string">
          <NormDiscrete field="Species" value="setosa"/>
        </DerivedField>
      </NeuralOutput>
      <NeuralOutput outputNeuron="2,1">
        <DerivedField optype="categorical" dataType="string">
          <NormDiscrete field="Species" value="versicolor"/>
        </DerivedField>
      </NeuralOutput>
      <NeuralOutput outputNeuron="2,2">
        <DerivedField optype="categorical" dataType="string">
          <NormDiscrete field="Species" value="virginica"/>
        </DerivedField>
      </NeuralOutput>
    </NeuralOutputs>
  </NeuralNetwork>
</PMML>