<?xml version="1.0"?>
<PMML version="4.1" xmlns="http://www.dmg.org/PMML-4_1" xmlns:xsi="http://www.w3.org/2001/XMLSchema-instance" xsi:schemaLocation="http://www.dmg.org/PMML-4_1 http://www.dmg.org/v4-1/pmml-4-1.xsd">
 <Header copyright="Copyright (c) 2013 Vfed" description="Random Forest Tree Model">
  <Extension name="user" value="Vfed" extender="Rattle/PMML"/>
  <Application name="Rattle/PMML" version="1.2.34r27"/>
  <Timestamp>2013-05-30 17:55:01</Timestamp>
 </Header>
 <DataDictionary numberOfFields="4">
  <DataField name="O3" optype="continuous" dataType="double"/>
  <DataField name="temp" optype="continuous" dataType="double"/>
  <DataField name="ibh" optype="continuous" dataType="double"/>
  <DataField name="ibt" optype="continuous" dataType="double"/>
 </DataDictionary>
 <MiningModel modelName="randomForest_Model" functionName="regression">
  <MiningSchema>
   <MiningField name="O3" usageType="predicted"/>
   <MiningField name="temp" usageType="active"/>
   <MiningField name="ibh" usageType="active"/>
   <MiningField name="ibt" usageType="active"/>
  </MiningSchema>
  <Output>
   <OutputField name="Predicted_O3" feature="predictedValue"/>
  </Output>
  <Segmentation multipleModelMethod="average">
   <Segment id="1">
    <True/>
    <TreeModel modelName="randomForest_Model" functionName="regression" algorithmName="randomForest" splitCharacteristic="binarySplit">
     <MiningSchema>
      <MiningField name="O3" usageType="predicted"/>
      <MiningField name="temp" usageType="active"/>
      <MiningField name="ibh" usageType="active"/>
      <MiningField name="ibt" usageType="active"/>
     </MiningSchema>
     <Node id="1">
      <True/>
      <Node id="2">
       <SimplePredicate field="temp" operator="lessOrEqual" value="66.5"/>
       <Node id="4">
        <SimplePredicate field="temp" operator="lessOrEqual" value="56.5"/>
        <Node id="8">
         <SimplePredicate field="ibh" operator="lessOrEqual" value="3669"/>
         <Node id="16">
          <SimplePredicate field="ibt" operator="lessOrEqual" value="184"/>
          <Node id="28">
           <SimplePredicate field="ibt" operator="lessOrEqual" value="169"/>
           <Node id="44" score="13">
            <SimplePredicate field="ibh" operator="lessOrEqual" value="475"/>
           </Node>
           <Node id="45">
            <SimplePredicate field="ibh" operator="greaterThan" value="475"/>
            <Node id="64">
             <SimplePredicate field="ibt" operator="lessOrEqual" value="165.5"/>
             <Node id="82" score="4.5">
              <SimplePredicate field="ibh" operator="lessOrEqual" value="655.5"/>
             </Node>
             <Node id="83">
              <SimplePredicate field="ibh" operator="greaterThan" value="655.5"/>
              <Node id="94" score="5.16666666666667">
               <SimplePredicate field="ibt" operator="lessOrEqual" value="89"/>
              </Node>
              <Node id="95">
               <SimplePredicate field="ibt" operator="greaterThan" value="89"/>
               <Node id="106" score="7.57142857142857">
                <SimplePredicate field="ibt" operator="lessOrEqual" value="135.5"/>
               </Node>
               <Node id="107" score="5.57142857142857">
                <SimplePredicate field="ibt" operator="greaterThan" value="135.5"/>
               </Node>
              </Node>
             </Node>
            </Node>
            <Node id="65" score="13">
             <SimplePredicate field="ibt" operator="greaterThan" value="165.5"/>
            </Node>
           </Node>
          </Node>
          <Node id="29" score="4.42857142857143">
           <SimplePredicate field="ibt" operator="greaterThan" value="169"/>
          </Node>
         </Node>
         <Node id="17" score="9.5">
          <SimplePredicate field="ibt" operator="greaterThan" value="184"/>
         </Node>
        </Node>
        <Node id="9">
         <SimplePredicate field="ibh" operator="greaterThan" value="3669"/>
         <Node id="18">
          <SimplePredicate field="ibt" operator="lessOrEqual" value="102.5"/>
          <Node id="30">
           <SimplePredicate field="temp" operator="lessOrEqual" value="48.5"/>
           <Node id="46">
            <SimplePredicate field="ibt" operator="lessOrEqual" value="55.5"/>
            <Node id="66">
             <SimplePredicate field="ibt" operator="lessOrEqual" value="41.5"/>
             <Node id="84">
              <SimplePredicate field="ibt" operator="lessOrEqual" value="35"/>
              <Node id="96">
               <SimplePredicate field="ibt" operator="lessOrEqual" value="32"/>
               <Node id="108" score="3.42857142857143">
                <SimplePredicate field="ibt" operator="lessOrEqual" value="2.5"/>
               </Node>
               <Node id="109" score="4.16666666666667">
                <SimplePredicate field="ibt" operator="greaterThan" value="2.5"/>
               </Node>
              </Node>
              <Node id="97" score="2.5">
               <SimplePredicate field="ibt" operator="greaterThan" value="32"/>
              </Node>
             </Node>
             <Node id="85" score="6.75">
              <SimplePredicate field="ibt" operator="greaterThan" value="35"/>
             </Node>
            </Node>
            <Node id="67" score="2.3">
             <SimplePredicate field="ibt" operator="greaterThan" value="41.5"/>
            </Node>
           </Node>
           <Node id="47">
            <SimplePredicate field="ibt" operator="greaterThan" value="55.5"/>
            <Node id="68" score="6.5">
             <SimplePredicate field="ibt" operator="lessOrEqual" value="63.5"/>
            </Node>
            <Node id="69" score="4.42857142857143">
             <SimplePredicate field="ibt" operator="greaterThan" value="63.5"/>
            </Node>
           </Node>
          </Node>
          <Node id="31">
           <SimplePredicate field="temp" operator="greaterThan" value="48.5"/>
           <Node id="48" score="9">
            <SimplePredicate field="ibt" operator="lessOrEqual" value="34"/>
           </Node>
           <Node id="49">
            <SimplePredicate field="ibt" operator="greaterThan" value="34"/>
            <Node id="70">
             <SimplePredicate field="ibt" operator="lessOrEqual" value="96"/>
             <Node id="86">
              <SimplePredicate field="ibt" operator="lessOrEqual" value="79.5"/>
              <Node id="98" score="5.6">
               <SimplePredicate field="ibt" operator="lessOrEqual" value="72.5"/>
              </Node>
              <Node id="99" score="7.5">
               <SimplePredicate field="ibt" operator="greaterThan" value="72.5"/>
              </Node>
             </Node>
             <Node id="87" score="4.16666666666667">
              <SimplePredicate field="ibt" operator="greaterThan" value="79.5"/>
             </Node>
            </Node>
            <Node id="71" score="7.5">
             <SimplePredicate field="ibt" operator="greaterThan" value="96"/>
            </Node>
           </Node>
          </Node>
         </Node>
         <Node id="19">
          <SimplePredicate field="ibt" operator="greaterThan" value="102.5"/>
          <Node id="32">
           <SimplePredicate field="ibt" operator="lessOrEqual" value="112"/>
           <Node id="50" score="3">
            <SimplePredicate field="temp" operator="lessOrEqual" value="52.5"/>
           </Node>
           <Node id="51" score="2.42857142857143">
            <SimplePredicate field="temp" operator="greaterThan" value="52.5"/>
           </Node>
          </Node>
          <Node id="33" score="4">
           <SimplePredicate field="ibt" operator="greaterThan" value="112"/>
          </Node>
         </Node>
        </Node>
       </Node>
       <Node id="5">
        <SimplePredicate field="temp" operator="greaterThan" value="56.5"/>
        <Node id="10">
         <SimplePredicate field="ibh" operator="lessOrEqual" value="3588.5"/>
         <Node id="20">
          <SimplePredicate field="ibt" operator="lessOrEqual" value="242.5"/>
          <Node id="34">
           <SimplePredicate field="ibt" operator="lessOrEqual" value="229"/>
           <Node id="52">
            <SimplePredicate field="ibh" operator="lessOrEqual" value="3108"/>
            <Node id="72">
             <SimplePredicate field="ibh" operator="lessOrEqual" value="2327.5"/>
             <Node id="88">
              <SimplePredicate field="ibh" operator="lessOrEqual" value="1007"/>
              <Node id="100" score="11.4">
               <SimplePredicate field="ibt" operator="lessOrEqual" value="204.5"/>
              </Node>
              <Node id="101" score="8.5">
               <SimplePredicate field="ibt" operator="greaterThan" value="204.5"/>
              </Node>
             </Node>
             <Node id="89">
              <SimplePredicate field="ibh" operator="greaterThan" value="1007"/>
              <Node id="102" score="17.5">
               <SimplePredicate field="ibh" operator="lessOrEqual" value="1179"/>
              </Node>
              <Node id="103">
               <SimplePredicate field="ibh" operator="greaterThan" value="1179"/>
               <Node id="110" score="10">
                <SimplePredicate field="ibh" operator="lessOrEqual" value="1471"/>
               </Node>
               <Node id="111" score="13.3333333333333">
                <SimplePredicate field="ibh" operator="greaterThan" value="1471"/>
               </Node>
              </Node>
             </Node>
            </Node>
            <Node id="73" score="9.1">
             <SimplePredicate field="ibh" operator="greaterThan" value="2327.5"/>
            </Node>
           </Node>
           <Node id="53" score="14.375">
            <SimplePredicate field="ibh" operator="greaterThan" value="3108"/>
           </Node>
          </Node>
          <Node id="35" score="20">
           <SimplePredicate field="ibt" operator="greaterThan" value="229"/>
          </Node>
         </Node>
         <Node id="21" score="6.57142857142857">
          <SimplePredicate field="ibt" operator="greaterThan" value="242.5"/>
         </Node>
        </Node>
        <Node id="11">
         <SimplePredicate field="ibh" operator="greaterThan" value="3588.5"/>
         <Node id="22">
          <SimplePredicate field="temp" operator="lessOrEqual" value="64.5"/>
          <Node id="36">
           <SimplePredicate field="ibt" operator="lessOrEqual" value="124.5"/>
           <Node id="54">
            <SimplePredicate field="temp" operator="lessOrEqual" value="61.5"/>
            <Node id="74" score="7.66666666666667">
             <SimplePredicate field="temp" operator="lessOrEqual" value="58.5"/>
            </Node>
            <Node id="75" score="5.4">
             <SimplePredicate field="temp" operator="greaterThan" value="58.5"/>
            </Node>
           </Node>
           <Node id="55" score="8.5">
            <SimplePredicate field="temp" operator="greaterThan" value="61.5"/>
           </Node>
          </Node>
          <Node id="37">
           <SimplePredicate field="ibt" operator="greaterThan" value="124.5"/>
           <Node id="56" score="9.2">
            <SimplePredicate field="ibt" operator="lessOrEqual" value="133"/>
           </Node>
           <Node id="57" score="6.83333333333333">
            <SimplePredicate field="ibt" operator="greaterThan" value="133"/>
           </Node>
          </Node>
         </Node>
         <Node id="23" score="4.75">
          <SimplePredicate field="temp" operator="greaterThan" value="64.5"/>
         </Node>
        </Node>
       </Node>
      </Node>
      <Node id="3">
       <SimplePredicate field="temp" operator="greaterThan" value="66.5"/>
       <Node id="6">
        <SimplePredicate field="temp" operator="lessOrEqual" value="79.5"/>
        <Node id="12" score="8.57142857142857">
         <SimplePredicate field="ibh" operator="lessOrEqual" value="475"/>
        </Node>
        <Node id="13">
         <SimplePredicate field="ibh" operator="greaterThan" value="475"/>
         <Node id="24">
          <SimplePredicate field="ibh" operator="lessOrEqual" value="2785"/>
          <Node id="38">
           <SimplePredicate field="ibt" operator="lessOrEqual" value="215.5"/>
           <Node id="58" score="11.3333333333333">
            <SimplePredicate field="ibt" operator="lessOrEqual" value="168"/>
           </Node>
           <Node id="59">
            <SimplePredicate field="ibt" operator="greaterThan" value="168"/>
            <Node id="76" score="20.625">
             <SimplePredicate field="ibt" operator="lessOrEqual" value="182"/>
            </Node>
            <Node id="77">
             <SimplePredicate field="ibt" operator="greaterThan" value="182"/>
             <Node id="90" score="9">
              <SimplePredicate field="temp" operator="lessOrEqual" value="67.5"/>
             </Node>
             <Node id="91">
              <SimplePredicate field="temp" operator="greaterThan" value="67.5"/>
              <Node id="104" score="24">
               <SimplePredicate field="ibh" operator="lessOrEqual" value="742.5"/>
              </Node>
              <Node id="105" score="17.25">
               <SimplePredicate field="ibh" operator="greaterThan" value="742.5"/>
              </Node>
             </Node>
            </Node>
           </Node>
          </Node>
          <Node id="39">
           <SimplePredicate field="ibt" operator="greaterThan" value="215.5"/>
           <Node id="60" score="29">
            <SimplePredicate field="ibt" operator="lessOrEqual" value="217"/>
           </Node>
           <Node id="61">
            <SimplePredicate field="ibt" operator="greaterThan" value="217"/>
            <Node id="78">
             <SimplePredicate field="ibt" operator="lessOrEqual" value="241.5"/>
             <Node id="92" score="16.25">
              <SimplePredicate field="ibh" operator="lessOrEqual" value="880"/>
             </Node>
             <Node id="93" score="22.5">
              <SimplePredicate field="ibh" operator="greaterThan" value="880"/>
             </Node>
            </Node>
            <Node id="79" score="27">
             <SimplePredicate field="ibt" operator="greaterThan" value="241.5"/>
            </Node>
           </Node>
          </Node>
         </Node>
         <Node id="25">
          <SimplePredicate field="ibh" operator="greaterThan" value="2785"/>
          <Node id="40" score="13.4285714285714">
           <SimplePredicate field="ibh" operator="lessOrEqual" value="3459"/>
          </Node>
          <Node id="41" score="9">
           <SimplePredicate field="ibh" operator="greaterThan" value="3459"/>
          </Node>
         </Node>
        </Node>
       </Node>
       <Node id="7">
        <SimplePredicate field="temp" operator="greaterThan" value="79.5"/>
        <Node id="14">
         <SimplePredicate field="ibt" operator="lessOrEqual" value="303.5"/>
         <Node id="26">
          <SimplePredicate field="ibt" operator="lessOrEqual" value="290"/>
          <Node id="42">
           <SimplePredicate field="ibt" operator="lessOrEqual" value="268"/>
           <Node id="62" score="28">
            <SimplePredicate field="ibh" operator="lessOrEqual" value="610"/>
           </Node>
           <Node id="63">
            <SimplePredicate field="ibh" operator="greaterThan" value="610"/>
            <Node id="80" score="24">
             <SimplePredicate field="ibh" operator="lessOrEqual" value="1431.5"/>
            </Node>
            <Node id="81" score="26.4">
             <SimplePredicate field="ibh" operator="greaterThan" value="1431.5"/>
            </Node>
           </Node>
          </Node>
          <Node id="43" score="20.5555555555556">
           <SimplePredicate field="ibt" operator="greaterThan" value="268"/>
          </Node>
         </Node>
         <Node id="27" score="29">
          <SimplePredicate field="ibt" operator="greaterThan" value="290"/>
         </Node>
        </Node>
        <Node id="15" score="19.3333333333333">
         <SimplePredicate field="ibt" operator="greaterThan" value="303.5"/>
        </Node>
       </Node>
      </Node>
     </Node>
    </TreeModel>
   </Segment>
   <Segment id="2">
    <True/>
    <TreeModel modelName="randomForest_Model" functionName="regression" algorithmName="randomForest" splitCharacteristic="binarySplit">
     <MiningSchema>
      <MiningField name="O3" usageType="predicted"/>
      <MiningField name="temp" usageType="active"/>
      <MiningField name="ibh" usageType="active"/>
      <MiningField name="ibt" usageType="active"/>
     </MiningSchema>
     <Node id="1">
      <True/>
      <Node id="2">
       <SimplePredicate field="temp" operator="lessOrEqual" value="65.5"/>
       <Node id="4">
        <SimplePredicate field="ibh" operator="lessOrEqual" value="2391.5"/>
        <Node id="8">
         <SimplePredicate field="ibt" operator="lessOrEqual" value="207.5"/>
         <Node id="16">
          <SimplePredicate field="ibt" operator="lessOrEqual" value="182"/>
          <Node id="28">
           <SimplePredicate field="ibh" operator="lessOrEqual" value="1584.5"/>
           <Node id="48">
            <SimplePredicate field="ibh" operator="lessOrEqual" value="1354.5"/>
            <Node id="64" score="7.88888888888889">
             <SimplePredicate field="temp" operator="lessOrEqual" value="51.5"/>
            </Node>
            <Node id="65">
             <SimplePredicate field="temp" operator="greaterThan" value="51.5"/>
             <Node id="78" score="10">
              <SimplePredicate field="ibt" operator="lessOrEqual" value="162"/>
             </Node>
             <Node id="79" score="13">
              <SimplePredicate field="ibt" operator="greaterThan" value="162"/>
             </Node>
            </Node>
           </Node>
           <Node id="49" score="6.16666666666667">
            <SimplePredicate field="ibh" operator="greaterThan" value="1354.5"/>
           </Node>
          </Node>
          <Node id="29" score="12.2222222222222">
           <SimplePredicate field="ibh" operator="greaterThan" value="1584.5"/>
          </Node>
         </Node>
         <Node id="17">
          <SimplePredicate field="ibt" operator="greaterThan" value="182"/>
          <Node id="30">
           <SimplePredicate field="ibt" operator="lessOrEqual" value="195.5"/>
           <Node id="50" score="16.1428571428571">
            <SimplePredicate field="ibh" operator="lessOrEqual" value="962"/>
           </Node>
           <Node id="51" score="18">
            <SimplePredicate field="ibh" operator="greaterThan" value="962"/>
           </Node>
          </Node>
          <Node id="31" score="11.25">
           <SimplePredicate field="ibt" operator="greaterThan" value="195.5"/>
          </Node>
         </Node>
        </Node>
        <Node id="9">
         <SimplePredicate field="ibt" operator="greaterThan" value="207.5"/>
         <Node id="18">
          <SimplePredicate field="temp" operator="lessOrEqual" value="61.5"/>
          <Node id="32" score="3.875">
           <SimplePredicate field="temp" operator="lessOrEqual" value="58.5"/>
          </Node>
          <Node id="33" score="8">
           <SimplePredicate field="temp" operator="greaterThan" value="58.5"/>
          </Node>
         </Node>
         <Node id="19" score="13.3333333333333">
          <SimplePredicate field="temp" operator="greaterThan" value="61.5"/>
         </Node>
        </Node>
       </Node>
       <Node id="5">
        <SimplePredicate field="ibh" operator="greaterThan" value="2391.5"/>
        <Node id="10">
         <SimplePredicate field="temp" operator="lessOrEqual" value="57.5"/>
         <Node id="20">
          <SimplePredicate field="temp" operator="lessOrEqual" value="39.5"/>
          <Node id="34" score="3.28571428571429">
           <SimplePredicate field="ibt" operator="lessOrEqual" value="20.5"/>
          </Node>
          <Node id="35" score="2.2">
           <SimplePredicate field="ibt" operator="greaterThan" value="20.5"/>
          </Node>
         </Node>
         <Node id="21">
          <SimplePredicate field="temp" operator="greaterThan" value="39.5"/>
          <Node id="36">
           <SimplePredicate field="ibt" operator="lessOrEqual" value="102.5"/>
           <Node id="52">
            <SimplePredicate field="ibt" operator="lessOrEqual" value="60.5"/>
            <Node id="66">
             <SimplePredicate field="ibt" operator="lessOrEqual" value="43"/>
             <Node id="80" score="3.57142857142857">
              <SimplePredicate field="ibt" operator="lessOrEqual" value="33"/>
             </Node>
             <Node id="81" score="6.4">
              <SimplePredicate field="ibt" operator="greaterThan" value="33"/>
             </Node>
            </Node>
            <Node id="67">
             <SimplePredicate field="ibt" operator="greaterThan" value="43"/>
             <Node id="82" score="2.28571428571429">
              <SimplePredicate field="ibt" operator="lessOrEqual" value="54"/>
             </Node>
             <Node id="83" score="4.25">
              <SimplePredicate field="ibt" operator="greaterThan" value="54"/>
             </Node>
            </Node>
           </Node>
           <Node id="53">
            <SimplePredicate field="ibt" operator="greaterThan" value="60.5"/>
            <Node id="68">
             <SimplePredicate field="ibt" operator="lessOrEqual" value="93"/>
             <Node id="84">
              <SimplePredicate field="temp" operator="lessOrEqual" value="53.5"/>
              <Node id="92" score="7">
               <SimplePredicate field="temp" operator="lessOrEqual" value="44.5"/>
              </Node>
              <Node id="93" score="5.77777777777778">
               <SimplePredicate field="temp" operator="greaterThan" value="44.5"/>
              </Node>
             </Node>
             <Node id="85" score="4">
              <SimplePredicate field="temp" operator="greaterThan" value="53.5"/>
             </Node>
            </Node>
            <Node id="69" score="7.625">
             <SimplePredicate field="ibt" operator="greaterThan" value="93"/>
            </Node>
           </Node>
          </Node>
          <Node id="37">
           <SimplePredicate field="ibt" operator="greaterThan" value="102.5"/>
           <Node id="54" score="4.75">
            <SimplePredicate field="ibh" operator="lessOrEqual" value="2998.5"/>
           </Node>
           <Node id="55">
            <SimplePredicate field="ibh" operator="greaterThan" value="2998.5"/>
            <Node id="70" score="2.75">
             <SimplePredicate field="ibt" operator="lessOrEqual" value="115"/>
            </Node>
            <Node id="71" score="3.5">
             <SimplePredicate field="ibt" operator="greaterThan" value="115"/>
            </Node>
           </Node>
          </Node>
         </Node>
        </Node>
        <Node id="11">
         <SimplePredicate field="temp" operator="greaterThan" value="57.5"/>
         <Node id="22" score="4">
          <SimplePredicate field="ibt" operator="lessOrEqual" value="71"/>
         </Node>
         <Node id="23">
          <SimplePredicate field="ibt" operator="greaterThan" value="71"/>
          <Node id="38" score="11.3333333333333">
           <SimplePredicate field="ibt" operator="lessOrEqual" value="103"/>
          </Node>
          <Node id="39">
           <SimplePredicate field="ibt" operator="greaterThan" value="103"/>
           <Node id="56">
            <SimplePredicate field="temp" operator="lessOrEqual" value="64.5"/>
            <Node id="72" score="9.875">
             <SimplePredicate field="ibh" operator="lessOrEqual" value="3889"/>
            </Node>
            <Node id="73">
             <SimplePredicate field="ibh" operator="greaterThan" value="3889"/>
             <Node id="86" score="9.83333333333333">
              <SimplePredicate field="temp" operator="lessOrEqual" value="59.5"/>
             </Node>
             <Node id="87">
              <SimplePredicate field="temp" operator="greaterThan" value="59.5"/>
              <Node id="94" score="4">
               <SimplePredicate field="ibt" operator="lessOrEqual" value="119.5"/>
              </Node>
              <Node id="95" score="7.5">
               <SimplePredicate field="ibt" operator="greaterThan" value="119.5"/>
              </Node>
             </Node>
            </Node>
           </Node>
           <Node id="57" score="5.5">
            <SimplePredicate field="temp" operator="greaterThan" value="64.5"/>
           </Node>
          </Node>
         </Node>
        </Node>
       </Node>
      </Node>
      <Node id="3">
       <SimplePredicate field="temp" operator="greaterThan" value="65.5"/>
       <Node id="6">
        <SimplePredicate field="temp" operator="lessOrEqual" value="79.5"/>
        <Node id="12" score="7.33333333333333">
         <SimplePredicate field="ibh" operator="lessOrEqual" value="348.5"/>
        </Node>
        <Node id="13">
         <SimplePredicate field="ibh" operator="greaterThan" value="348.5"/>
         <Node id="24">
          <SimplePredicate field="ibt" operator="lessOrEqual" value="227"/>
          <Node id="40">
           <SimplePredicate field="ibh" operator="lessOrEqual" value="4220.5"/>
           <Node id="58" score="13.1111111111111">
            <SimplePredicate field="ibt" operator="lessOrEqual" value="160.5"/>
           </Node>
           <Node id="59">
            <SimplePredicate field="ibt" operator="greaterThan" value="160.5"/>
            <Node id="74">
             <SimplePredicate field="ibt" operator="lessOrEqual" value="224.5"/>
             <Node id="88">
              <SimplePredicate field="temp" operator="lessOrEqual" value="78.5"/>
              <Node id="96">
               <SimplePredicate field="temp" operator="lessOrEqual" value="75.5"/>
               <Node id="100">
                <SimplePredicate field="temp" operator="lessOrEqual" value="74.5"/>
                <Node id="104">
                 <SimplePredicate field="temp" operator="lessOrEqual" value="73.5"/>
                 <Node id="106" score="18.3333333333333">
                  <SimplePredicate field="ibh" operator="lessOrEqual" value="1056"/>
                 </Node>
                 <Node id="107">
                  <SimplePredicate field="ibh" operator="greaterThan" value="1056"/>
                  <Node id="108" score="17.2857142857143">
                   <SimplePredicate field="ibt" operator="lessOrEqual" value="182.5"/>
                  </Node>
                  <Node id="109" score="14.4">
                   <SimplePredicate field="ibt" operator="greaterThan" value="182.5"/>
                  </Node>
                 </Node>
                </Node>
                <Node id="105" score="20">
                 <SimplePredicate field="temp" operator="greaterThan" value="73.5"/>
                </Node>
               </Node>
               <Node id="101" score="11.8">
                <SimplePredicate field="temp" operator="greaterThan" value="74.5"/>
               </Node>
              </Node>
              <Node id="97" score="19.5">
               <SimplePredicate field="temp" operator="greaterThan" value="75.5"/>
              </Node>
             </Node>
             <Node id="89" score="14.1666666666667">
              <SimplePredicate field="temp" operator="greaterThan" value="78.5"/>
             </Node>
            </Node>
            <Node id="75" score="10">
             <SimplePredicate field="ibt" operator="greaterThan" value="224.5"/>
            </Node>
           </Node>
          </Node>
          <Node id="41" score="6.66666666666667">
           <SimplePredicate field="ibh" operator="greaterThan" value="4220.5"/>
          </Node>
         </Node>
         <Node id="25">
          <SimplePredicate field="ibt" operator="greaterThan" value="227"/>
          <Node id="42" score="12">
           <SimplePredicate field="ibh" operator="lessOrEqual" value="467"/>
          </Node>
          <Node id="43">
           <SimplePredicate field="ibh" operator="greaterThan" value="467"/>
           <Node id="60" score="20.8888888888889">
            <SimplePredicate field="ibt" operator="lessOrEqual" value="241.5"/>
           </Node>
           <Node id="61" score="28.1428571428571">
            <SimplePredicate field="ibt" operator="greaterThan" value="241.5"/>
           </Node>
          </Node>
         </Node>
        </Node>
       </Node>
       <Node id="7">
        <SimplePredicate field="temp" operator="greaterThan" value="79.5"/>
        <Node id="14">
         <SimplePredicate field="temp" operator="lessOrEqual" value="90.5"/>
         <Node id="26">
          <SimplePredicate field="temp" operator="lessOrEqual" value="80.5"/>
          <Node id="44" score="24.6666666666667">
           <SimplePredicate field="ibt" operator="lessOrEqual" value="281"/>
          </Node>
          <Node id="45" score="33">
           <SimplePredicate field="ibt" operator="greaterThan" value="281"/>
          </Node>
         </Node>
         <Node id="27">
          <SimplePredicate field="temp" operator="greaterThan" value="80.5"/>
          <Node id="46">
           <SimplePredicate field="ibt" operator="lessOrEqual" value="300"/>
           <Node id="62">
            <SimplePredicate field="ibt" operator="lessOrEqual" value="288"/>
            <Node id="76">
             <SimplePredicate field="ibt" operator="lessOrEqual" value="261.5"/>
             <Node id="90">
              <SimplePredicate field="ibh" operator="lessOrEqual" value="2156.5"/>
              <Node id="98">
               <SimplePredicate field="ibh" operator="lessOrEqual" value="1638"/>
               <Node id="102" score="25.3333333333333">
                <SimplePredicate field="temp" operator="lessOrEqual" value="82"/>
               </Node>
               <Node id="103" score="22.75">
                <SimplePredicate field="temp" operator="greaterThan" value="82"/>
               </Node>
              </Node>
              <Node id="99" score="29">
               <SimplePredicate field="ibh" operator="greaterThan" value="1638"/>
              </Node>
             </Node>
             <Node id="91" score="17">
              <SimplePredicate field="ibh" operator="greaterThan" value="2156.5"/>
             </Node>
            </Node>
            <Node id="77" score="17.2857142857143">
             <SimplePredicate field="ibt" operator="greaterThan" value="261.5"/>
            </Node>
           </Node>
           <Node id="63" score="27.4">
            <SimplePredicate field="ibt" operator="greaterThan" value="288"/>
           </Node>
          </Node>
          <Node id="47" score="16">
           <SimplePredicate field="ibt" operator="greaterThan" value="300"/>
          </Node>
         </Node>
        </Node>
        <Node id="15" score="33">
         <SimplePredicate field="temp" operator="greaterThan" value="90.5"/>
        </Node>
       </Node>
      </Node>
     </Node>
    </TreeModel>
   </Segment>
   <Segment id="3">
    <True/>
    <TreeModel modelName="randomForest_Model" functionName="regression" algorithmName="randomForest" splitCharacteristic="binarySplit">
     <MiningSchema>
      <MiningField name="O3" usageType="predicted"/>
      <MiningField name="temp" usageType="active"/>
      <MiningField name="ibh" usageType="active"/>
      <MiningField name="ibt" usageType="active"/>
     </MiningSchema>
     <Node id="1">
      <True/>
      <Node id="2">
       <SimplePredicate field="temp" operator="lessOrEqual" value="67.5"/>
       <Node id="4">
        <SimplePredicate field="ibh" operator="lessOrEqual" value="2030.5"/>
        <Node id="8">
         <SimplePredicate field="ibh" operator="lessOrEqual" value="704.5"/>
         <Node id="16">
          <SimplePredicate field="temp" operator="lessOrEqual" value="59"/>
          <Node id="28" score="8.8">
           <SimplePredicate field="ibt" operator="lessOrEqual" value="180.5"/>
          </Node>
          <Node id="29" score="4">
           <SimplePredicate field="ibt" operator="greaterThan" value="180.5"/>
          </Node>
         </Node>
         <Node id="17">
          <SimplePredicate field="temp" operator="greaterThan" value="59"/>
          <Node id="30" score="11.6666666666667">
           <SimplePredicate field="ibt" operator="lessOrEqual" value="208.5"/>
          </Node>
          <Node id="31" score="8.7">
           <SimplePredicate field="ibt" operator="greaterThan" value="208.5"/>
          </Node>
         </Node>
        </Node>
        <Node id="9">
         <SimplePredicate field="ibh" operator="greaterThan" value="704.5"/>
         <Node id="18">
          <SimplePredicate field="ibh" operator="lessOrEqual" value="1151"/>
          <Node id="32" score="12">
           <SimplePredicate field="ibh" operator="lessOrEqual" value="877"/>
          </Node>
          <Node id="33">
           <SimplePredicate field="ibh" operator="greaterThan" value="877"/>
           <Node id="48">
            <SimplePredicate field="ibt" operator="lessOrEqual" value="205"/>
            <Node id="68" score="22.6666666666667">
             <SimplePredicate field="ibh" operator="lessOrEqual" value="1047.5"/>
            </Node>
            <Node id="69" score="16.875">
             <SimplePredicate field="ibh" operator="greaterThan" value="1047.5"/>
            </Node>
           </Node>
           <Node id="49" score="5">
            <SimplePredicate field="ibt" operator="greaterThan" value="205"/>
           </Node>
          </Node>
         </Node>
         <Node id="19">
          <SimplePredicate field="ibh" operator="greaterThan" value="1151"/>
          <Node id="34">
           <SimplePredicate field="temp" operator="lessOrEqual" value="63.5"/>
           <Node id="50">
            <SimplePredicate field="temp" operator="lessOrEqual" value="58"/>
            <Node id="70">
             <SimplePredicate field="ibh" operator="lessOrEqual" value="1733.5"/>
             <Node id="88" score="3">
              <SimplePredicate field="ibt" operator="lessOrEqual" value="96.5"/>
             </Node>
             <Node id="89" score="7.7">
              <SimplePredicate field="ibt" operator="greaterThan" value="96.5"/>
             </Node>
            </Node>
            <Node id="71" score="13">
             <SimplePredicate field="ibh" operator="greaterThan" value="1733.5"/>
            </Node>
           </Node>
           <Node id="51" score="12.3333333333333">
            <SimplePredicate field="temp" operator="greaterThan" value="58"/>
           </Node>
          </Node>
          <Node id="35" score="5.5">
           <SimplePredicate field="temp" operator="greaterThan" value="63.5"/>
          </Node>
         </Node>
        </Node>
       </Node>
       <Node id="5">
        <SimplePredicate field="ibh" operator="greaterThan" value="2030.5"/>
        <Node id="10">
         <SimplePredicate field="temp" operator="lessOrEqual" value="53.5"/>
         <Node id="20">
          <SimplePredicate field="temp" operator="lessOrEqual" value="39.5"/>
          <Node id="36" score="3.85714285714286">
           <SimplePredicate field="ibt" operator="lessOrEqual" value="23"/>
          </Node>
          <Node id="37">
           <SimplePredicate field="ibt" operator="greaterThan" value="23"/>
           <Node id="52" score="1.66666666666667">
            <SimplePredicate field="ibt" operator="lessOrEqual" value="47"/>
           </Node>
           <Node id="53" score="3">
            <SimplePredicate field="ibt" operator="greaterThan" value="47"/>
           </Node>
          </Node>
         </Node>
         <Node id="21">
          <SimplePredicate field="temp" operator="greaterThan" value="39.5"/>
          <Node id="38">
           <SimplePredicate field="ibt" operator="lessOrEqual" value="103"/>
           <Node id="54">
            <SimplePredicate field="ibt" operator="lessOrEqual" value="80"/>
            <Node id="72">
             <SimplePredicate field="temp" operator="lessOrEqual" value="46.5"/>
             <Node id="90">
              <SimplePredicate field="ibt" operator="lessOrEqual" value="63"/>
              <Node id="106" score="4.22222222222222">
               <SimplePredicate field="ibt" operator="lessOrEqual" value="42"/>
              </Node>
              <Node id="107" score="1.33333333333333">
               <SimplePredicate field="ibt" operator="greaterThan" value="42"/>
              </Node>
             </Node>
             <Node id="91" score="4.85714285714286">
              <SimplePredicate field="ibt" operator="greaterThan" value="63"/>
             </Node>
            </Node>
            <Node id="73" score="6">
             <SimplePredicate field="temp" operator="greaterThan" value="46.5"/>
            </Node>
           </Node>
           <Node id="55">
            <SimplePredicate field="ibt" operator="greaterThan" value="80"/>
            <Node id="74">
             <SimplePredicate field="ibh" operator="lessOrEqual" value="4352"/>
             <Node id="92" score="5">
              <SimplePredicate field="ibt" operator="lessOrEqual" value="89"/>
             </Node>
             <Node id="93" score="7.5">
              <SimplePredicate field="ibt" operator="greaterThan" value="89"/>
             </Node>
            </Node>
            <Node id="75" score="9.25">
             <SimplePredicate field="ibh" operator="greaterThan" value="4352"/>
            </Node>
           </Node>
          </Node>
          <Node id="39">
           <SimplePredicate field="ibt" operator="greaterThan" value="103"/>
           <Node id="56" score="6">
            <SimplePredicate field="temp" operator="lessOrEqual" value="42.5"/>
           </Node>
           <Node id="57">
            <SimplePredicate field="temp" operator="greaterThan" value="42.5"/>
            <Node id="76" score="3.57142857142857">
             <SimplePredicate field="ibt" operator="lessOrEqual" value="131.5"/>
            </Node>
            <Node id="77" score="3">
             <SimplePredicate field="ibt" operator="greaterThan" value="131.5"/>
            </Node>
           </Node>
          </Node>
         </Node>
        </Node>
        <Node id="11">
         <SimplePredicate field="temp" operator="greaterThan" value="53.5"/>
         <Node id="22">
          <SimplePredicate field="ibt" operator="lessOrEqual" value="154"/>
          <Node id="40">
           <SimplePredicate field="ibt" operator="lessOrEqual" value="102.5"/>
           <Node id="58">
            <SimplePredicate field="temp" operator="lessOrEqual" value="60.5"/>
            <Node id="78">
             <SimplePredicate field="temp" operator="lessOrEqual" value="58.5"/>
             <Node id="94">
              <SimplePredicate field="temp" operator="lessOrEqual" value="57"/>
              <Node id="108" score="8.25">
               <SimplePredicate field="temp" operator="lessOrEqual" value="55.5"/>
              </Node>
              <Node id="109" score="6">
               <SimplePredicate field="temp" operator="greaterThan" value="55.5"/>
              </Node>
             </Node>
             <Node id="95" score="10">
              <SimplePredicate field="temp" operator="greaterThan" value="57"/>
             </Node>
            </Node>
            <Node id="79" score="5">
             <SimplePredicate field="temp" operator="greaterThan" value="58.5"/>
            </Node>
           </Node>
           <Node id="59" score="12">
            <SimplePredicate field="temp" operator="greaterThan" value="60.5"/>
           </Node>
          </Node>
          <Node id="41">
           <SimplePredicate field="ibt" operator="greaterThan" value="102.5"/>
           <Node id="60">
            <SimplePredicate field="ibt" operator="lessOrEqual" value="127"/>
            <Node id="80" score="6">
             <SimplePredicate field="ibh" operator="lessOrEqual" value="3699"/>
            </Node>
            <Node id="81">
             <SimplePredicate field="ibh" operator="greaterThan" value="3699"/>
             <Node id="96" score="3.33333333333333">
              <SimplePredicate field="temp" operator="lessOrEqual" value="58"/>
             </Node>
             <Node id="97" score="5.44444444444444">
              <SimplePredicate field="temp" operator="greaterThan" value="58"/>
             </Node>
            </Node>
           </Node>
           <Node id="61">
            <SimplePredicate field="ibt" operator="greaterThan" value="127"/>
            <Node id="82">
             <SimplePredicate field="ibt" operator="lessOrEqual" value="151.5"/>
             <Node id="98" score="7">
              <SimplePredicate field="temp" operator="lessOrEqual" value="61.5"/>
             </Node>
             <Node id="99" score="10.75">
              <SimplePredicate field="temp" operator="greaterThan" value="61.5"/>
             </Node>
            </Node>
            <Node id="83" score="5">
             <SimplePredicate field="ibt" operator="greaterThan" value="151.5"/>
            </Node>
           </Node>
          </Node>
         </Node>
         <Node id="23">
          <SimplePredicate field="ibt" operator="greaterThan" value="154"/>
          <Node id="42" score="12.3333333333333">
           <SimplePredicate field="ibh" operator="lessOrEqual" value="4220.5"/>
          </Node>
          <Node id="43" score="7.42857142857143">
           <SimplePredicate field="ibh" operator="greaterThan" value="4220.5"/>
          </Node>
         </Node>
        </Node>
       </Node>
      </Node>
      <Node id="3">
       <SimplePredicate field="temp" operator="greaterThan" value="67.5"/>
       <Node id="6">
        <SimplePredicate field="temp" operator="lessOrEqual" value="79.5"/>
        <Node id="12">
         <SimplePredicate field="ibh" operator="lessOrEqual" value="3452.5"/>
         <Node id="24" score="6">
          <SimplePredicate field="ibh" operator="lessOrEqual" value="344"/>
         </Node>
         <Node id="25">
          <SimplePredicate field="ibh" operator="greaterThan" value="344"/>
          <Node id="44">
           <SimplePredicate field="ibt" operator="lessOrEqual" value="227"/>
           <Node id="62" score="20.3">
            <SimplePredicate field="temp" operator="lessOrEqual" value="69.5"/>
           </Node>
           <Node id="63">
            <SimplePredicate field="temp" operator="greaterThan" value="69.5"/>
            <Node id="84" score="24">
             <SimplePredicate field="ibh" operator="lessOrEqual" value="777"/>
            </Node>
            <Node id="85">
             <SimplePredicate field="ibh" operator="greaterThan" value="777"/>
             <Node id="100">
              <SimplePredicate field="temp" operator="lessOrEqual" value="75.5"/>
              <Node id="110" score="15.0588235294118">
               <SimplePredicate field="temp" operator="lessOrEqual" value="74.5"/>
              </Node>
              <Node id="111" score="11.6666666666667">
               <SimplePredicate field="temp" operator="greaterThan" value="74.5"/>
              </Node>
             </Node>
             <Node id="101" score="17.5384615384615">
              <SimplePredicate field="temp" operator="greaterThan" value="75.5"/>
             </Node>
            </Node>
           </Node>
          </Node>
          <Node id="45">
           <SimplePredicate field="ibt" operator="greaterThan" value="227"/>
           <Node id="64" score="18.6">
            <SimplePredicate field="temp" operator="lessOrEqual" value="73.5"/>
           </Node>
           <Node id="65" score="27.1666666666667">
            <SimplePredicate field="temp" operator="greaterThan" value="73.5"/>
           </Node>
          </Node>
         </Node>
        </Node>
        <Node id="13" score="7.5">
         <SimplePredicate field="ibh" operator="greaterThan" value="3452.5"/>
        </Node>
       </Node>
       <Node id="7">
        <SimplePredicate field="temp" operator="greaterThan" value="79.5"/>
        <Node id="14">
         <SimplePredicate field="ibt" operator="lessOrEqual" value="323.5"/>
         <Node id="26" score="18.8333333333333">
          <SimplePredicate field="ibh" operator="lessOrEqual" value="637.5"/>
         </Node>
         <Node id="27">
          <SimplePredicate field="ibh" operator="greaterThan" value="637.5"/>
          <Node id="46">
           <SimplePredicate field="ibt" operator="lessOrEqual" value="295.5"/>
           <Node id="66">
            <SimplePredicate field="ibh" operator="lessOrEqual" value="2233.5"/>
            <Node id="86">
             <SimplePredicate field="ibt" operator="lessOrEqual" value="257"/>
             <Node id="102" score="18">
              <SimplePredicate field="ibt" operator="lessOrEqual" value="218"/>
             </Node>
             <Node id="103" score="25.7857142857143">
              <SimplePredicate field="ibt" operator="greaterThan" value="218"/>
             </Node>
            </Node>
            <Node id="87">
             <SimplePredicate field="ibt" operator="greaterThan" value="257"/>
             <Node id="104" score="18">
              <SimplePredicate field="ibt" operator="lessOrEqual" value="264.5"/>
             </Node>
             <Node id="105" score="23.4166666666667">
              <SimplePredicate field="ibt" operator="greaterThan" value="264.5"/>
             </Node>
            </Node>
           </Node>
           <Node id="67" score="17">
            <SimplePredicate field="ibh" operator="greaterThan" value="2233.5"/>
           </Node>
          </Node>
          <Node id="47" score="30.25">
           <SimplePredicate field="ibt" operator="greaterThan" value="295.5"/>
          </Node>
         </Node>
        </Node>
        <Node id="15" score="29.2">
         <SimplePredicate field="ibt" operator="greaterThan" value="323.5"/>
        </Node>
       </Node>
      </Node>
     </Node>
    </TreeModel>
   </Segment>
   <Segment id="4">
    <True/>
    <TreeModel modelName="randomForest_Model" functionName="regression" algorithmName="randomForest" splitCharacteristic="binarySplit">
     <MiningSchema>
      <MiningField name="O3" usageType="predicted"/>
      <MiningField name="temp" usageType="active"/>
      <MiningField name="ibh" usageType="active"/>
      <MiningField name="ibt" usageType="active"/>
     </MiningSchema>
     <Node id="1">
      <True/>
      <Node id="2">
       <SimplePredicate field="temp" operator="lessOrEqual" value="65.5"/>
       <Node id="4">
        <SimplePredicate field="temp" operator="lessOrEqual" value="58.5"/>
        <Node id="8">
         <SimplePredicate field="ibh" operator="lessOrEqual" value="2235.5"/>
         <Node id="16">
          <SimplePredicate field="temp" operator="lessOrEqual" value="52.5"/>
          <Node id="30" score="3">
           <SimplePredicate field="ibt" operator="lessOrEqual" value="95.5"/>
          </Node>
          <Node id="31">
           <SimplePredicate field="ibt" operator="greaterThan" value="95.5"/>
           <Node id="52" score="3.75">
            <SimplePredicate field="ibh" operator="lessOrEqual" value="498.5"/>
           </Node>
           <Node id="53">
            <SimplePredicate field="ibh" operator="greaterThan" value="498.5"/>
            <Node id="74">
             <SimplePredicate field="temp" operator="lessOrEqual" value="50"/>
             <Node id="88" score="4.5">
              <SimplePredicate field="ibh" operator="lessOrEqual" value="601.5"/>
             </Node>
             <Node id="89" score="7.77777777777778">
              <SimplePredicate field="ibh" operator="greaterThan" value="601.5"/>
             </Node>
            </Node>
            <Node id="75" score="10.6666666666667">
             <SimplePredicate field="temp" operator="greaterThan" value="50"/>
            </Node>
           </Node>
          </Node>
         </Node>
         <Node id="17">
          <SimplePredicate field="temp" operator="greaterThan" value="52.5"/>
          <Node id="32" score="11.8888888888889">
           <SimplePredicate field="temp" operator="lessOrEqual" value="57.5"/>
          </Node>
          <Node id="33" score="3">
           <SimplePredicate field="temp" operator="greaterThan" value="57.5"/>
          </Node>
         </Node>
        </Node>
        <Node id="9">
         <SimplePredicate field="ibh" operator="greaterThan" value="2235.5"/>
         <Node id="18">
          <SimplePredicate field="temp" operator="lessOrEqual" value="39.5"/>
          <Node id="34" score="3.33333333333333">
           <SimplePredicate field="ibt" operator="lessOrEqual" value="35.5"/>
          </Node>
          <Node id="35">
           <SimplePredicate field="ibt" operator="greaterThan" value="35.5"/>
           <Node id="54" score="1.28571428571429">
            <SimplePredicate field="ibt" operator="lessOrEqual" value="47"/>
           </Node>
           <Node id="55" score="3">
            <SimplePredicate field="ibt" operator="greaterThan" value="47"/>
           </Node>
          </Node>
         </Node>
         <Node id="19">
          <SimplePredicate field="temp" operator="greaterThan" value="39.5"/>
          <Node id="36">
           <SimplePredicate field="ibt" operator="lessOrEqual" value="102.5"/>
           <Node id="56" score="7.25">
            <SimplePredicate field="ibh" operator="lessOrEqual" value="3677.5"/>
           </Node>
           <Node id="57">
            <SimplePredicate field="ibh" operator="greaterThan" value="3677.5"/>
            <Node id="76" score="7.5">
             <SimplePredicate field="temp" operator="lessOrEqual" value="40.5"/>
            </Node>
            <Node id="77">
             <SimplePredicate field="temp" operator="greaterThan" value="40.5"/>
             <Node id="90">
              <SimplePredicate field="temp" operator="lessOrEqual" value="54.5"/>
              <Node id="96" score="3.66666666666667">
               <SimplePredicate field="ibh" operator="lessOrEqual" value="4640.5"/>
              </Node>
              <Node id="97">
               <SimplePredicate field="ibh" operator="greaterThan" value="4640.5"/>
               <Node id="104">
                <SimplePredicate field="ibt" operator="lessOrEqual" value="84.5"/>
                <Node id="110" score="5.05555555555556">
                 <SimplePredicate field="temp" operator="lessOrEqual" value="50.5"/>
                </Node>
                <Node id="111" score="7.5">
                 <SimplePredicate field="temp" operator="greaterThan" value="50.5"/>
                </Node>
               </Node>
               <Node id="105" score="4">
                <SimplePredicate field="ibt" operator="greaterThan" value="84.5"/>
               </Node>
              </Node>
             </Node>
             <Node id="91" score="6.66666666666667">
              <SimplePredicate field="temp" operator="greaterThan" value="54.5"/>
             </Node>
            </Node>
           </Node>
          </Node>
          <Node id="37">
           <SimplePredicate field="ibt" operator="greaterThan" value="102.5"/>
           <Node id="58">
            <SimplePredicate field="temp" operator="lessOrEqual" value="57.5"/>
            <Node id="78" score="3">
             <SimplePredicate field="ibt" operator="lessOrEqual" value="110"/>
            </Node>
            <Node id="79">
             <SimplePredicate field="ibt" operator="greaterThan" value="110"/>
             <Node id="92">
              <SimplePredicate field="ibt" operator="lessOrEqual" value="129"/>
              <Node id="98" score="4">
               <SimplePredicate field="ibt" operator="lessOrEqual" value="112.5"/>
              </Node>
              <Node id="99" score="4.44444444444444">
               <SimplePredicate field="ibt" operator="greaterThan" value="112.5"/>
              </Node>
             </Node>
             <Node id="93" score="3.625">
              <SimplePredicate field="ibt" operator="greaterThan" value="129"/>
             </Node>
            </Node>
           </Node>
           <Node id="59" score="5.5">
            <SimplePredicate field="temp" operator="greaterThan" value="57.5"/>
           </Node>
          </Node>
         </Node>
        </Node>
       </Node>
       <Node id="5">
        <SimplePredicate field="temp" operator="greaterThan" value="58.5"/>
        <Node id="10">
         <SimplePredicate field="ibh" operator="lessOrEqual" value="3588.5"/>
         <Node id="20">
          <SimplePredicate field="ibt" operator="lessOrEqual" value="208"/>
          <Node id="38">
           <SimplePredicate field="ibh" operator="lessOrEqual" value="2468.5"/>
           <Node id="60" score="15.4">
            <SimplePredicate field="ibh" operator="lessOrEqual" value="681.5"/>
           </Node>
           <Node id="61" score="12.6">
            <SimplePredicate field="ibh" operator="greaterThan" value="681.5"/>
           </Node>
          </Node>
          <Node id="39">
           <SimplePredicate field="ibh" operator="greaterThan" value="2468.5"/>
           <Node id="62" score="7">
            <SimplePredicate field="ibh" operator="lessOrEqual" value="2727.5"/>
           </Node>
           <Node id="63" score="11.4444444444444">
            <SimplePredicate field="ibh" operator="greaterThan" value="2727.5"/>
           </Node>
          </Node>
         </Node>
         <Node id="21">
          <SimplePredicate field="ibt" operator="greaterThan" value="208"/>
          <Node id="40" score="7.5">
           <SimplePredicate field="ibt" operator="lessOrEqual" value="235.5"/>
          </Node>
          <Node id="41" score="11.4">
           <SimplePredicate field="ibt" operator="greaterThan" value="235.5"/>
          </Node>
         </Node>
        </Node>
        <Node id="11">
         <SimplePredicate field="ibh" operator="greaterThan" value="3588.5"/>
         <Node id="22" score="5">
          <SimplePredicate field="ibt" operator="lessOrEqual" value="96.5"/>
         </Node>
         <Node id="23">
          <SimplePredicate field="ibt" operator="greaterThan" value="96.5"/>
          <Node id="42" score="12">
           <SimplePredicate field="ibt" operator="lessOrEqual" value="102"/>
          </Node>
          <Node id="43">
           <SimplePredicate field="ibt" operator="greaterThan" value="102"/>
           <Node id="64" score="8.22222222222222">
            <SimplePredicate field="temp" operator="lessOrEqual" value="62.5"/>
           </Node>
           <Node id="65" score="6.57142857142857">
            <SimplePredicate field="temp" operator="greaterThan" value="62.5"/>
           </Node>
          </Node>
         </Node>
        </Node>
       </Node>
      </Node>
      <Node id="3">
       <SimplePredicate field="temp" operator="greaterThan" value="65.5"/>
       <Node id="6">
        <SimplePredicate field="temp" operator="lessOrEqual" value="79.5"/>
        <Node id="12">
         <SimplePredicate field="ibh" operator="lessOrEqual" value="3556"/>
         <Node id="24" score="6">
          <SimplePredicate field="ibh" operator="lessOrEqual" value="352.5"/>
         </Node>
         <Node id="25">
          <SimplePredicate field="ibh" operator="greaterThan" value="352.5"/>
          <Node id="44">
           <SimplePredicate field="ibt" operator="lessOrEqual" value="263"/>
           <Node id="66">
            <SimplePredicate field="ibh" operator="lessOrEqual" value="2785"/>
            <Node id="80" score="14">
             <SimplePredicate field="ibt" operator="lessOrEqual" value="167.5"/>
            </Node>
            <Node id="81">
             <SimplePredicate field="ibt" operator="greaterThan" value="167.5"/>
             <Node id="94">
              <SimplePredicate field="ibh" operator="lessOrEqual" value="1336.5"/>
              <Node id="100" score="21.6">
               <SimplePredicate field="ibt" operator="lessOrEqual" value="193"/>
              </Node>
              <Node id="101">
               <SimplePredicate field="ibt" operator="greaterThan" value="193"/>
               <Node id="106" score="18.5">
                <SimplePredicate field="ibh" operator="lessOrEqual" value="424.5"/>
               </Node>
               <Node id="107" score="14.5909090909091">
                <SimplePredicate field="ibh" operator="greaterThan" value="424.5"/>
               </Node>
              </Node>
             </Node>
             <Node id="95">
              <SimplePredicate field="ibh" operator="greaterThan" value="1336.5"/>
              <Node id="102">
               <SimplePredicate field="ibh" operator="lessOrEqual" value="2112.5"/>
               <Node id="108" score="18.5">
                <SimplePredicate field="ibt" operator="lessOrEqual" value="206.5"/>
               </Node>
               <Node id="109" score="23.1666666666667">
                <SimplePredicate field="ibt" operator="greaterThan" value="206.5"/>
               </Node>
              </Node>
              <Node id="103" score="16.1111111111111">
               <SimplePredicate field="ibh" operator="greaterThan" value="2112.5"/>
              </Node>
             </Node>
            </Node>
           </Node>
           <Node id="67">
            <SimplePredicate field="ibh" operator="greaterThan" value="2785"/>
            <Node id="82" score="16.8571428571429">
             <SimplePredicate field="temp" operator="lessOrEqual" value="71"/>
            </Node>
            <Node id="83" score="11.9">
             <SimplePredicate field="temp" operator="greaterThan" value="71"/>
            </Node>
           </Node>
          </Node>
          <Node id="45" score="27">
           <SimplePredicate field="ibt" operator="greaterThan" value="263"/>
          </Node>
         </Node>
        </Node>
        <Node id="13" score="7.44444444444444">
         <SimplePredicate field="ibh" operator="greaterThan" value="3556"/>
        </Node>
       </Node>
       <Node id="7">
        <SimplePredicate field="temp" operator="greaterThan" value="79.5"/>
        <Node id="14">
         <SimplePredicate field="temp" operator="lessOrEqual" value="86.5"/>
         <Node id="26">
          <SimplePredicate field="ibt" operator="lessOrEqual" value="263"/>
          <Node id="46">
           <SimplePredicate field="ibh" operator="lessOrEqual" value="2233.5"/>
           <Node id="68" score="18">
            <SimplePredicate field="ibt" operator="lessOrEqual" value="218"/>
           </Node>
           <Node id="69">
            <SimplePredicate field="ibt" operator="greaterThan" value="218"/>
            <Node id="84" score="23.8">
             <SimplePredicate field="ibh" operator="lessOrEqual" value="1594"/>
            </Node>
            <Node id="85" score="29">
             <SimplePredicate field="ibh" operator="greaterThan" value="1594"/>
            </Node>
           </Node>
          </Node>
          <Node id="47" score="17">
           <SimplePredicate field="ibh" operator="greaterThan" value="2233.5"/>
          </Node>
         </Node>
         <Node id="27">
          <SimplePredicate field="ibt" operator="greaterThan" value="263"/>
          <Node id="48" score="33">
           <SimplePredicate field="temp" operator="lessOrEqual" value="80.5"/>
          </Node>
          <Node id="49">
           <SimplePredicate field="temp" operator="greaterThan" value="80.5"/>
           <Node id="70" score="15">
            <SimplePredicate field="temp" operator="lessOrEqual" value="82"/>
           </Node>
           <Node id="71" score="19.1111111111111">
            <SimplePredicate field="temp" operator="greaterThan" value="82"/>
           </Node>
          </Node>
         </Node>
        </Node>
        <Node id="15">
         <SimplePredicate field="temp" operator="greaterThan" value="86.5"/>
         <Node id="28">
          <SimplePredicate field="ibt" operator="lessOrEqual" value="316.5"/>
          <Node id="50" score="19.5">
           <SimplePredicate field="ibh" operator="lessOrEqual" value="710"/>
          </Node>
          <Node id="51">
           <SimplePredicate field="ibh" operator="greaterThan" value="710"/>
           <Node id="72">
            <SimplePredicate field="ibt" operator="lessOrEqual" value="293"/>
            <Node id="86" score="29">
             <SimplePredicate field="ibt" operator="lessOrEqual" value="263.5"/>
            </Node>
            <Node id="87" score="25.8">
             <SimplePredicate field="ibt" operator="greaterThan" value="263.5"/>
            </Node>
           </Node>
           <Node id="73" score="33.5714285714286">
            <SimplePredicate field="ibt" operator="greaterThan" value="293"/>
           </Node>
          </Node>
         </Node>
         <Node id="29" score="38">
          <SimplePredicate field="ibt" operator="greaterThan" value="316.5"/>
         </Node>
        </Node>
       </Node>
      </Node>
     </Node>
    </TreeModel>
   </Segment>
   <Segment id="5">
    <True/>
    <TreeModel modelName="randomForest_Model" functionName="regression" algorithmName="randomForest" splitCharacteristic="binarySplit">
     <MiningSchema>
      <MiningField name="O3" usageType="predicted"/>
      <MiningField name="temp" usageType="active"/>
      <MiningField name="ibh" usageType="active"/>
      <MiningField name="ibt" usageType="active"/>
     </MiningSchema>
     <Node id="1">
      <True/>
      <Node id="2">
       <SimplePredicate field="temp" operator="lessOrEqual" value="65.5"/>
       <Node id="4">
        <SimplePredicate field="ibh" operator="lessOrEqual" value="2437.5"/>
        <Node id="8">
         <SimplePredicate field="temp" operator="lessOrEqual" value="56"/>
         <Node id="16" score="4.33333333333333">
          <SimplePredicate field="ibh" operator="lessOrEqual" value="637.5"/>
         </Node>
         <Node id="17">
          <SimplePredicate field="ibh" operator="greaterThan" value="637.5"/>
          <Node id="30" score="11.1">
           <SimplePredicate field="temp" operator="lessOrEqual" value="53.5"/>
          </Node>
          <Node id="31" score="6.5">
           <SimplePredicate field="temp" operator="greaterThan" value="53.5"/>
          </Node>
         </Node>
        </Node>
        <Node id="9">
         <SimplePredicate field="temp" operator="greaterThan" value="56"/>
         <Node id="18">
          <SimplePredicate field="ibt" operator="lessOrEqual" value="212.5"/>
          <Node id="32">
           <SimplePredicate field="ibt" operator="lessOrEqual" value="171.5"/>
           <Node id="44">
            <SimplePredicate field="ibh" operator="lessOrEqual" value="2199.5"/>
            <Node id="64" score="10">
             <SimplePredicate field="ibh" operator="lessOrEqual" value="1951.5"/>
            </Node>
            <Node id="65" score="13.4">
             <SimplePredicate field="ibh" operator="greaterThan" value="1951.5"/>
            </Node>
           </Node>
           <Node id="45" score="8">
            <SimplePredicate field="ibh" operator="greaterThan" value="2199.5"/>
           </Node>
          </Node>
          <Node id="33">
           <SimplePredicate field="ibt" operator="greaterThan" value="171.5"/>
           <Node id="46" score="15.1428571428571">
            <SimplePredicate field="ibt" operator="lessOrEqual" value="196.5"/>
           </Node>
           <Node id="47" score="11.75">
            <SimplePredicate field="ibt" operator="greaterThan" value="196.5"/>
           </Node>
          </Node>
         </Node>
         <Node id="19" score="8">
          <SimplePredicate field="ibt" operator="greaterThan" value="212.5"/>
         </Node>
        </Node>
       </Node>
       <Node id="5">
        <SimplePredicate field="ibh" operator="greaterThan" value="2437.5"/>
        <Node id="10">
         <SimplePredicate field="temp" operator="lessOrEqual" value="55.5"/>
         <Node id="20">
          <SimplePredicate field="ibt" operator="lessOrEqual" value="53.5"/>
          <Node id="34">
           <SimplePredicate field="ibt" operator="lessOrEqual" value="42.5"/>
           <Node id="48">
            <SimplePredicate field="temp" operator="lessOrEqual" value="44.5"/>
            <Node id="66">
             <SimplePredicate field="ibt" operator="lessOrEqual" value="32.5"/>
             <Node id="82">
              <SimplePredicate field="ibt" operator="lessOrEqual" value="15.5"/>
              <Node id="94" score="3.6">
               <SimplePredicate field="temp" operator="lessOrEqual" value="41.5"/>
              </Node>
              <Node id="95" score="2">
               <SimplePredicate field="temp" operator="greaterThan" value="41.5"/>
              </Node>
             </Node>
             <Node id="83">
              <SimplePredicate field="ibt" operator="greaterThan" value="15.5"/>
              <Node id="96" score="5">
               <SimplePredicate field="ibt" operator="lessOrEqual" value="21"/>
              </Node>
              <Node id="97" score="4">
               <SimplePredicate field="ibt" operator="greaterThan" value="21"/>
              </Node>
             </Node>
            </Node>
            <Node id="67" score="2.5">
             <SimplePredicate field="ibt" operator="greaterThan" value="32.5"/>
            </Node>
           </Node>
           <Node id="49" score="5.66666666666667">
            <SimplePredicate field="temp" operator="greaterThan" value="44.5"/>
           </Node>
          </Node>
          <Node id="35" score="2.22222222222222">
           <SimplePredicate field="ibt" operator="greaterThan" value="42.5"/>
          </Node>
         </Node>
         <Node id="21">
          <SimplePredicate field="ibt" operator="greaterThan" value="53.5"/>
          <Node id="36">
           <SimplePredicate field="temp" operator="lessOrEqual" value="50.5"/>
           <Node id="50" score="4.66666666666667">
            <SimplePredicate field="ibh" operator="lessOrEqual" value="2735.5"/>
           </Node>
           <Node id="51">
            <SimplePredicate field="ibh" operator="greaterThan" value="2735.5"/>
            <Node id="68" score="9.4">
             <SimplePredicate field="temp" operator="lessOrEqual" value="40.5"/>
            </Node>
            <Node id="69">
             <SimplePredicate field="temp" operator="greaterThan" value="40.5"/>
             <Node id="84" score="9">
              <SimplePredicate field="ibh" operator="lessOrEqual" value="2892"/>
             </Node>
             <Node id="85">
              <SimplePredicate field="ibh" operator="greaterThan" value="2892"/>
              <Node id="98" score="6.66666666666667">
               <SimplePredicate field="ibt" operator="lessOrEqual" value="61.5"/>
              </Node>
              <Node id="99">
               <SimplePredicate field="ibt" operator="greaterThan" value="61.5"/>
               <Node id="106" score="4.33333333333333">
                <SimplePredicate field="ibt" operator="lessOrEqual" value="90"/>
               </Node>
               <Node id="107" score="6">
                <SimplePredicate field="ibt" operator="greaterThan" value="90"/>
               </Node>
              </Node>
             </Node>
            </Node>
           </Node>
          </Node>
          <Node id="37">
           <SimplePredicate field="temp" operator="greaterThan" value="50.5"/>
           <Node id="52">
            <SimplePredicate field="ibt" operator="lessOrEqual" value="102.5"/>
            <Node id="70" score="9">
             <SimplePredicate field="ibh" operator="lessOrEqual" value="4325.5"/>
            </Node>
            <Node id="71">
             <SimplePredicate field="ibh" operator="greaterThan" value="4325.5"/>
             <Node id="86">
              <SimplePredicate field="ibt" operator="lessOrEqual" value="97.5"/>
              <Node id="100" score="5.33333333333333">
               <SimplePredicate field="ibt" operator="lessOrEqual" value="80"/>
              </Node>
              <Node id="101" score="4">
               <SimplePredicate field="ibt" operator="greaterThan" value="80"/>
              </Node>
             </Node>
             <Node id="87" score="9">
              <SimplePredicate field="ibt" operator="greaterThan" value="97.5"/>
             </Node>
            </Node>
           </Node>
           <Node id="53">
            <SimplePredicate field="ibt" operator="greaterThan" value="102.5"/>
            <Node id="72" score="2.75">
             <SimplePredicate field="ibt" operator="lessOrEqual" value="110"/>
            </Node>
            <Node id="73" score="3.77777777777778">
             <SimplePredicate field="ibt" operator="greaterThan" value="110"/>
            </Node>
           </Node>
          </Node>
         </Node>
        </Node>
        <Node id="11">
         <SimplePredicate field="temp" operator="greaterThan" value="55.5"/>
         <Node id="22" score="4.66666666666667">
          <SimplePredicate field="ibt" operator="lessOrEqual" value="71"/>
         </Node>
         <Node id="23">
          <SimplePredicate field="ibt" operator="greaterThan" value="71"/>
          <Node id="38">
           <SimplePredicate field="ibt" operator="lessOrEqual" value="150"/>
           <Node id="54">
            <SimplePredicate field="temp" operator="lessOrEqual" value="61.5"/>
            <Node id="74" score="8.33333333333333">
             <SimplePredicate field="ibt" operator="lessOrEqual" value="90.5"/>
            </Node>
            <Node id="75">
             <SimplePredicate field="ibt" operator="greaterThan" value="90.5"/>
             <Node id="88" score="5">
              <SimplePredicate field="ibt" operator="lessOrEqual" value="113"/>
             </Node>
             <Node id="89" score="7.5">
              <SimplePredicate field="ibt" operator="greaterThan" value="113"/>
             </Node>
            </Node>
           </Node>
           <Node id="55" score="9.88888888888889">
            <SimplePredicate field="temp" operator="greaterThan" value="61.5"/>
           </Node>
          </Node>
          <Node id="39">
           <SimplePredicate field="ibt" operator="greaterThan" value="150"/>
           <Node id="56" score="7">
            <SimplePredicate field="ibh" operator="lessOrEqual" value="3155.5"/>
           </Node>
           <Node id="57" score="4.85714285714286">
            <SimplePredicate field="ibh" operator="greaterThan" value="3155.5"/>
           </Node>
          </Node>
         </Node>
        </Node>
       </Node>
      </Node>
      <Node id="3">
       <SimplePredicate field="temp" operator="greaterThan" value="65.5"/>
       <Node id="6">
        <SimplePredicate field="temp" operator="lessOrEqual" value="79.5"/>
        <Node id="12">
         <SimplePredicate field="ibh" operator="lessOrEqual" value="2785"/>
         <Node id="24" score="10.8571428571429">
          <SimplePredicate field="ibh" operator="lessOrEqual" value="480.5"/>
         </Node>
         <Node id="25">
          <SimplePredicate field="ibh" operator="greaterThan" value="480.5"/>
          <Node id="40">
           <SimplePredicate field="ibt" operator="lessOrEqual" value="215.5"/>
           <Node id="58">
            <SimplePredicate field="temp" operator="lessOrEqual" value="77"/>
            <Node id="76" score="15.7">
             <SimplePredicate field="ibt" operator="lessOrEqual" value="190.5"/>
            </Node>
            <Node id="77">
             <SimplePredicate field="ibt" operator="greaterThan" value="190.5"/>
             <Node id="90">
              <SimplePredicate field="temp" operator="lessOrEqual" value="75"/>
              <Node id="102" score="24">
               <SimplePredicate field="ibh" operator="lessOrEqual" value="746"/>
              </Node>
              <Node id="103">
               <SimplePredicate field="ibh" operator="greaterThan" value="746"/>
               <Node id="108" score="16.3333333333333">
                <SimplePredicate field="ibh" operator="lessOrEqual" value="1166"/>
               </Node>
               <Node id="109" score="18.5">
                <SimplePredicate field="ibh" operator="greaterThan" value="1166"/>
               </Node>
              </Node>
             </Node>
             <Node id="91">
              <SimplePredicate field="temp" operator="greaterThan" value="75"/>
              <Node id="104" score="24">
               <SimplePredicate field="ibh" operator="lessOrEqual" value="1625"/>
              </Node>
              <Node id="105" score="18.5714285714286">
               <SimplePredicate field="ibh" operator="greaterThan" value="1625"/>
              </Node>
             </Node>
            </Node>
           </Node>
           <Node id="59" score="14.5714285714286">
            <SimplePredicate field="temp" operator="greaterThan" value="77"/>
           </Node>
          </Node>
          <Node id="41">
           <SimplePredicate field="ibt" operator="greaterThan" value="215.5"/>
           <Node id="60" score="29">
            <SimplePredicate field="ibt" operator="lessOrEqual" value="217"/>
           </Node>
           <Node id="61">
            <SimplePredicate field="ibt" operator="greaterThan" value="217"/>
            <Node id="78" score="19.3">
             <SimplePredicate field="ibt" operator="lessOrEqual" value="237.5"/>
            </Node>
            <Node id="79" score="23.25">
             <SimplePredicate field="ibt" operator="greaterThan" value="237.5"/>
            </Node>
           </Node>
          </Node>
         </Node>
        </Node>
        <Node id="13">
         <SimplePredicate field="ibh" operator="greaterThan" value="2785"/>
         <Node id="26" score="9.14285714285714">
          <SimplePredicate field="ibt" operator="lessOrEqual" value="191"/>
         </Node>
         <Node id="27" score="12.6">
          <SimplePredicate field="ibt" operator="greaterThan" value="191"/>
         </Node>
        </Node>
       </Node>
       <Node id="7">
        <SimplePredicate field="temp" operator="greaterThan" value="79.5"/>
        <Node id="14">
         <SimplePredicate field="temp" operator="lessOrEqual" value="86.5"/>
         <Node id="28">
          <SimplePredicate field="ibh" operator="lessOrEqual" value="1945"/>
          <Node id="42">
           <SimplePredicate field="ibt" operator="lessOrEqual" value="265"/>
           <Node id="62" score="19">
            <SimplePredicate field="ibt" operator="lessOrEqual" value="231.5"/>
           </Node>
           <Node id="63">
            <SimplePredicate field="ibt" operator="greaterThan" value="231.5"/>
            <Node id="80">
             <SimplePredicate field="temp" operator="lessOrEqual" value="85.5"/>
             <Node id="92" score="28">
              <SimplePredicate field="ibh" operator="lessOrEqual" value="610"/>
             </Node>
             <Node id="93" score="24.7">
              <SimplePredicate field="ibh" operator="greaterThan" value="610"/>
             </Node>
            </Node>
            <Node id="81" score="29">
             <SimplePredicate field="temp" operator="greaterThan" value="85.5"/>
            </Node>
           </Node>
          </Node>
          <Node id="43" score="19.4">
           <SimplePredicate field="ibt" operator="greaterThan" value="265"/>
          </Node>
         </Node>
         <Node id="29" score="17.4">
          <SimplePredicate field="ibh" operator="greaterThan" value="1945"/>
         </Node>
        </Node>
        <Node id="15" score="29.1111111111111">
         <SimplePredicate field="temp" operator="greaterThan" value="86.5"/>
        </Node>
       </Node>
      </Node>
     </Node>
    </TreeModel>
   </Segment>
   <Segment id="6">
    <True/>
    <TreeModel modelName="randomForest_Model" functionName="regression" algorithmName="randomForest" splitCharacteristic="binarySplit">
     <MiningSchema>
      <MiningField name="O3" usageType="predicted"/>
      <MiningField name="temp" usageType="active"/>
      <MiningField name="ibh" usageType="active"/>
      <MiningField name="ibt" usageType="active"/>
     </MiningSchema>
     <Node id="1">
      <True/>
      <Node id="2">
       <SimplePredicate field="temp" operator="lessOrEqual" value="67.5"/>
       <Node id="4">
        <SimplePredicate field="temp" operator="lessOrEqual" value="59.5"/>
        <Node id="8">
         <SimplePredicate field="temp" operator="lessOrEqual" value="41.5"/>
         <Node id="16">
          <SimplePredicate field="ibt" operator="lessOrEqual" value="101"/>
          <Node id="30">
           <SimplePredicate field="ibt" operator="lessOrEqual" value="31"/>
           <Node id="44" score="3.33333333333333">
            <SimplePredicate field="temp" operator="lessOrEqual" value="34.5"/>
           </Node>
           <Node id="45" score="4.33333333333333">
            <SimplePredicate field="temp" operator="greaterThan" value="34.5"/>
           </Node>
          </Node>
          <Node id="31">
           <SimplePredicate field="ibt" operator="greaterThan" value="31"/>
           <Node id="46">
            <SimplePredicate field="ibt" operator="lessOrEqual" value="49.5"/>
            <Node id="62" score="2.16666666666667">
             <SimplePredicate field="ibt" operator="lessOrEqual" value="40.5"/>
            </Node>
            <Node id="63" score="1.57142857142857">
             <SimplePredicate field="ibt" operator="greaterThan" value="40.5"/>
            </Node>
           </Node>
           <Node id="47">
            <SimplePredicate field="ibt" operator="greaterThan" value="49.5"/>
            <Node id="64" score="3">
             <SimplePredicate field="temp" operator="lessOrEqual" value="40.5"/>
            </Node>
            <Node id="65" score="4.5">
             <SimplePredicate field="temp" operator="greaterThan" value="40.5"/>
            </Node>
           </Node>
          </Node>
         </Node>
         <Node id="17" score="7.25">
          <SimplePredicate field="ibt" operator="greaterThan" value="101"/>
         </Node>
        </Node>
        <Node id="9">
         <SimplePredicate field="temp" operator="greaterThan" value="41.5"/>
         <Node id="18">
          <SimplePredicate field="ibh" operator="lessOrEqual" value="2235.5"/>
          <Node id="32">
           <SimplePredicate field="ibt" operator="lessOrEqual" value="198"/>
           <Node id="48">
            <SimplePredicate field="ibt" operator="lessOrEqual" value="178"/>
            <Node id="66" score="5.71428571428571">
             <SimplePredicate field="temp" operator="lessOrEqual" value="47.5"/>
            </Node>
            <Node id="67">
             <SimplePredicate field="temp" operator="greaterThan" value="47.5"/>
             <Node id="84">
              <SimplePredicate field="ibt" operator="lessOrEqual" value="170"/>
              <Node id="100" score="9.3">
               <SimplePredicate field="ibt" operator="lessOrEqual" value="165"/>
              </Node>
              <Node id="101" score="12.5">
               <SimplePredicate field="ibt" operator="greaterThan" value="165"/>
              </Node>
             </Node>
             <Node id="85" score="5">
              <SimplePredicate field="ibt" operator="greaterThan" value="170"/>
             </Node>
            </Node>
           </Node>
           <Node id="49" score="17">
            <SimplePredicate field="ibt" operator="greaterThan" value="178"/>
           </Node>
          </Node>
          <Node id="33">
           <SimplePredicate field="ibt" operator="greaterThan" value="198"/>
           <Node id="50">
            <SimplePredicate field="ibh" operator="lessOrEqual" value="1720"/>
            <Node id="68">
             <SimplePredicate field="temp" operator="lessOrEqual" value="58.5"/>
             <Node id="86" score="4.57142857142857">
              <SimplePredicate field="ibt" operator="lessOrEqual" value="220"/>
             </Node>
             <Node id="87" score="3.5">
              <SimplePredicate field="ibt" operator="greaterThan" value="220"/>
             </Node>
            </Node>
            <Node id="69" score="6.5">
             <SimplePredicate field="temp" operator="greaterThan" value="58.5"/>
            </Node>
           </Node>
           <Node id="51" score="9">
            <SimplePredicate field="ibh" operator="greaterThan" value="1720"/>
           </Node>
          </Node>
         </Node>
         <Node id="19">
          <SimplePredicate field="ibh" operator="greaterThan" value="2235.5"/>
          <Node id="34">
           <SimplePredicate field="ibt" operator="lessOrEqual" value="103"/>
           <Node id="52">
            <SimplePredicate field="temp" operator="lessOrEqual" value="57"/>
            <Node id="70" score="7.55555555555556">
             <SimplePredicate field="ibh" operator="lessOrEqual" value="3677.5"/>
            </Node>
            <Node id="71">
             <SimplePredicate field="ibh" operator="greaterThan" value="3677.5"/>
             <Node id="88">
              <SimplePredicate field="ibt" operator="lessOrEqual" value="80"/>
              <Node id="102" score="5">
               <SimplePredicate field="temp" operator="lessOrEqual" value="46.5"/>
              </Node>
              <Node id="103" score="7.07142857142857">
               <SimplePredicate field="temp" operator="greaterThan" value="46.5"/>
              </Node>
             </Node>
             <Node id="89" score="5.125">
              <SimplePredicate field="ibt" operator="greaterThan" value="80"/>
             </Node>
            </Node>
           </Node>
           <Node id="53" score="10">
            <SimplePredicate field="temp" operator="greaterThan" value="57"/>
           </Node>
          </Node>
          <Node id="35">
           <SimplePredicate field="ibt" operator="greaterThan" value="103"/>
           <Node id="54">
            <SimplePredicate field="temp" operator="lessOrEqual" value="56.5"/>
            <Node id="72" score="5.2">
             <SimplePredicate field="ibh" operator="lessOrEqual" value="2998.5"/>
            </Node>
            <Node id="73">
             <SimplePredicate field="ibh" operator="greaterThan" value="2998.5"/>
             <Node id="90" score="2.33333333333333">
              <SimplePredicate field="ibt" operator="lessOrEqual" value="111.5"/>
             </Node>
             <Node id="91" score="3.9">
              <SimplePredicate field="ibt" operator="greaterThan" value="111.5"/>
             </Node>
            </Node>
           </Node>
           <Node id="55" score="7.33333333333333">
            <SimplePredicate field="temp" operator="greaterThan" value="56.5"/>
           </Node>
          </Node>
         </Node>
        </Node>
       </Node>
       <Node id="5">
        <SimplePredicate field="temp" operator="greaterThan" value="59.5"/>
        <Node id="10">
         <SimplePredicate field="ibh" operator="lessOrEqual" value="3591.5"/>
         <Node id="20" score="8">
          <SimplePredicate field="ibt" operator="lessOrEqual" value="147.5"/>
         </Node>
         <Node id="21">
          <SimplePredicate field="ibt" operator="greaterThan" value="147.5"/>
          <Node id="36">
           <SimplePredicate field="ibt" operator="lessOrEqual" value="201.5"/>
           <Node id="56">
            <SimplePredicate field="ibt" operator="lessOrEqual" value="159.5"/>
            <Node id="74" score="9">
             <SimplePredicate field="ibh" operator="lessOrEqual" value="2972"/>
            </Node>
            <Node id="75" score="12">
             <SimplePredicate field="ibh" operator="greaterThan" value="2972"/>
            </Node>
           </Node>
           <Node id="57">
            <SimplePredicate field="ibt" operator="greaterThan" value="159.5"/>
            <Node id="76">
             <SimplePredicate field="temp" operator="lessOrEqual" value="66.5"/>
             <Node id="92" score="13">
              <SimplePredicate field="temp" operator="lessOrEqual" value="62.5"/>
             </Node>
             <Node id="93">
              <SimplePredicate field="temp" operator="greaterThan" value="62.5"/>
              <Node id="104" score="13.8">
               <SimplePredicate field="ibh" operator="lessOrEqual" value="971"/>
              </Node>
              <Node id="105" score="16.8333333333333">
               <SimplePredicate field="ibh" operator="greaterThan" value="971"/>
              </Node>
             </Node>
            </Node>
            <Node id="77" score="9">
             <SimplePredicate field="temp" operator="greaterThan" value="66.5"/>
            </Node>
           </Node>
          </Node>
          <Node id="37" score="9.22222222222222">
           <SimplePredicate field="ibt" operator="greaterThan" value="201.5"/>
          </Node>
         </Node>
        </Node>
        <Node id="11">
         <SimplePredicate field="ibh" operator="greaterThan" value="3591.5"/>
         <Node id="22" score="8.8">
          <SimplePredicate field="ibt" operator="lessOrEqual" value="145"/>
         </Node>
         <Node id="23" score="6.16666666666667">
          <SimplePredicate field="ibt" operator="greaterThan" value="145"/>
         </Node>
        </Node>
       </Node>
      </Node>
      <Node id="3">
       <SimplePredicate field="temp" operator="greaterThan" value="67.5"/>
       <Node id="6">
        <SimplePredicate field="temp" operator="lessOrEqual" value="79.5"/>
        <Node id="12" score="6">
         <SimplePredicate field="ibh" operator="lessOrEqual" value="344"/>
        </Node>
        <Node id="13">
         <SimplePredicate field="ibh" operator="greaterThan" value="344"/>
         <Node id="24">
          <SimplePredicate field="ibh" operator="lessOrEqual" value="4043"/>
          <Node id="38">
           <SimplePredicate field="ibt" operator="lessOrEqual" value="237.5"/>
           <Node id="58">
            <SimplePredicate field="ibt" operator="lessOrEqual" value="205.5"/>
            <Node id="78">
             <SimplePredicate field="ibt" operator="lessOrEqual" value="202"/>
             <Node id="94">
              <SimplePredicate field="temp" operator="lessOrEqual" value="74.5"/>
              <Node id="106" score="15.6666666666667">
               <SimplePredicate field="ibh" operator="lessOrEqual" value="3733"/>
              </Node>
              <Node id="107" score="23">
               <SimplePredicate field="ibh" operator="greaterThan" value="3733"/>
              </Node>
             </Node>
             <Node id="95" score="24">
              <SimplePredicate field="temp" operator="greaterThan" value="74.5"/>
             </Node>
            </Node>
            <Node id="79" score="11.6666666666667">
             <SimplePredicate field="ibt" operator="greaterThan" value="202"/>
            </Node>
           </Node>
           <Node id="59">
            <SimplePredicate field="ibt" operator="greaterThan" value="205.5"/>
            <Node id="80">
             <SimplePredicate field="temp" operator="lessOrEqual" value="77.5"/>
             <Node id="96" score="16.6666666666667">
              <SimplePredicate field="ibh" operator="lessOrEqual" value="880"/>
             </Node>
             <Node id="97">
              <SimplePredicate field="ibh" operator="greaterThan" value="880"/>
              <Node id="108" score="18">
               <SimplePredicate field="ibt" operator="lessOrEqual" value="208.5"/>
              </Node>
              <Node id="109" score="22.6363636363636">
               <SimplePredicate field="ibt" operator="greaterThan" value="208.5"/>
              </Node>
             </Node>
            </Node>
            <Node id="81" score="15">
             <SimplePredicate field="temp" operator="greaterThan" value="77.5"/>
            </Node>
           </Node>
          </Node>
          <Node id="39" score="23.6">
           <SimplePredicate field="ibt" operator="greaterThan" value="237.5"/>
          </Node>
         </Node>
         <Node id="25" score="8.25">
          <SimplePredicate field="ibh" operator="greaterThan" value="4043"/>
         </Node>
        </Node>
       </Node>
       <Node id="7">
        <SimplePredicate field="temp" operator="greaterThan" value="79.5"/>
        <Node id="14">
         <SimplePredicate field="temp" operator="lessOrEqual" value="90.5"/>
         <Node id="26" score="17.6666666666667">
          <SimplePredicate field="ibt" operator="lessOrEqual" value="232"/>
         </Node>
         <Node id="27">
          <SimplePredicate field="ibt" operator="greaterThan" value="232"/>
          <Node id="40">
           <SimplePredicate field="temp" operator="lessOrEqual" value="89.5"/>
           <Node id="60">
            <SimplePredicate field="temp" operator="lessOrEqual" value="85.5"/>
            <Node id="82" score="29.6666666666667">
             <SimplePredicate field="ibh" operator="lessOrEqual" value="578.5"/>
            </Node>
            <Node id="83">
             <SimplePredicate field="ibh" operator="greaterThan" value="578.5"/>
             <Node id="98">
              <SimplePredicate field="ibt" operator="lessOrEqual" value="301"/>
              <Node id="110" score="24.5555555555556">
               <SimplePredicate field="temp" operator="lessOrEqual" value="83.5"/>
              </Node>
              <Node id="111" score="20.6666666666667">
               <SimplePredicate field="temp" operator="greaterThan" value="83.5"/>
              </Node>
             </Node>
             <Node id="99" score="15">
              <SimplePredicate field="ibt" operator="greaterThan" value="301"/>
             </Node>
            </Node>
           </Node>
           <Node id="61" score="30.3333333333333">
            <SimplePredicate field="temp" operator="greaterThan" value="85.5"/>
           </Node>
          </Node>
          <Node id="41" score="19">
           <SimplePredicate field="temp" operator="greaterThan" value="89.5"/>
          </Node>
         </Node>
        </Node>
        <Node id="15">
         <SimplePredicate field="temp" operator="greaterThan" value="90.5"/>
         <Node id="28">
          <SimplePredicate field="ibh" operator="lessOrEqual" value="1025"/>
          <Node id="42" score="34.75">
           <SimplePredicate field="ibt" operator="lessOrEqual" value="329"/>
          </Node>
          <Node id="43" score="27">
           <SimplePredicate field="ibt" operator="greaterThan" value="329"/>
          </Node>
         </Node>
         <Node id="29" score="25">
          <SimplePredicate field="ibh" operator="greaterThan" value="1025"/>
         </Node>
        </Node>
       </Node>
      </Node>
     </Node>
    </TreeModel>
   </Segment>
   <Segment id="7">
    <True/>
    <TreeModel modelName="randomForest_Model" functionName="regression" algorithmName="randomForest" splitCharacteristic="binarySplit">
     <MiningSchema>
      <MiningField name="O3" usageType="predicted"/>
      <MiningField name="temp" usageType="active"/>
      <MiningField name="ibh" usageType="active"/>
      <MiningField name="ibt" usageType="active"/>
     </MiningSchema>
     <Node id="1">
      <True/>
      <Node id="2">
       <SimplePredicate field="temp" operator="lessOrEqual" value="73.5"/>
       <Node id="4">
        <SimplePredicate field="temp" operator="lessOrEqual" value="58.5"/>
        <Node id="8">
         <SimplePredicate field="temp" operator="lessOrEqual" value="51.5"/>
         <Node id="16">
          <SimplePredicate field="ibt" operator="lessOrEqual" value="54.5"/>
          <Node id="30" score="7">
           <SimplePredicate field="ibh" operator="lessOrEqual" value="4304"/>
          </Node>
          <Node id="31">
           <SimplePredicate field="ibh" operator="greaterThan" value="4304"/>
           <Node id="52">
            <SimplePredicate field="temp" operator="lessOrEqual" value="47.5"/>
            <Node id="72">
             <SimplePredicate field="temp" operator="lessOrEqual" value="45"/>
             <Node id="90" score="4">
              <SimplePredicate field="temp" operator="lessOrEqual" value="35.5"/>
             </Node>
             <Node id="91">
              <SimplePredicate field="temp" operator="greaterThan" value="35.5"/>
              <Node id="108" score="3.18181818181818">
               <SimplePredicate field="temp" operator="lessOrEqual" value="41.5"/>
              </Node>
              <Node id="109" score="2">
               <SimplePredicate field="temp" operator="greaterThan" value="41.5"/>
              </Node>
             </Node>
            </Node>
            <Node id="73" score="5">
             <SimplePredicate field="temp" operator="greaterThan" value="45"/>
            </Node>
           </Node>
           <Node id="53" score="2">
            <SimplePredicate field="temp" operator="greaterThan" value="47.5"/>
           </Node>
          </Node>
         </Node>
         <Node id="17">
          <SimplePredicate field="ibt" operator="greaterThan" value="54.5"/>
          <Node id="32">
           <SimplePredicate field="ibh" operator="lessOrEqual" value="831"/>
           <Node id="54" score="4.33333333333333">
            <SimplePredicate field="ibt" operator="lessOrEqual" value="213"/>
           </Node>
           <Node id="55" score="2">
            <SimplePredicate field="ibt" operator="greaterThan" value="213"/>
           </Node>
          </Node>
          <Node id="33">
           <SimplePredicate field="ibh" operator="greaterThan" value="831"/>
           <Node id="56" score="3">
            <SimplePredicate field="temp" operator="lessOrEqual" value="32.5"/>
           </Node>
           <Node id="57">
            <SimplePredicate field="temp" operator="greaterThan" value="32.5"/>
            <Node id="74" score="8.75">
             <SimplePredicate field="temp" operator="lessOrEqual" value="40.5"/>
            </Node>
            <Node id="75">
             <SimplePredicate field="temp" operator="greaterThan" value="40.5"/>
             <Node id="92">
              <SimplePredicate field="ibh" operator="lessOrEqual" value="2957.5"/>
              <Node id="110" score="5.8">
               <SimplePredicate field="ibh" operator="lessOrEqual" value="2704.5"/>
              </Node>
              <Node id="111" score="9.5">
               <SimplePredicate field="ibh" operator="greaterThan" value="2704.5"/>
              </Node>
             </Node>
             <Node id="93" score="4.95833333333333">
              <SimplePredicate field="ibh" operator="greaterThan" value="2957.5"/>
             </Node>
            </Node>
           </Node>
          </Node>
         </Node>
        </Node>
        <Node id="9">
         <SimplePredicate field="temp" operator="greaterThan" value="51.5"/>
         <Node id="18" score="11.5714285714286">
          <SimplePredicate field="ibh" operator="lessOrEqual" value="529.5"/>
         </Node>
         <Node id="19">
          <SimplePredicate field="ibh" operator="greaterThan" value="529.5"/>
          <Node id="34">
           <SimplePredicate field="temp" operator="lessOrEqual" value="56.5"/>
           <Node id="58" score="9">
            <SimplePredicate field="ibt" operator="lessOrEqual" value="34"/>
           </Node>
           <Node id="59">
            <SimplePredicate field="ibt" operator="greaterThan" value="34"/>
            <Node id="76">
             <SimplePredicate field="ibh" operator="lessOrEqual" value="3128"/>
             <Node id="94" score="7.8">
              <SimplePredicate field="temp" operator="lessOrEqual" value="54.5"/>
             </Node>
             <Node id="95" score="5">
              <SimplePredicate field="temp" operator="greaterThan" value="54.5"/>
             </Node>
            </Node>
            <Node id="77">
             <SimplePredicate field="ibh" operator="greaterThan" value="3128"/>
             <Node id="96" score="5.8">
              <SimplePredicate field="ibt" operator="lessOrEqual" value="81.5"/>
             </Node>
             <Node id="97" score="3.2">
              <SimplePredicate field="ibt" operator="greaterThan" value="81.5"/>
             </Node>
            </Node>
           </Node>
          </Node>
          <Node id="35" score="8.5">
           <SimplePredicate field="temp" operator="greaterThan" value="56.5"/>
          </Node>
         </Node>
        </Node>
       </Node>
       <Node id="5">
        <SimplePredicate field="temp" operator="greaterThan" value="58.5"/>
        <Node id="10">
         <SimplePredicate field="ibt" operator="lessOrEqual" value="174.5"/>
         <Node id="20">
          <SimplePredicate field="ibh" operator="lessOrEqual" value="3543"/>
          <Node id="36" score="5">
           <SimplePredicate field="ibt" operator="lessOrEqual" value="117.5"/>
          </Node>
          <Node id="37">
           <SimplePredicate field="ibt" operator="greaterThan" value="117.5"/>
           <Node id="60">
            <SimplePredicate field="ibt" operator="lessOrEqual" value="160.5"/>
            <Node id="78">
             <SimplePredicate field="temp" operator="lessOrEqual" value="68"/>
             <Node id="98" score="12.4">
