<?xml version="1.0"?>
<PMML version="4.1" xmlns="http://www.dmg.org/PMML-4_1" xmlns:xsi="http://www.w3.org/2001/XMLSchema-instance" xsi:schemaLocation="http://www.dmg.org/PMML-4_1 http://www.dmg.org/v4-1/pmml-4-1.xsd">
 <Header copyright="Copyright (c) 2013 Vfed" description="Random Forest Tree Model">
  <Extension name="user" value="Vfed" extender="Rattle/PMML"/>
  <Application name="Rattle/PMML" version="1.2.34r27"/>
  <Timestamp>2013-05-31 00:17:38</Timestamp>
 </Header>
 <DataDictionary numberOfFields="9">
  <DataField name="Adjusted" optype="categorical" dataType="string">
   <Value value="0"/>
   <Value value="1"/>
  </DataField>
  <DataField name="Employment" optype="categorical" dataType="string">
   <Value value="Consultant"/>
   <Value value="Private"/>
   <Value value="PSFederal"/>
   <Value value="PSLocal"/>
   <Value value="PSState"/>
   <Value value="SelfEmp"/>
   <Value value="Volunteer"/>
  </DataField>
  <DataField name="Education" optype="categorical" dataType="string">
   <Value value="Associate"/>
   <Value value="Bachelor"/>
   <Value value="College"/>
   <Value value="Doctorate"/>
   <Value value="HSgrad"/>
   <Value value="Master"/>
   <Value value="Preschool"/>
   <Value value="Professional"/>
   <Value value="Vocational"/>
   <Value value="Yr10"/>
   <Value value="Yr11"/>
   <Value value="Yr12"/>
   <Value value="Yr1t4"/>
   <Value value="Yr5t6"/>
   <Value value="Yr7t8"/>
   <Value value="Yr9"/>
  </DataField>
  <DataField name="Marital" optype="categorical" dataType="string">
   <Value value="Absent"/>
   <Value value="Divorced"/>
   <Value value="Married"/>
   <Value value="Married-spouse-absent"/>
   <Value value="Unmarried"/>
   <Value value="Widowed"/>
  </DataField>
  <DataField name="Occupation" optype="categorical" dataType="string">
   <Value value="Cleaner"/>
   <Value value="Clerical"/>
   <Value value="Executive"/>
   <Value value="Farming"/>
   <Value value="Home"/>
   <Value value="Machinist"/>
   <Value value="Military"/>
   <Value value="Professional"/>
   <Value value="Protective"/>
   <Value value="Repair"/>
   <Value value="Sales"/>
   <Value value="Service"/>
   <Value value="Support"/>
   <Value value="Transport"/>
  </DataField>
  <DataField name="Income" optype="continuous" dataType="double"/>
  <DataField name="Gender" optype="categorical" dataType="string">
   <Value value="Female"/>
   <Value value="Male"/>
  </DataField>
  <DataField name="Deductions" optype="continuous" dataType="double"/>
  <DataField name="Hours" optype="continuous" dataType="double"/>
 </DataDictionary>
 <MiningModel modelName="randomForest_Model" functionName="classification">
  <MiningSchema>
   <MiningField name="Adjusted" usageType="predicted"/>
   <MiningField name="Employment" usageType="active"/>
   <MiningField name="Education" usageType="active"/>
   <MiningField name="Marital" usageType="active"/>
   <MiningField name="Occupation" usageType="active"/>
   <MiningField name="Income" usageType="active"/>
   <MiningField name="Gender" usageType="active"/>
   <MiningField name="Deductions" usageType="active"/>
   <MiningField name="Hours" usageType="active"/>
  </MiningSchema>
  <Output>
   <OutputField name="Predicted_Adjusted" feature="predictedValue"/>
   <OutputField name="Probability_0" optype="continuous" dataType="double" feature="probability" value="0"/>
   <OutputField name="Probability_1" optype="continuous" dataType="double" feature="probability" value="1"/>
  </Output>
  <Segmentation multipleModelMethod="majorityVote">
   <Segment id="1">
    <True/>
    <TreeModel modelName="randomForest_Model" functionName="classification" algorithmName="randomForest" splitCharacteristic="binarySplit">
     <MiningSchema>
      <MiningField name="Adjusted" usageType="predicted"/>
      <MiningField name="Employment" usageType="active"/>
      <MiningField name="Education" usageType="active"/>
      <MiningField name="Marital" usageType="active"/>
      <MiningField name="Occupation" usageType="active"/>
      <MiningField name="Income" usageType="active"/>
      <MiningField name="Gender" usageType="active"/>
      <MiningField name="Deductions" usageType="active"/>
      <MiningField name="Hours" usageType="active"/>
     </MiningSchema>
     <Node id="1">
      <True/>
      <Node id="2">
       <SimpleSetPredicate field="Marital" booleanOperator="isIn">
        <Array n="1" type="string">&quot;Married&quot;</Array>
       </SimpleSetPredicate>
       <Node id="4">
        <SimpleSetPredicate field="Occupation" booleanOperator="isIn">
         <Array n="8" type="string">&quot;Clerical&quot;   &quot;Executive&quot;   &quot;Home&quot;   &quot;Military&quot;   &quot;Professional&quot;   &quot;Protective&quot;   &quot;Sales&quot;   &quot;Support&quot;</Array>
        </SimpleSetPredicate>
        <Node id="8">
         <SimpleSetPredicate field="Education" booleanOperator="isIn">
          <Array n="11" type="string">&quot;Associate&quot;   &quot;Bachelor&quot;   &quot;Doctorate&quot;   &quot;Master&quot;   &quot;Preschool&quot;   &quot;Professional&quot;   &quot;Vocational&quot;   &quot;Yr10&quot;   &quot;Yr11&quot;   &quot;Yr12&quot;   &quot;Yr7t8&quot;</Array>
         </SimpleSetPredicate>
         <Node id="16">
          <SimpleSetPredicate field="Employment" booleanOperator="isIn">
           <Array n="2" type="string">&quot;Private&quot;   &quot;SelfEmp&quot;</Array>
          </SimpleSetPredicate>
          <Node id="32">
           <SimpleSetPredicate field="Occupation" booleanOperator="isIn">
            <Array n="13" type="string">&quot;Cleaner&quot;   &quot;Executive&quot;   &quot;Farming&quot;   &quot;Home&quot;   &quot;Machinist&quot;   &quot;Military&quot;   &quot;Professional&quot;   &quot;Protective&quot;   &quot;Repair&quot;   &quot;Sales&quot;   &quot;Service&quot;   &quot;Support&quot;   &quot;Transport&quot;</Array>
           </SimpleSetPredicate>
           <Node id="56">
            <SimplePredicate field="Income" operator="lessOrEqual" value="39178.76"/>
            <Node id="82">
             <SimplePredicate field="Hours" operator="lessOrEqual" value="41"/>
             <Node id="110" score="1">
              <SimpleSetPredicate field="Education" booleanOperator="isIn">
               <Array n="13" type="string">&quot;Associate&quot;   &quot;College&quot;   &quot;HSgrad&quot;   &quot;Master&quot;   &quot;Preschool&quot;   &quot;Professional&quot;   &quot;Yr10&quot;   &quot;Yr11&quot;   &quot;Yr12&quot;   &quot;Yr1t4&quot;   &quot;Yr5t6&quot;   &quot;Yr7t8&quot;   &quot;Yr9&quot;</Array>
              </SimpleSetPredicate>
             </Node>
             <Node id="111">
              <SimpleSetPredicate field="Education" booleanOperator="isIn">
               <Array n="3" type="string">&quot;Bachelor&quot;   &quot;Doctorate&quot;   &quot;Vocational&quot;</Array>
              </SimpleSetPredicate>
              <Node id="132" score="1">
               <SimplePredicate field="Hours" operator="lessOrEqual" value="39"/>
              </Node>
              <Node id="133">
               <SimplePredicate field="Hours" operator="greaterThan" value="39"/>
               <Node id="160" score="0">
                <SimplePredicate field="Income" operator="lessOrEqual" value="9718.32"/>
               </Node>
               <Node id="161">
                <SimplePredicate field="Income" operator="greaterThan" value="9718.32"/>
                <Node id="182">
                 <SimpleSetPredicate field="Occupation" booleanOperator="isIn">
                  <Array n="13" type="string">&quot;Cleaner&quot;   &quot;Clerical&quot;   &quot;Executive&quot;   &quot;Farming&quot;   &quot;Home&quot;   &quot;Machinist&quot;   &quot;Military&quot;   &quot;Professional&quot;   &quot;Protective&quot;   &quot;Repair&quot;   &quot;Sales&quot;   &quot;Service&quot;   &quot;Transport&quot;</Array>
                 </SimpleSetPredicate>
                 <Node id="196" score="1">
                  <SimplePredicate field="Income" operator="lessOrEqual" value="22542.685"/>
                 </Node>
                 <Node id="197">
                  <SimplePredicate field="Income" operator="greaterThan" value="22542.685"/>
                  <Node id="210" score="0">
                   <SimplePredicate field="Income" operator="lessOrEqual" value="35702.88"/>
                  </Node>
                  <Node id="211" score="1">
                   <SimplePredicate field="Income" operator="greaterThan" value="35702.88"/>
                  </Node>
                 </Node>
                </Node>
                <Node id="183" score="0">
                 <SimpleSetPredicate field="Occupation" booleanOperator="isIn">
                  <Array n="1" type="string">&quot;Support&quot;</Array>
                 </SimpleSetPredicate>
                </Node>
               </Node>
              </Node>
             </Node>
            </Node>
            <Node id="83">
             <SimplePredicate field="Hours" operator="greaterThan" value="41"/>
             <Node id="112">
              <SimplePredicate field="Hours" operator="lessOrEqual" value="57.5"/>
              <Node id="134">
               <SimplePredicate field="Income" operator="lessOrEqual" value="35297.205"/>
               <Node id="162" score="1">
                <SimpleSetPredicate field="Occupation" booleanOperator="isIn">
                 <Array n="13" type="string">&quot;Cleaner&quot;   &quot;Clerical&quot;   &quot;Executive&quot;   &quot;Farming&quot;   &quot;Home&quot;   &quot;Machinist&quot;   &quot;Military&quot;   &quot;Professional&quot;   &quot;Protective&quot;   &quot;Repair&quot;   &quot;Service&quot;   &quot;Support&quot;   &quot;Transport&quot;</Array>
                </SimpleSetPredicate>
               </Node>
               <Node id="163" score="1">
                <SimpleSetPredicate field="Occupation" booleanOperator="isIn">
                 <Array n="1" type="string">&quot;Sales&quot;</Array>
                </SimpleSetPredicate>
               </Node>
              </Node>
              <Node id="135" score="0">
               <SimplePredicate field="Income" operator="greaterThan" value="35297.205"/>
              </Node>
             </Node>
             <Node id="113">
              <SimplePredicate field="Hours" operator="greaterThan" value="57.5"/>
              <Node id="136" score="0">
               <SimplePredicate field="Hours" operator="lessOrEqual" value="62.5"/>
              </Node>
              <Node id="137" score="1">
               <SimplePredicate field="Hours" operator="greaterThan" value="62.5"/>
              </Node>
             </Node>
            </Node>
           </Node>
           <Node id="57">
            <SimplePredicate field="Income" operator="greaterThan" value="39178.76"/>
            <Node id="84">
             <SimpleSetPredicate field="Education" booleanOperator="isIn">
              <Array n="15" type="string">&quot;Associate&quot;   &quot;Bachelor&quot;   &quot;College&quot;   &quot;Doctorate&quot;   &quot;HSgrad&quot;   &quot;Master&quot;   &quot;Preschool&quot;   &quot;Vocational&quot;   &quot;Yr10&quot;   &quot;Yr11&quot;   &quot;Yr12&quot;   &quot;Yr1t4&quot;   &quot;Yr5t6&quot;   &quot;Yr7t8&quot;   &quot;Yr9&quot;</Array>
             </SimpleSetPredicate>
             <Node id="114">
              <SimplePredicate field="Hours" operator="lessOrEqual" value="57.5"/>
              <Node id="138">
               <SimpleSetPredicate field="Education" booleanOperator="isIn">
                <Array n="15" type="string">&quot;Bachelor&quot;   &quot;College&quot;   &quot;Doctorate&quot;   &quot;HSgrad&quot;   &quot;Master&quot;   &quot;Preschool&quot;   &quot;Professional&quot;   &quot;Vocational&quot;   &quot;Yr10&quot;   &quot;Yr11&quot;   &quot;Yr12&quot;   &quot;Yr1t4&quot;   &quot;Yr5t6&quot;   &quot;Yr7t8&quot;   &quot;Yr9&quot;</Array>
               </SimpleSetPredicate>
               <Node id="164" score="1">
                <SimplePredicate field="Income" operator="lessOrEqual" value="66784.52"/>
               </Node>
               <Node id="165">
                <SimplePredicate field="Income" operator="greaterThan" value="66784.52"/>
                <Node id="184" score="0">
                 <SimplePredicate field="Income" operator="lessOrEqual" value="70255.985"/>
                </Node>
                <Node id="185" score="1">
                 <SimplePredicate field="Income" operator="greaterThan" value="70255.985"/>
                </Node>
               </Node>
              </Node>
              <Node id="139" score="1">
               <SimpleSetPredicate field="Education" booleanOperator="isIn">
                <Array n="1" type="string">&quot;Associate&quot;</Array>
               </SimpleSetPredicate>
              </Node>
             </Node>
             <Node id="115" score="1">
              <SimplePredicate field="Hours" operator="greaterThan" value="57.5"/>
             </Node>
            </Node>
            <Node id="85" score="1">
             <SimpleSetPredicate field="Education" booleanOperator="isIn">
              <Array n="1" type="string">&quot;Professional&quot;</Array>
             </SimpleSetPredicate>
            </Node>
           </Node>
          </Node>
          <Node id="33" score="0">
           <SimpleSetPredicate field="Occupation" booleanOperator="isIn">
            <Array n="1" type="string">&quot;Clerical&quot;</Array>
           </SimpleSetPredicate>
          </Node>
         </Node>
         <Node id="17">
          <SimpleSetPredicate field="Employment" booleanOperator="isIn">
           <Array n="5" type="string">&quot;Consultant&quot;   &quot;PSFederal&quot;   &quot;PSLocal&quot;   &quot;PSState&quot;   &quot;Volunteer&quot;</Array>
          </SimpleSetPredicate>
          <Node id="34">
           <SimpleSetPredicate field="Education" booleanOperator="isIn">
            <Array n="15" type="string">&quot;Associate&quot;   &quot;College&quot;   &quot;Doctorate&quot;   &quot;HSgrad&quot;   &quot;Master&quot;   &quot;Preschool&quot;   &quot;Professional&quot;   &quot;Vocational&quot;   &quot;Yr10&quot;   &quot;Yr11&quot;   &quot;Yr12&quot;   &quot;Yr1t4&quot;   &quot;Yr5t6&quot;   &quot;Yr7t8&quot;   &quot;Yr9&quot;</Array>
           </SimpleSetPredicate>
           <Node id="58" score="1">
            <SimplePredicate field="Income" operator="lessOrEqual" value="30810.815"/>
           </Node>
           <Node id="59">
            <SimplePredicate field="Income" operator="greaterThan" value="30810.815"/>
            <Node id="86" score="1">
             <SimplePredicate field="Hours" operator="lessOrEqual" value="47.5"/>
            </Node>
            <Node id="87" score="0">
             <SimplePredicate field="Hours" operator="greaterThan" value="47.5"/>
            </Node>
           </Node>
          </Node>
          <Node id="35">
           <SimpleSetPredicate field="Education" booleanOperator="isIn">
            <Array n="1" type="string">&quot;Bachelor&quot;</Array>
           </SimpleSetPredicate>
           <Node id="60">
            <SimplePredicate field="Income" operator="lessOrEqual" value="58875.4"/>
            <Node id="88">
             <SimplePredicate field="Hours" operator="lessOrEqual" value="69"/>
             <Node id="116" score="1">
              <SimplePredicate field="Income" operator="lessOrEqual" value="13687.305"/>
             </Node>
             <Node id="117">
              <SimplePredicate field="Income" operator="greaterThan" value="13687.305"/>
              <Node id="140" score="0">
               <SimpleSetPredicate field="Employment" booleanOperator="isIn">
                <Array n="3" type="string">&quot;Consultant&quot;   &quot;PSFederal&quot;   &quot;PSLocal&quot;</Array>
               </SimpleSetPredicate>
              </Node>
              <Node id="141" score="0">
               <SimpleSetPredicate field="Employment" booleanOperator="isIn">
                <Array n="4" type="string">&quot;Private&quot;   &quot;PSState&quot;   &quot;SelfEmp&quot;   &quot;Volunteer&quot;</Array>
               </SimpleSetPredicate>
              </Node>
             </Node>
            </Node>
            <Node id="89" score="1">
             <SimplePredicate field="Hours" operator="greaterThan" value="69"/>
            </Node>
           </Node>
           <Node id="61" score="1">
            <SimplePredicate field="Income" operator="greaterThan" value="58875.4"/>
           </Node>
          </Node>
         </Node>
        </Node>
        <Node id="9">
         <SimpleSetPredicate field="Education" booleanOperator="isIn">
          <Array n="5" type="string">&quot;College&quot;   &quot;HSgrad&quot;   &quot;Yr1t4&quot;   &quot;Yr5t6&quot;   &quot;Yr9&quot;</Array>
         </SimpleSetPredicate>
         <Node id="18">
          <SimpleSetPredicate field="Occupation" booleanOperator="isIn">
           <Array n="10" type="string">&quot;Cleaner&quot;   &quot;Clerical&quot;   &quot;Executive&quot;   &quot;Farming&quot;   &quot;Home&quot;   &quot;Machinist&quot;   &quot;Military&quot;   &quot;Repair&quot;   &quot;Service&quot;   &quot;Transport&quot;</Array>
          </SimpleSetPredicate>
          <Node id="36">
           <SimplePredicate field="Income" operator="lessOrEqual" value="29059.155"/>
           <Node id="62" score="1">
            <SimpleSetPredicate field="Employment" booleanOperator="isIn">
             <Array n="3" type="string">&quot;Consultant&quot;   &quot;PSFederal&quot;   &quot;PSLocal&quot;</Array>
            </SimpleSetPredicate>
           </Node>
           <Node id="63">
            <SimpleSetPredicate field="Employment" booleanOperator="isIn">
             <Array n="4" type="string">&quot;Private&quot;   &quot;PSState&quot;   &quot;SelfEmp&quot;   &quot;Volunteer&quot;</Array>
            </SimpleSetPredicate>
            <Node id="90">
             <SimplePredicate field="Deductions" operator="lessOrEqual" value="988.5"/>
             <Node id="118">
              <SimplePredicate field="Hours" operator="lessOrEqual" value="57"/>
              <Node id="142" score="0">
               <SimplePredicate field="Income" operator="lessOrEqual" value="7930.505"/>
              </Node>
              <Node id="143" score="0">
               <SimplePredicate field="Income" operator="greaterThan" value="7930.505"/>
              </Node>
             </Node>
             <Node id="119" score="1">
              <SimplePredicate field="Hours" operator="greaterThan" value="57"/>
             </Node>
            </Node>
            <Node id="91" score="1">
             <SimplePredicate field="Deductions" operator="greaterThan" value="988.5"/>
            </Node>
           </Node>
          </Node>
          <Node id="37">
           <SimplePredicate field="Income" operator="greaterThan" value="29059.155"/>
           <Node id="64">
            <SimplePredicate field="Income" operator="lessOrEqual" value="186463.145"/>
            <Node id="92">
             <SimplePredicate field="Hours" operator="lessOrEqual" value="52.5"/>
             <Node id="120" score="1">
              <SimplePredicate field="Income" operator="lessOrEqual" value="30567.295"/>
             </Node>
             <Node id="121">
              <SimplePredicate field="Income" operator="greaterThan" value="30567.295"/>
              <Node id="144" score="1">
               <SimpleSetPredicate field="Employment" booleanOperator="isIn">
                <Array n="3" type="string">&quot;PSLocal&quot;   &quot;PSState&quot;   &quot;SelfEmp&quot;</Array>
               </SimpleSetPredicate>
              </Node>
              <Node id="145">
               <SimpleSetPredicate field="Employment" booleanOperator="isIn">
                <Array n="4" type="string">&quot;Consultant&quot;   &quot;Private&quot;   &quot;PSFederal&quot;   &quot;Volunteer&quot;</Array>
               </SimpleSetPredicate>
               <Node id="166" score="0">
                <SimplePredicate field="Income" operator="lessOrEqual" value="30810.36"/>
               </Node>
               <Node id="167">
                <SimplePredicate field="Income" operator="greaterThan" value="30810.36"/>
                <Node id="186" score="1">
                 <SimplePredicate field="Income" operator="lessOrEqual" value="33723.75"/>
                </Node>
                <Node id="187">
                 <SimplePredicate field="Income" operator="greaterThan" value="33723.75"/>
                 <Node id="198" score="0">
                  <SimplePredicate field="Income" operator="lessOrEqual" value="37638.52"/>
                 </Node>
                 <Node id="199">
                  <SimplePredicate field="Income" operator="greaterThan" value="37638.52"/>
                  <Node id="212" score="1">
                   <SimplePredicate field="Income" operator="lessOrEqual" value="43232.24"/>
                  </Node>
                  <Node id="213" score="0">
                   <SimplePredicate field="Income" operator="greaterThan" value="43232.24"/>
                  </Node>
                 </Node>
                </Node>
               </Node>
              </Node>
             </Node>
            </Node>
            <Node id="93" score="1">
             <SimplePredicate field="Hours" operator="greaterThan" value="52.5"/>
            </Node>
           </Node>
           <Node id="65" score="1">
            <SimplePredicate field="Income" operator="greaterThan" value="186463.145"/>
           </Node>
          </Node>
         </Node>
         <Node id="19">
          <SimpleSetPredicate field="Occupation" booleanOperator="isIn">
           <Array n="4" type="string">&quot;Professional&quot;   &quot;Protective&quot;   &quot;Sales&quot;   &quot;Support&quot;</Array>
          </SimpleSetPredicate>
          <Node id="38">
           <SimplePredicate field="Deductions" operator="lessOrEqual" value="943.5"/>
           <Node id="66">
            <SimpleSetPredicate field="Employment" booleanOperator="isIn">
             <Array n="3" type="string">&quot;Consultant&quot;   &quot;Private&quot;   &quot;PSLocal&quot;</Array>
            </SimpleSetPredicate>
            <Node id="94">
             <SimplePredicate field="Income" operator="lessOrEqual" value="44150.39"/>
             <Node id="122">
              <SimplePredicate field="Hours" operator="lessOrEqual" value="51"/>
              <Node id="146">
               <SimplePredicate field="Income" operator="lessOrEqual" value="38404.1"/>
               <Node id="168" score="0">
                <SimplePredicate field="Income" operator="lessOrEqual" value="32117.67"/>
               </Node>
               <Node id="169" score="0">
                <SimplePredicate field="Income" operator="greaterThan" value="32117.67"/>
               </Node>
              </Node>
              <Node id="147" score="1">
               <SimplePredicate field="Income" operator="greaterThan" value="38404.1"/>
              </Node>
             </Node>
             <Node id="123" score="1">
              <SimplePredicate field="Hours" operator="greaterThan" value="51"/>
             </Node>
            </Node>
            <Node id="95" score="0">
             <SimplePredicate field="Income" operator="greaterThan" value="44150.39"/>
            </Node>
           </Node>
           <Node id="67" score="1">
            <SimpleSetPredicate field="Employment" booleanOperator="isIn">
             <Array n="4" type="string">&quot;PSFederal&quot;   &quot;PSState&quot;   &quot;SelfEmp&quot;   &quot;Volunteer&quot;</Array>
            </SimpleSetPredicate>
           </Node>
          </Node>
          <Node id="39" score="1">
           <SimplePredicate field="Deductions" operator="greaterThan" value="943.5"/>
          </Node>
         </Node>
        </Node>
       </Node>
       <Node id="5">
        <SimpleSetPredicate field="Occupation" booleanOperator="isIn">
         <Array n="6" type="string">&quot;Cleaner&quot;   &quot;Farming&quot;   &quot;Machinist&quot;   &quot;Repair&quot;   &quot;Service&quot;   &quot;Transport&quot;</Array>
        </SimpleSetPredicate>
        <Node id="10">
         <SimpleSetPredicate field="Education" booleanOperator="isIn">
          <Array n="7" type="string">&quot;Associate&quot;   &quot;Bachelor&quot;   &quot;College&quot;   &quot;Doctorate&quot;   &quot;Master&quot;   &quot;Professional&quot;   &quot;Vocational&quot;</Array>
         </SimpleSetPredicate>
         <Node id="20" score="1">
          <SimplePredicate field="Income" operator="lessOrEqual" value="17808.63"/>
         </Node>
         <Node id="21">
          <SimplePredicate field="Income" operator="greaterThan" value="17808.63"/>
          <Node id="40" score="1">
           <SimpleSetPredicate field="Education" booleanOperator="isIn">
            <Array n="12" type="string">&quot;Doctorate&quot;   &quot;HSgrad&quot;   &quot;Master&quot;   &quot;Preschool&quot;   &quot;Professional&quot;   &quot;Yr10&quot;   &quot;Yr11&quot;   &quot;Yr12&quot;   &quot;Yr1t4&quot;   &quot;Yr5t6&quot;   &quot;Yr7t8&quot;   &quot;Yr9&quot;</Array>
           </SimpleSetPredicate>
          </Node>
          <Node id="41">
           <SimpleSetPredicate field="Education" booleanOperator="isIn">
            <Array n="4" type="string">&quot;Associate&quot;   &quot;Bachelor&quot;   &quot;College&quot;   &quot;Vocational&quot;</Array>
           </SimpleSetPredicate>
           <Node id="68">
            <SimplePredicate field="Hours" operator="lessOrEqual" value="46.5"/>
            <Node id="96">
             <SimplePredicate field="Income" operator="lessOrEqual" value="69925.935"/>
             <Node id="124">
              <SimplePredicate field="Deductions" operator="lessOrEqual" value="1669.83333333333"/>
              <Node id="148">
               <SimplePredicate field="Income" operator="lessOrEqual" value="45425.035"/>
               <Node id="170">
                <SimplePredicate field="Income" operator="lessOrEqual" value="33223.815"/>
                <Node id="188">
                 <SimpleSetPredicate field="Employment" booleanOperator="isIn">
                  <Array n="5" type="string">&quot;Private&quot;   &quot;PSFederal&quot;   &quot;PSLocal&quot;   &quot;PSState&quot;   &quot;SelfEmp&quot;</Array>
                 </SimpleSetPredicate>
                 <Node id="200" score="0">
                  <SimpleSetPredicate field="Occupation" booleanOperator="isIn">
                   <Array n="10" type="string">&quot;Clerical&quot;   &quot;Executive&quot;   &quot;Farming&quot;   &quot;Home&quot;   &quot;Military&quot;   &quot;Professional&quot;   &quot;Protective&quot;   &quot;Sales&quot;   &quot;Service&quot;   &quot;Support&quot;</Array>
                  </SimpleSetPredicate>
                 </Node>
                 <Node id="201" score="0">
                  <SimpleSetPredicate field="Occupation" booleanOperator="isIn">
                   <Array n="4" type="string">&quot;Cleaner&quot;   &quot;Machinist&quot;   &quot;Repair&quot;   &quot;Transport&quot;</Array>
                  </SimpleSetPredicate>
                 </Node>
                </Node>
                <Node id="189" score="1">
                 <SimpleSetPredicate field="Employment" booleanOperator="isIn">
                  <Array n="2" type="string">&quot;Consultant&quot;   &quot;Volunteer&quot;</Array>
                 </SimpleSetPredicate>
                </Node>
               </Node>
               <Node id="171" score="1">
                <SimplePredicate field="Income" operator="greaterThan" value="33223.815"/>
               </Node>
              </Node>
              <Node id="149">
               <SimplePredicate field="Income" operator="greaterThan" value="45425.035"/>
               <Node id="172" score="0">
                <SimpleSetPredicate field="Occupation" booleanOperator="isIn">
                 <Array n="11" type="string">&quot;Clerical&quot;   &quot;Executive&quot;   &quot;Farming&quot;   &quot;Home&quot;   &quot;Machinist&quot;   &quot;Military&quot;   &quot;Professional&quot;   &quot;Protective&quot;   &quot;Sales&quot;   &quot;Service&quot;   &quot;Support&quot;</Array>
                </SimpleSetPredicate>
               </Node>
               <Node id="173" score="0">
                <SimpleSetPredicate field="Occupation" booleanOperator="isIn">
                 <Array n="3" type="string">&quot;Cleaner&quot;   &quot;Repair&quot;   &quot;Transport&quot;</Array>
                </SimpleSetPredicate>
               </Node>
              </Node>
             </Node>
             <Node id="125" score="1">
              <SimplePredicate field="Deductions" operator="greaterThan" value="1669.83333333333"/>
             </Node>
            </Node>
            <Node id="97" score="1">
             <SimplePredicate field="Income" operator="greaterThan" value="69925.935"/>
            </Node>
           </Node>
           <Node id="69">
            <SimplePredicate field="Hours" operator="greaterThan" value="46.5"/>
            <Node id="98" score="0">
             <SimplePredicate field="Income" operator="lessOrEqual" value="29035.385"/>
            </Node>
            <Node id="99" score="1">
             <SimplePredicate field="Income" operator="greaterThan" value="29035.385"/>
            </Node>
           </Node>
          </Node>
         </Node>
        </Node>
        <Node id="11">
         <SimpleSetPredicate field="Education" booleanOperator="isIn">
          <Array n="9" type="string">&quot;HSgrad&quot;   &quot;Preschool&quot;   &quot;Yr10&quot;   &quot;Yr11&quot;   &quot;Yr12&quot;   &quot;Yr1t4&quot;   &quot;Yr5t6&quot;   &quot;Yr7t8&quot;   &quot;Yr9&quot;</Array>
         </SimpleSetPredicate>
         <Node id="22">
          <SimplePredicate field="Hours" operator="lessOrEqual" value="65"/>
          <Node id="42">
           <SimplePredicate field="Deductions" operator="lessOrEqual" value="1699.16666666667"/>
           <Node id="70">
            <SimpleSetPredicate field="Employment" booleanOperator="isIn">
             <Array n="5" type="string">&quot;Consultant&quot;   &quot;Private&quot;   &quot;PSFederal&quot;   &quot;PSLocal&quot;   &quot;SelfEmp&quot;</Array>
            </SimpleSetPredicate>
            <Node id="100">
             <SimplePredicate field="Hours" operator="lessOrEqual" value="44.5"/>
             <Node id="126" score="0">
              <SimpleSetPredicate field="Employment" booleanOperator="isIn">
               <Array n="1" type="string">&quot;Consultant&quot;</Array>
              </SimpleSetPredicate>
             </Node>
             <Node id="127">
              <SimpleSetPredicate field="Employment" booleanOperator="isIn">
               <Array n="6" type="string">&quot;Private&quot;   &quot;PSFederal&quot;   &quot;PSLocal&quot;   &quot;PSState&quot;   &quot;SelfEmp&quot;   &quot;Volunteer&quot;</Array>
              </SimpleSetPredicate>
              <Node id="150">
               <SimpleSetPredicate field="Education" booleanOperator="isIn">
                <Array n="9" type="string">&quot;Associate&quot;   &quot;Bachelor&quot;   &quot;College&quot;   &quot;Doctorate&quot;   &quot;HSgrad&quot;   &quot;Master&quot;   &quot;Professional&quot;   &quot;Vocational&quot;   &quot;Yr10&quot;</Array>
               </SimpleSetPredicate>
               <Node id="174">
                <SimpleSetPredicate field="Occupation" booleanOperator="isIn">
                 <Array n="11" type="string">&quot;Clerical&quot;   &quot;Executive&quot;   &quot;Home&quot;   &quot;Military&quot;   &quot;Professional&quot;   &quot;Protective&quot;   &quot;Repair&quot;   &quot;Sales&quot;   &quot;Service&quot;   &quot;Support&quot;   &quot;Transport&quot;</Array>
                </SimpleSetPredicate>
                <Node id="190">
                 <SimplePredicate field="Income" operator="lessOrEqual" value="36418.795"/>
                 <Node id="202" score="1">
                  <SimplePredicate field="Hours" operator="lessOrEqual" value="35"/>
                 </Node>
                 <Node id="203">
                  <SimplePredicate field="Hours" operator="greaterThan" value="35"/>
                  <Node id="214" score="0">
                   <SimplePredicate field="Income" operator="lessOrEqual" value="19265.13"/>
                  </Node>
                  <Node id="215" score="0">
                   <SimplePredicate field="Income" operator="greaterThan" value="19265.13"/>
                  </Node>
                 </Node>
                </Node>
                <Node id="191">
                 <SimplePredicate field="Income" operator="greaterThan" value="36418.795"/>
                 <Node id="204" score="0">
                  <SimplePredicate field="Income" operator="lessOrEqual" value="47715.315"/>
                 </Node>
                 <Node id="205">
                  <SimplePredicate field="Income" operator="greaterThan" value="47715.315"/>
                  <Node id="216" score="0">
                   <SimplePredicate field="Income" operator="lessOrEqual" value="105000.365"/>
                  </Node>
                  <Node id="217" score="1">
                   <SimplePredicate field="Income" operator="greaterThan" value="105000.365"/>
                  </Node>
                 </Node>
                </Node>
               </Node>
               <Node id="175">
                <SimpleSetPredicate field="Occupation" booleanOperator="isIn">
                 <Array n="3" type="string">&quot;Cleaner&quot;   &quot;Farming&quot;   &quot;Machinist&quot;</Array>
                </SimpleSetPredicate>
                <Node id="192">
                 <SimpleSetPredicate field="Employment" booleanOperator="isIn">
                  <Array n="1" type="string">&quot;Private&quot;</Array>
                 </SimpleSetPredicate>
                 <Node id="206" score="0">
                  <SimplePredicate field="Income" operator="lessOrEqual" value="20673.1"/>
                 </Node>
                 <Node id="207" score="0">
                  <SimplePredicate field="Income" operator="greaterThan" value="20673.1"/>
                 </Node>
                </Node>
                <Node id="193" score="1">
                 <SimpleSetPredicate field="Employment" booleanOperator="isIn">
                  <Array n="6" type="string">&quot;Consultant&quot;   &quot;PSFederal&quot;   &quot;PSLocal&quot;   &quot;PSState&quot;   &quot;SelfEmp&quot;   &quot;Volunteer&quot;</Array>
                 </SimpleSetPredicate>
                </Node>
               </Node>
              </Node>
              <Node id="151" score="0">
               <SimpleSetPredicate field="Education" booleanOperator="isIn">
                <Array n="7" type="string">&quot;Preschool&quot;   &quot;Yr11&quot;   &quot;Yr12&quot;   &quot;Yr1t4&quot;   &quot;Yr5t6&quot;   &quot;Yr7t8&quot;   &quot;Yr9&quot;</Array>
               </SimpleSetPredicate>
              </Node>
             </Node>
            </Node>
            <Node id="101">
             <SimplePredicate field="Hours" operator="greaterThan" value="44.5"/>
             <Node id="128">
              <SimplePredicate field="Hours" operator="lessOrEqual" value="57.5"/>
              <Node id="152" score="0">
               <SimplePredicate field="Income" operator="lessOrEqual" value="16061.8"/>
              </Node>
              <Node id="153">
               <SimplePredicate field="Income" operator="greaterThan" value="16061.8"/>
               <Node id="176" score="1">
                <SimpleSetPredicate field="Occupation" booleanOperator="isIn">
                 <Array n="11" type="string">&quot;Cleaner&quot;   &quot;Clerical&quot;   &quot;Executive&quot;   &quot;Farming&quot;   &quot;Home&quot;   &quot;Military&quot;   &quot;Professional&quot;   &quot;Protective&quot;   &quot;Repair&quot;   &quot;Sales&quot;   &quot;Support&quot;</Array>
                </SimpleSetPredicate>
               </Node>
               <Node id="177">
                <SimpleSetPredicate field="Occupation" booleanOperator="isIn">
                 <Array n="3" type="string">&quot;Machinist&quot;   &quot;Service&quot;   &quot;Transport&quot;</Array>
                </SimpleSetPredicate>
                <Node id="194">
                 <SimplePredicate field="Hours" operator="lessOrEqual" value="52.5"/>
                 <Node id="208" score="1">
                  <SimplePredicate field="Income" operator="lessOrEqual" value="16368.47"/>
                 </Node>
                 <Node id="209">
                  <SimplePredicate field="Income" operator="greaterThan" value="16368.47"/>
                  <Node id="218" score="0">
                   <SimplePredicate field="Income" operator="lessOrEqual" value="27668.59"/>
                  </Node>
                  <Node id="219" score="0">
                   <SimplePredicate field="Income" operator="greaterThan" value="27668.59"/>
                  </Node>
                 </Node>
                </Node>
                <Node id="195" score="1">
                 <SimplePredicate field="Hours" operator="greaterThan" value="52.5"/>
                </Node>
               </Node>
              </Node>
             </Node>
             <Node id="129">
              <SimplePredicate field="Hours" operator="greaterThan" value="57.5"/>
              <Node id="154" score="0">
               <SimplePredicate field="Income" operator="lessOrEqual" value="90074.03"/>
              </Node>
              <Node id="155" score="1">
               <SimplePredicate field="Income" operator="greaterThan" value="90074.03"/>
              </Node>
             </Node>
            </Node>
           </Node>
           <Node id="71" score="1">
            <SimpleSetPredicate field="Employment" booleanOperator="isIn">
             <Array n="2" type="string">&quot;PSState&quot;   &quot;Volunteer&quot;</Array>
            </SimpleSetPredicate>
           </Node>
          </Node>
          <Node id="43" score="1">
           <SimplePredicate field="Deductions" operator="greaterThan" value="1699.16666666667"/>
          </Node>
         </Node>
         <Node id="23" score="1">
          <SimplePredicate field="Hours" operator="greaterThan" value="65"/>
         </Node>
        </Node>
       </Node>
      </Node>
      <Node id="3">
       <SimpleSetPredicate field="Marital" booleanOperator="isIn">
        <Array n="5" type="string">&quot;Absent&quot;   &quot;Divorced&quot;   &quot;Married-spouse-absent&quot;   &quot;Unmarried&quot;   &quot;Widowed&quot;</Array>
       </SimpleSetPredicate>
       <Node id="6">
        <SimpleSetPredicate field="Education" booleanOperator="isIn">
         <Array n="6" type="string">&quot;Associate&quot;   &quot;Bachelor&quot;   &quot;Doctorate&quot;   &quot;Master&quot;   &quot;Professional&quot;   &quot;Yr1t4&quot;</Array>
        </SimpleSetPredicate>
        <Node id="12">
         <SimpleSetPredicate field="Occupation" booleanOperator="isIn">
          <Array n="7" type="string">&quot;Executive&quot;   &quot;Farming&quot;   &quot;Home&quot;   &quot;Military&quot;   &quot;Professional&quot;   &quot;Protective&quot;   &quot;Repair&quot;</Array>
         </SimpleSetPredicate>
         <Node id="24">
          <SimpleSetPredicate field="Education" booleanOperator="isIn">
           <Array n="14" type="string">&quot;Associate&quot;   &quot;College&quot;   &quot;Doctorate&quot;   &quot;HSgrad&quot;   &quot;Preschool&quot;   &quot;Professional&quot;   &quot;Vocational&quot;   &quot;Yr10&quot;   &quot;Yr11&quot;   &quot;Yr12&quot;   &quot;Yr1t4&quot;   &quot;Yr5t6&quot;   &quot;Yr7t8&quot;   &quot;Yr9&quot;</Array>
          </SimpleSetPredicate>
          <Node id="44">
           <SimplePredicate field="Hours" operator="lessOrEqual" value="52.5"/>
           <Node id="72" score="0">
            <SimpleSetPredicate field="Marital" booleanOperator="isIn">
             <Array n="3" type="string">&quot;Divorced&quot;   &quot;Married&quot;   &quot;Married-spouse-absent&quot;</Array>
            </SimpleSetPredicate>
           </Node>
           <Node id="73">
            <SimpleSetPredicate field="Marital" booleanOperator="isIn">
             <Array n="3" type="string">&quot;Absent&quot;   &quot;Unmarried&quot;   &quot;Widowed&quot;</Array>
            </SimpleSetPredicate>
            <Node id="102" score="1">
             <SimpleSetPredicate field="Education" booleanOperator="isIn">
              <Array n="15" type="string">&quot;Associate&quot;   &quot;Bachelor&quot;   &quot;College&quot;   &quot;Doctorate&quot;   &quot;HSgrad&quot;   &quot;Master&quot;   &quot;Preschool&quot;   &quot;Vocational&quot;   &quot;Yr10&quot;   &quot;Yr11&quot;   &quot;Yr12&quot;   &quot;Yr1t4&quot;   &quot;Yr5t6&quot;   &quot;Yr7t8&quot;   &quot;Yr9&quot;</Array>
             </SimpleSetPredicate>
            </Node>
            <Node id="103" score="0">
             <SimpleSetPredicate field="Education" booleanOperator="isIn">
              <Array n="1" type="string">&quot;Professional&quot;</Array>
             </SimpleSetPredicate>
            </Node>
           </Node>
          </Node>
          <Node id="45" score="1">
           <SimplePredicate field="Hours" operator="greaterThan" value="52.5"/>
          </Node>
         </Node>
         <Node id="25">
          <SimpleSetPredicate field="Education" booleanOperator="isIn">
           <Array n="2" type="string">&quot;Bachelor&quot;   &quot;Master&quot;</Array>
          </SimpleSetPredicate>
          <Node id="46">
           <SimpleSetPredicate field="Employment" booleanOperator="isIn">
            <Array n="2" type="string">&quot;Consultant&quot;   &quot;Private&quot;</Array>
           </SimpleSetPredicate>
           <Node id="74" score="0">
            <SimplePredicate field="Hours" operator="lessOrEqual" value="35.5"/>
           </Node>
           <Node id="75">
            <SimplePredicate field="Hours" operator="greaterThan" value="35.5"/>
            <Node id="104">
             <SimpleSetPredicate field="Marital" booleanOperator="isIn">
              <Array n="3" type="string">&quot;Absent&quot;   &quot;Divorced&quot;   &quot;Married&quot;</Array>
             </SimpleSetPredicate>
             <Node id="130">
              <SimpleSetPredicate field="Occupation" booleanOperator="isIn">
               <Array n="12" type="string">&quot;Cleaner&quot;   &quot;Clerical&quot;   &quot;Executive&quot;   &quot;Farming&quot;   &quot;Home&quot;   &quot;Machinist&quot;   &quot;Military&quot;   &quot;Protective&quot;   &quot;Sales&quot;   &quot;Service&quot;   &quot;Support&quot;   &quot;Transport&quot;</Array>
              </SimpleSetPredicate>
              <Node id="156" score="0">
               <SimplePredicate field="Hours" operator="lessOrEqual" value="42.5"/>
              </Node>
              <Node id="157">
               <SimplePredicate field="Hours" operator="greaterThan" value="42.5"/>
               <Node id="178" score="1">
                <SimplePredicate field="Hours" operator="lessOrEqual" value="47.5"/>
               </Node>
               <Node id="179" score="0">
                <SimplePredicate field="Hours" operator="greaterThan" value="47.5"/>
               </Node>
              </Node>
             </Node>
             <Node id="131">
              <SimpleSetPredicate field="Occupation" booleanOperator="isIn">
               <Array n="2" type="string">&quot;Professional&quot;   &quot;Repair&quot;</Array>
              </SimpleSetPredicate>
              <Node id="158">
               <SimplePredicate field="Income" operator="lessOrEqual" value="104375.125"/>
               <Node id="180" score="0">
                <SimplePredicate field="Income" operator="lessOrEqual" value="63131.76"/>
               </Node>
               <Node id="181" score="1">
                <SimplePredicate field="Income" operator="greaterThan" value="63131.76"/>
               </Node>
              </Node>
              <Node id="159" score="0">
               <SimplePredicate field="Income" operator="greaterThan" value="104375.125"/>
              </Node>
             </Node>
            </Node>
            <Node id="105" score="1">
             <SimpleSetPredicate field="Marital" booleanOperator="isIn">
              <Array n="3" type="string">&quot;Married-spouse-absent&quot;   &quot;Unmarried&quot;   &quot;Widowed&quot;</Array>
             </SimpleSetPredicate>
            </Node>
           </Node>
          </Node>
          <Node id="47">
           <SimpleSetPredicate field="Employment" booleanOperator="isIn">
            <Array n="5" type="string">&quot;PSFederal&quot;   &quot;PSLocal&quot;   &quot;PSState&quot;   &quot;SelfEmp&quot;   &quot;Volunteer&quot;</Array>
           </SimpleSetPredicate>
           <Node id="76">
            <SimplePredicate field="Income" operator="lessOrEqual" value="67028.155"/>
            <Node id="106" score="0">
             <SimplePredicate field="Income" operator="lessOrEqual" value="63030.96"/>
            </Node>
            <Node id="107" score="1">
             <SimplePredicate field="Income" operator="greaterThan" value="63030.96"/>
            </Node>
           </Node>
           <Node id="77" score="0">
            <SimplePredicate field="Income" operator="greaterThan" value="67028.155"/>
           </Node>
          </Node>
         </Node>
        </Node>
        <Node id="13">
         <SimpleSetPredicate field="Occupation" booleanOperator="isIn">
          <Array n="7" type="string">&quot;Cleaner&quot;   &quot;Clerical&quot;   &quot;Machinist&quot;   &quot;Sales&quot;   &quot;Service&quot;   &quot;Support&quot;   &quot;Transport&quot;</Array>
         </SimpleSetPredicate>
         <Node id="26">
          <SimpleSetPredicate field="Occupation" booleanOperator="isIn">
           <Array n="8" type="string">&quot;Executive&quot;   &quot;Farming&quot;   &quot;Home&quot;   &quot;Military&quot;   &quot;Professional&quot;   &quot;Protective&quot;   &quot;Repair&quot;   &quot;Sales&quot;</Array>
          </SimpleSetPredicate>
          <Node id="48" score="1">
           <SimplePredicate field="Income" operator="lessOrEqual" value="35158.02"/>
          </Node>
          <Node id="49">
           <SimplePredicate field="Income" operator="greaterThan" value="35158.02"/>
           <Node id="78" score="0">
            <SimplePredicate field="Income" operator="lessOrEqual" value="114340.295"/>
           </Node>
           <Node id="79" score="0">
            <SimplePredicate field="Income" operator="greaterThan" value="114340.295"/>
           </Node>
          </Node>
         </Node>
         <Node id="27" score="0">
          <SimpleSetPredicate field="Occupation" booleanOperator="isIn">
           <Array n="6" type="string">&quot;Cleaner&quot;   &quot;Clerical&quot;   &quot;Machinist&quot;   &quot;Service&quot;   &quot;Support&quot;   &quot;Transport&quot;</Array>
          </SimpleSetPredicate>
         </Node>
        </Node>
       </Node>
       <Node id="7">
        <SimpleSetPredicate field="Education" booleanOperator="isIn">
         <Array n="10" type="string">&quot;College&quot;   &quot;HSgrad&quot;   &quot;Preschool&quot;   &quot;Vocational&quot;   &quot;Yr10&quot;   &quot;Yr11&quot;   &quot;Yr12&quot;   &quot;Yr5t6&quot;   &quot;Yr7t8&quot;   &quot;Yr9&quot;</Array>
        </SimpleSetPredicate>
        <Node id="14">
         <SimpleSetPredicate field="Occupation" booleanOperator="isIn">
          <Array n="3" type="string">&quot;Military&quot;   &quot;Repair&quot;   &quot;Support&quot;</Array>
         </SimpleSetPredicate>
         <Node id="28">
          <SimpleSetPredicate field="Marital" booleanOperator="isIn">
           <Array n="2" type="string">&quot;Divorced&quot;   &quot;Married&quot;</Array>
          </SimpleSetPredicate>
          <Node id="50" score="0">
           <SimplePredicate field="Income" operator="lessOrEqual" value="104001.05"/>
          </Node>
          <Node id="51" score="0">
           <SimplePredicate field="Income" operator="greaterThan" value="104001.05"/>
          </Node>
         </Node>
         <Node id="29">
          <SimpleSetPredicate field="Marital" booleanOperator="isIn">
           <Array n="4" type="string">&quot;Absent&quot;   &quot;Married-spouse-absent&quot;   &quot;Unmarried&quot;   &quot;Widowed&quot;</Array>
          </SimpleSetPredicate>
          <Node id="52" score="0">
           <SimpleSetPredicate field="Employment" booleanOperator="isIn">
            <Array n="5" type="string">&quot;Private&quot;   &quot;PSFederal&quot;   &quot;PSLocal&quot;   &quot;PSState&quot;   &quot;SelfEmp&quot;</Array>
           </SimpleSetPredicate>
          </Node>
          <Node id="53" score="1">
           <SimpleSetPredicate field="Employment" booleanOperator="isIn">
            <Array n="2" type="string">&quot;Consultant&quot;   &quot;Volunteer&quot;</Array>
           </SimpleSetPredicate>
          </Node>
         </Node>
        </Node>
        <Node id="15">
         <SimpleSetPredicate field="Occupation" booleanOperator="isIn">
          <Array n="11" type="string">&quot;Cleaner&quot;   &quot;Clerical&quot;   &quot;Executive&quot;   &quot;Farming&quot;   &quot;Home&quot;   &quot;Machinist&quot;   &quot;Professional&quot;   &quot;Protective&quot;   &quot;Sales&quot;   &quot;Service&quot;   &quot;Transport&quot;</Array>
         </SimpleSetPredicate>
         <Node id="30" score="0">
          <SimpleSetPredicate field="Marital" booleanOperator="isIn">
           <Array n="3" type="string">&quot;Absent&quot;   &quot;Divorced&quot;   &quot;Married-spouse-absent&quot;</Array>
          </SimpleSetPredicate>
         </Node>
         <Node id="31">
          <SimpleSetPredicate field="Marital" booleanOperator="isIn">
           <Array n="3" type="string">&quot;Married&quot;   &quot;Unmarried&quot;   &quot;Widowed&quot;</Array>
          </SimpleSetPredicate>
          <Node id="54">
           <SimplePredicate field="Hours" operator="lessOrEqual" value="57.5"/>
           <Node id="80" score="0">
            <SimplePredicate field="Income" operator="lessOrEqual" value="37502.275"/>
           </Node>
           <Node id="81">
            <SimplePredicate field="Income" operator="greaterThan" value="37502.275"/>
            <Node id="108" score="0">
             <SimpleSetPredicate field="Occupation" booleanOperator="isIn">
              <Array n="4" type="string">&quot;Military&quot;   &quot;Repair&quot;   &quot;Sales&quot;   &quot;Support&quot;</Array>
             </SimpleSetPredicate>
            </Node>
            <Node id="109" score="0">
             <SimpleSetPredicate field="Occupation" booleanOperator="isIn">
              <Array n="10" type="string">&quot;Cleaner&quot;   &quot;Clerical&quot;   &quot;Executive&quot;   &quot;Farming&quot;   &quot;Home&quot;   &quot;Machinist&quot;   &quot;Professional&quot;   &quot;Protective&quot;   &quot;Service&quot;   &quot;Transport&quot;</Array>
             </SimpleSetPredicate>
            </Node>
           </Node>
          </Node>
          <Node id="55" score="1">
           <SimplePredicate field="Hours" operator="greaterThan" value="57.5"/>
          </Node>
         </Node>
        </Node>
       </Node>
      </Node>
     </Node>
    </TreeModel>
   </Segment>
   <Segment id="2">
    <True/>
    <TreeModel modelName="randomForest_Model" functionName="classification" algorithmName="randomForest" splitCharacteristic="binarySplit">
     <MiningSchema>
      <MiningField name="Adjusted" usageType="predicted"/>
      <MiningField name="Employment" usageType="active"/>
      <MiningField name="Education" usageType="active"/>
      <MiningField name="Marital" usageType="active"/>
      <MiningField name="Occupation" usageType="active"/>
      <MiningField name="Income" usageType="active"/>
      <MiningField name="Gender" usageType="active"/>
      <MiningField name="Deductions" usageType="active"/>
      <MiningField name="Hours" usageType="active"/>
     </MiningSchema>
     <Node id="1">
      <True/>
      <Node id="2">
       <SimpleSetPredicate field="Marital" booleanOperator="isIn">
        <Array n="1" type="string">&quot;Married&quot;</Array>
       </SimpleSetPredicate>
       <Node id="4">
        <SimpleSetPredicate field="Education" booleanOperator="isIn">
         <Array n="4" type="string">&quot;Bachelor&quot;   &quot;Doctorate&quot;   &quot;Master&quot;   &quot;Professional&quot;</Array>
        </SimpleSetPredicate>
        <Node id="8">
         <SimpleSetPredicate field="Occupation" booleanOperator="isIn">
          <Array n="6" type="string">&quot;Executive&quot;   &quot;Home&quot;   &quot;Military&quot;   &quot;Professional&quot;   &quot;Protective&quot;   &quot;Service&quot;</Array>
         </SimpleSetPredicate>
         <Node id="14">
          <SimpleSetPredicate field="Employment" booleanOperator="isIn">
           <Array n="5" type="string">&quot;Private&quot;   &quot;PSFederal&quot;   &quot;PSLocal&quot;   &quot;PSState&quot;   &quot;SelfEmp&quot;</Array>
          </SimpleSetPredicate>
          <Node id="26" score="0">
           <SimplePredicate field="Income" operator="lessOrEqual" value="10593.06"/>
          </Node>
          <Node id="27">
           <SimplePredicate field="Income" operator="greaterThan" value="10593.06"/>
           <Node id="42">
            <SimpleSetPredicate field="Education" booleanOperator="isIn">
             <Array n="14" type="string">&quot;Associate&quot;   &quot;College&quot;   &quot;HSgrad&quot;   &quot;Master&quot;   &quot;Preschool&quot;   &quot;Professional&quot;   &quot;Vocational&quot;   &quot;Yr10&quot;   &quot;Yr11&quot;   &quot;Yr12&quot;   &quot;Yr1t4&quot;   &quot;Yr5t6&quot;   &quot;Yr7t8&quot;   &quot;Yr9&quot;</Array>
            </SimpleSetPredicate>
            <Node id="60" score="1">
             <SimplePredicate field="Hours" operator="lessOrEqual" value="48.5"/>
            </Node>
            <Node id="61" score="1">
             <SimplePredicate field="Hours" operator="greaterThan" value="48.5"/>
            </Node>
           </Node>
           <Node id="43">
            <SimpleSetPredicate field="Education" booleanOperator="isIn">
             <Array n="2" type="string">&quot;Bachelor&quot;   &quot;Doctorate&quot;</Array>
            </SimpleSetPredicate>
            <Node id="62" score="0">
             <SimpleSetPredicate field="Employment" booleanOperator="isIn">
              <Array n="2" type="string">&quot;PSFederal&quot;   &quot;PSState&quot;</Array>
             </SimpleSetPredicate>
            </Node>
            <Node id="63">
             <SimpleSetPredicate field="Employment" booleanOperator="isIn">
              <Array n="5" type="string">&quot;Consultant&quot;   &quot;Private&quot;   &quot;PSLocal&quot;   &quot;SelfEmp&quot;   &quot;Volunteer&quot;</Array>
             </SimpleSetPredicate>
             <Node id="84">
              <SimplePredicate field="Hours" operator="lessOrEqual" value="66.5"/>
              <Node id="108">
               <SimplePredicate field="Hours" operator="lessOrEqual" value="46"/>
               <Node id="124" score="1">
                <SimpleSetPredicate field="Gender" booleanOperator="isIn">
                 <Array n="1" type="string">&quot;Female&quot;</Array>
                </SimpleSetPredicate>
               </Node>
               <Node id="125">
                <SimpleSetPredicate field="Gender" booleanOperator="isIn">
                 <Array n="1" type="string">&quot;Male&quot;</Array>
                </SimpleSetPredicate>
                <Node id="144">
                 <SimplePredicate field="Income" operator="lessOrEqual" value="50132.355"/>
                 <Node id="160">
                  <SimplePredicate field="Income" operator="lessOrEqual" value="30970.295"/>
                  <Node id="174">
                   <SimplePredicate field="Hours" operator="lessOrEqual" value="41"/>
                   <Node id="190" score="0">
                    <SimpleSetPredicate field="Employment" booleanOperator="isIn">
                     <Array n="1" type="string">&quot;PSLocal&quot;</Array>
                    </SimpleSetPredicate>
                   </Node>
                   <Node id="191">
                    <SimpleSetPredicate field="Employment" booleanOperator="isIn">
                     <Array n="6" type="string">&quot;Consultant&quot;   &quot;Private&quot;   &quot;PSFederal&quot;   &quot;PSState&quot;   &quot;SelfEmp&quot;   &quot;Volunteer&quot;</Array>
                    </SimpleSetPredicate>
                    <Node id="202" score="1">
                     <SimplePredicate field="Income" operator="lessOrEqual" value="22030.735"/>
                    </Node>
                    <Node id="203" score="1">
                     <SimplePredicate field="Income" operator="greaterThan" value="22030.735"/>
                    </Node>
                   </Node>
                  </Node>
                  <Node id="175" score="0">
                   <SimplePredicate field="Hours" operator="greaterThan" value="41"/>
                  </Node>
                 </Node>
                 <Node id="161">
                  <SimplePredicate field="Income" operator="greaterThan" value="30970.295"/>
                  <Node id="176" score="1">
                   <SimplePredicate field="Income" operator="lessOrEqual" value="42688.875"/>
                  </Node>
                  <Node id="177" score="1">
                   <SimplePredicate field="Income" operator="greaterThan" value="42688.875"/>
                  </Node>
                 </Node>
                </Node>
                <Node id="145" score="0">
                 <SimplePredicate field="Income" operator="greaterThan" value="50132.355"/>
                </Node>
               </Node>
              </Node>
              <Node id="109">
               <SimplePredicate field="Hours" operator="greaterThan" value="46"/>
               <Node id="126" score="1">
                <SimpleSetPredicate field="Occupation" booleanOperator="isIn">
                 <Array n="13" type="string">&quot;Cleaner&quot;   &quot;Clerical&quot;   &quot;Executive&quot;   &quot;Farming&quot;   &quot;Home&quot;   &quot;Machinist&quot;   &quot;Military&quot;   &quot;Protective&quot;   &quot;Repair&quot;   &quot;Sales&quot;   &quot;Service&quot;   &quot;Support&quot;   &quot;Transport&quot;</Array>
                </SimpleSetPredicate>
               </Node>
               <Node id="127" score="1">
                <SimpleSetPredicate field="Occupation" booleanOperator="isIn">
                 <Array n="1" type="string">&quot;Professional&quot;</Array>
                </SimpleSetPredicate>
               </Node>
              </Node>
             </Node>
             <Node id="85" score="0">
              <SimplePredicate field="Hours" operator="greaterThan" value="66.5"/>
             </Node>
            </Node>
           </Node>
          </Node>
         </Node>
         <Node id="15" score="0">
          <SimpleSetPredicate field="Employment" booleanOperator="isIn">
           <Array n="2" type="string">&quot;Consultant&quot;   &quot;Volunteer&quot;</Array>
          </SimpleSetPredicate>
         </Node>
        </Node>
        <Node id="9">
         <SimpleSetPredicate field="Occupation" booleanOperator="isIn">
          <Array n="8" type="string">&quot;Cleaner&quot;   &quot;Clerical&quot;   &quot;Farming&quot;   &quot;Machinist&quot;   &quot;Repair&quot;   &quot;Sales&quot;   &quot;Support&quot;   &quot;Transport&quot;</Array>
         </SimpleSetPredicate>
         <Node id="16">
          <SimplePredicate field="Income" operator="lessOrEqual" value="39224.075"/>
          <Node id="28" score="0">
           <SimplePredicate field="Income" operator="lessOrEqual" value="21909.035"/>
          </Node>
          <Node id="29">
           <SimplePredicate field="Income" operator="greaterThan" value="21909.035"/>
           <Node id="44">
            <SimplePredicate field="Hours" operator="lessOrEqual" value="42"/>
            <Node id="64" score="1">
             <SimpleSetPredicate field="Occupation" booleanOperator="isIn">
              <Array n="12" type="string">&quot;Cleaner&quot;   &quot;Clerical&quot;   &quot;Executive&quot;   &quot;Home&quot;   &quot;Machinist&quot;   &quot;Military&quot;   &quot;Professional&quot;   &quot;Protective&quot;   &quot;Repair&quot;   &quot;Sales&quot;   &quot;Service&quot;   &quot;Transport&quot;</Array>
             </SimpleSetPredicate>
            </Node>
            <Node id="65" score="0">
             <SimpleSetPredicate field="Occupation" booleanOperator="isIn">
              <Array n="2" type="string">&quot;Farming&quot;   &quot;Support&quot;</Array>
             </SimpleSetPredicate>
            </Node>
           </Node>
           <Node id="45">
            <SimplePredicate field="Hours" operator="greaterThan" value="42"/>
            <Node id="66" score="0">
             <SimplePredicate field="Income" operator="lessOrEqual" value="34868.915"/>
            </Node>
            <Node id="67" score="1">
             <SimplePredicate field="Income" operator="greaterThan" value="34868.915"/>
            </Node>
           </Node>
          </Node>
         </Node>
         <Node id="17">
          <SimplePredicate field="Income" operator="greaterThan" value="39224.075"/>
          <Node id="30">
           <SimplePredicate field="Hours" operator="lessOrEqual" value="49"/>
           <Node id="46" score="0">
            <SimplePredicate field="Income" operator="lessOrEqual" value="97917.535"/>
           </Node>
           <Node id="47" score="0">
            <SimplePredicate field="Income" operator="greaterThan" value="97917.535"/>
           </Node>
          </Node>
          <Node id="31" score="1">
           <SimplePredicate field="Hours" operator="greaterThan" value="49"/>
          </Node>
         </Node>
        </Node>
       </Node>
       <Node id="5">
        <SimpleSetPredicate field="Education" booleanOperator="isIn">
         <Array n="12" type="string">&quot;Associate&quot;   &quot;College&quot;   &quot;HSgrad&quot;   &quot;Preschool&quot;   &quot;Vocational&quot;   &quot;Yr10&quot;   &quot;Yr11&quot;   &quot;Yr12&quot;   &quot;Yr1t4&quot;   &quot;Yr5t6&quot;   &quot;Yr7t8&quot;   &quot;Yr9&quot;</Array>
        </SimpleSetPredicate>
        <Node id="10">
         <SimpleSetPredicate field="Employment" booleanOperator="isIn">
          <Array n="3" type="string">&quot;PSFederal&quot;   &quot;PSState&quot;   &quot;SelfEmp&quot;</Array>
         </SimpleSetPredicate>
         <Node id="18">
          <SimpleSetPredicate field="Occupation" booleanOperator="isIn">
           <Array n="9" type="string">&quot;Clerical&quot;   &quot;Executive&quot;   &quot;Farming&quot;   &quot;Home&quot;   &quot;Military&quot;   &quot;Professional&quot;   &quot;Protective&quot;   &quot;Sales&quot;   &quot;Support&quot;</Array>
          </SimpleSetPredicate>
          <Node id="32" score="0">
           <SimplePredicate field="Hours" operator="lessOrEqual" value="32"/>
          </Node>
          <Node id="33">
           <SimplePredicate field="Hours" operator="greaterThan" value="32"/>
           <Node id="48" score="1">
            <SimplePredicate field="Income" operator="lessOrEqual" value="46838.295"/>
           </Node>
           <Node id="49" score="1">
            <SimplePredicate field="Income" operator="greaterThan" value="46838.295"/>
           </Node>
          </Node>
         </Node>
         <Node id="19">
          <SimpleSetPredicate field="Occupation" booleanOperator="isIn">
           <Array n="5" type="string">&quot;Cleaner&quot;   &quot;Machinist&quot;   &quot;Repair&quot;   &quot;Service&quot;   &quot;Transport&quot;</Array>
          </SimpleSetPredicate>
          <Node id="34" score="1">
           <SimpleSetPredicate field="Employment" booleanOperator="isIn">
            <Array n="1" type="string">&quot;PSState&quot;</Array>
           </SimpleSetPredicate>
          </Node>
          <Node id="35">
           <SimpleSetPredicate field="Employment" booleanOperator="isIn">
            <Array n="6" type="string">&quot;Consultant&quot;   &quot;Private&quot;   &quot;PSFederal&quot;   &quot;PSLocal&quot;   &quot;SelfEmp&quot;   &quot;Volunteer&quot;</Array>
           </SimpleSetPredicate>
           <Node id="50" score="1">
            <SimpleSetPredicate field="Occupation" booleanOperator="isIn">
             <Array n="10" type="string">&quot;Clerical&quot;   &quot;Executive&quot;   &quot;Farming&quot;   &quot;Home&quot;   &quot;Military&quot;   &quot;Professional&quot;   &quot;Protective&quot;   &quot;Repair&quot;   &quot;Sales&quot;   &quot;Support&quot;</Array>
            </SimpleSetPredicate>
           </Node>
           <Node id="51" score="0">
            <SimpleSetPredicate field="Occupation" booleanOperator="isIn">
             <Array n="4" type="string">&quot;Cleaner&quot;   &quot;Machinist&quot;   &quot;Service&quot;   &quot;Transport&quot;</Array>
            </SimpleSetPredicate>
           </Node>
          </Node>
         </Node>
        </Node>
        <Node id="11">
         <SimpleSetPredicate field="Employment" booleanOperator="isIn">
          <Array n="4" type="string">&quot;Consultant&quot;   &quot;Private&quot;   &quot;PSLocal&quot;   &quot;Volunteer&quot;</Array>
         </SimpleSetPredicate>
         <Node id="20">
          <SimplePredicate field="Deductions" operator="lessOrEqual" value="1708"/>
          <Node id="36">
           <SimpleSetPredicate field="Occupation" booleanOperator="isIn">
            <Array n="6" type="string">&quot;Clerical&quot;   &quot;Executive&quot;   &quot;Home&quot;   &quot;Machinist&quot;   &quot;Military&quot;   &quot;Support&quot;</Array>
           </SimpleSetPredicate>
           <Node id="52">
            <SimplePredicate field="Income" operator="lessOrEqual" value="39556.825"/>
            <Node id="68" score="1">
             <SimpleSetPredicate field="Occupation" booleanOperator="isIn">
              <Array n="11" type="string">&quot;Cleaner&quot;   &quot;Farming&quot;   &quot;Home&quot;   &quot;Military&quot;   &quot;Professional&quot;   &quot;Protective&quot;   &quot;Repair&quot;   &quot;Sales&quot;   &quot;Service&quot;   &quot;Support&quot;   &quot;Transport&quot;</Array>
             </SimpleSetPredicate>
            </Node>
            <Node id="69">
             <SimpleSetPredicate field="Occupation" booleanOperator="isIn">
              <Array n="3" type="string">&quot;Clerical&quot;   &quot;Executive&quot;   &quot;Machinist&quot;</Array>
             </SimpleSetPredicate>
             <Node id="86">
              <SimplePredicate field="Income" operator="lessOrEqual" value="34048.18"/>
              <Node id="110">
               <SimplePredicate field="Income" operator="lessOrEqual" value="33612.34"/>
               <Node id="128">
                <SimpleSetPredicate field="Occupation" booleanOperator="isIn">
                 <Array n="13" type="string">&quot;Cleaner&quot;   &quot;Executive&quot;   &quot;Farming&quot;   &quot;Home&quot;   &quot;Machinist&quot;   &quot;Military&quot;   &quot;Professional&quot;   &quot;Protective&quot;   &quot;Repair&quot;   &quot;Sales&quot;   &quot;Service&quot;   &quot;Support&quot;   &quot;Transport&quot;</Array>
                </SimpleSetPredicate>
                <Node id="146">
                 <SimplePredicate field="Income" operator="lessOrEqual" value="31081.47"/>
                 <Node id="162">
                  <SimplePredicate field="Income" operator="lessOrEqual" value="15788.21"/>
                  <Node id="178" score="1">
                   <SimpleSetPredicate field="Education" booleanOperator="isIn">
                    <Array n="12" type="string">&quot;Associate&quot;   &quot;Bachelor&quot;   &quot;College&quot;   &quot;Doctorate&quot;   &quot;Master&quot;   &quot;Preschool&quot;   &quot;Professional&quot;   &quot;Yr11&quot;   &quot;Yr12&quot;   &quot;Yr1t4&quot;   &quot;Yr5t6&quot;   &quot;Yr9&quot;</Array>
                   </SimpleSetPredicate>
                  </Node>
                  <Node id="179" score="0">
                   <SimpleSetPredicate field="Education" booleanOperator="isIn">
                    <Array n="4" type="string">&quot;HSgrad&quot;   &quot;Vocational&quot;   &quot;Yr10&quot;   &quot;Yr7t8&quot;</Array>
                   </SimpleSetPredicate>
                  </Node>
                 </Node>
                 <Node id="163">
                  <SimplePredicate field="Income" operator="greaterThan" value="15788.21"/>
                  <Node id="180" score="1">
                   <SimplePredicate field="Income" operator="lessOrEqual" value="17560.805"/>
                  </Node>
                  <Node id="181">
                   <SimplePredicate field="Income" operator="greaterThan" value="17560.805"/>
                   <Node id="192" score="1">
                    <SimpleSetPredicate field="Occupation" booleanOperator="isIn">
                     <Array n="13" type="string">&quot;Cleaner&quot;   &quot;Clerical&quot;   &quot;Executive&quot;   &quot;Farming&quot;   &quot;Home&quot;   &quot;Military&quot;   &quot;Professional&quot;   &quot;Protective&quot;   &quot;Repair&quot;   &quot;Sales&quot;   &quot;Service&quot;   &quot;Support&quot;   &quot;Transport&quot;</Array>
                    </SimpleSetPredicate>
                   </Node>
                   <Node id="193" score="0">
                    <SimpleSetPredicate field="Occupation" booleanOperator="isIn">
                     <Array n="1" type="string">&quot;Machinist&quot;</Array>
                    </SimpleSetPredicate>
                   </Node>
                  </Node>
                 </Node>
                </Node>
                <Node id="147" score="0">
                 <SimplePredicate field="Income" operator="greaterThan" value="31081.47"/>
                </Node>
               </Node>
               <Node id="129" score="0">
                <SimpleSetPredicate field="Occupation" booleanOperator="isIn">
                 <Array n="1" type="string">&quot;Clerical&quot;</Array>
                </SimpleSetPredicate>
               </Node>
              </Node>
              <Node id="111" score="1">
               <SimplePredicate field="Income" operator="greaterThan" value="33612.34"/>
              </Node>
             </Node>
             <Node id="87" score="0">
              <SimplePredicate field="Income" operator="greaterThan" value="34048.18"/>
             </Node>
            </Node>
           </Node>
           <Node id="53">
            <SimplePredicate field="Income" operator="greaterThan" value="39556.825"/>
            <Node id="70">
             <SimpleSetPredicate field="Education" booleanOperator="isIn">
              <Array n="11" type="string">&quot;Bachelor&quot;   &quot;College&quot;   &quot;Doctorate&quot;   &quot;Master&quot;   &quot;Preschool&quot;   &quot;Professional&quot;   &quot;Vocational&quot;   &quot;Yr10&quot;   &quot;Yr11&quot;   &quot;Yr1t4&quot;   &quot;Yr5t6&quot;</Array>
             </SimpleSetPredicate>
             <Node id="88" score="1">
              <SimplePredicate field="Hours" operator="lessOrEqual" value="42.5"/>
             </Node>
             <Node id="89" score="1">
              <SimplePredicate field="Hours" operator="greaterThan" value="42.5"/>
             </Node>
            </Node>
            <Node id="71">
             <SimpleSetPredicate field="Education" booleanOperator="isIn">
              <Array n="5" type="string">&quot;Associate&quot;   &quot;HSgrad&quot;   &quot;Yr12&quot;   &quot;Yr7t8&quot;   &quot;Yr9&quot;</Array>
             </SimpleSetPredicate>
             <Node id="90" score="1">
              <SimplePredicate field="Income" operator="lessOrEqual" value="41227.235"/>
             </Node>
             <Node id="91">
              <SimplePredicate field="Income" operator="greaterThan" value="41227.235"/>
              <Node id="112" score="0">
               <SimpleSetPredicate field="Occupation" booleanOperator="isIn">
                <Array n="11" type="string">&quot;Cleaner&quot;   &quot;Clerical&quot;   &quot;Farming&quot;   &quot;Home&quot;   &quot;Military&quot;   &quot;Professional&quot;   &quot;Protective&quot;   &quot;Repair&quot;   &quot;Sales&quot;   &quot;Service&quot;   &quot;Transport&quot;</Array>
               </SimpleSetPredicate>
              </Node>
              <Node id="113">
               <SimpleSetPredicate field="Occupation" booleanOperator="isIn">
                <Array n="3" type="string">&quot;Executive&quot;   &quot;Machinist&quot;   &quot;Support&quot;</Array>
               </SimpleSetPredicate>
               <Node id="130" score="0">
                <SimplePredicate field="Income" operator="lessOrEqual" value="44646.455"/>
               </Node>
               <Node id="131">
                <SimplePredicate field="Income" operator="greaterThan" value="44646.455"/>
                <Node id="148" score="0">
                 <SimpleSetPredicate field="Occupation" booleanOperator="isIn">
                  <Array n="12" type="string">&quot;Cleaner&quot;   &quot;Clerical&quot;   &quot;Executive&quot;   &quot;Farming&quot;   &quot;Home&quot;   &quot;Military&quot;   &quot;Professional&quot;   &quot;Protective&quot;   &quot;Repair&quot;   &quot;Sales&quot;   &quot;Service&quot;   &quot;Transport&quot;</Array>
                 </SimpleSetPredicate>
                </Node>
                <Node id="149" score="0">
                 <SimpleSetPredicate field="Occupation" booleanOperator="isIn">
                  <Array n="2" type="string">&quot;Machinist&quot;   &quot;Support&quot;</Array>
                 </SimpleSetPredicate>
                </Node>
               </Node>
              </Node>
             </Node>
            </Node>
           </Node>
          </Node>
          <Node id="37">
           <SimpleSetPredicate field="Occupation" booleanOperator="isIn">
            <Array n="8" type="string">&quot;Cleaner&quot;   &quot;Farming&quot;   &quot;Professional&quot;   &quot;Protective&quot;   &quot;Repair&quot;   &quot;Sales&quot;   &quot;Service&quot;   &quot;Transport&quot;</Array>
           </SimpleSetPredicate>
           <Node id="54">
            <SimplePredicate field="Income" operator="lessOrEqual" value="58520.57"/>
            <Node id="72">
             <SimpleSetPredicate field="Occupation" booleanOperator="isIn">
              <Array n="7" type="string">&quot;Clerical&quot;   &quot;Executive&quot;   &quot;Home&quot;   &quot;Machinist&quot;   &quot;Military&quot;   &quot;Sales&quot;   &quot;Support&quot;</Array>
             </SimpleSetPredicate>
             <Node id="92" score="1">
              <SimpleSetPredicate field="Education" booleanOperator="isIn">
               <Array n="11" type="string">&quot;Associate&quot;   &quot;Bachelor&quot;   &quot;Doctorate&quot;   &quot;Master&quot;   &quot;Preschool&quot;   &quot;Professional&quot;   &quot;Yr11&quot;   &quot;Yr12&quot;   &quot;Yr1t4&quot;   &quot;Yr5t6&quot;   &quot;Yr9&quot;</Array>
              </SimpleSetPredicate>
             </Node>
             <Node id="93">
              <SimpleSetPredicate field="Education" booleanOperator="isIn">
               <Array n="5" type="string">&quot;College&quot;   &quot;HSgrad&quot;   &quot;Vocational&quot;   &quot;Yr10&quot;   &quot;Yr7t8&quot;</Array>
              </SimpleSetPredicate>
              <Node id="114">
               <SimplePredicate field="Income" operator="lessOrEqual" value="44454.92"/>
               <Node id="132">
                <SimplePredicate field="Income" operator="lessOrEqual" value="38257.285"/>
                <Node id="150">
                 <SimplePredicate field="Hours" operator="lessOrEqual" value="52.5"/>
                 <Node id="164" score="0">
                  <SimplePredicate field="Income" operator="lessOrEqual" value="28126.07"/>
                 </Node>
                 <Node id="165" score="0">
                  <SimplePredicate field="Income" operator="greaterThan" value="28126.07"/>
                 </Node>
                </Node>
                <Node id="151" score="1">
                 <SimplePredicate field="Hours" operator="greaterThan" value="52.5"/>
                </Node>
               </Node>
               <Node id="133" score="1">
                <SimplePredicate field="Income" operator="greaterThan" value="38257.285"/>
               </Node>
              </Node>
              <Node id="115" score="0">
               <SimplePredicate field="Income" operator="greaterThan" value="44454.92"/>
              </Node>
             </Node>
            </Node>
            <Node id="73">
             <SimpleSetPredicate field="Occupation" booleanOperator="isIn">
              <Array n="7" type="string">&quot;Cleaner&quot;   &quot;Farming&quot;   &quot;Professional&quot;   &quot;Protective&quot;   &quot;Repair&quot;   &quot;Service&quot;   &quot;Transport&quot;</Array>
             </SimpleSetPredicate>
             <Node id="94" score="1">
              <SimplePredicate field="Income" operator="lessOrEqual" value="5885.31"/>
             </Node>
             <Node id="95">
              <SimplePredicate field="Income" operator="greaterThan" value="5885.31"/>
              <Node id="116">
               <SimpleSetPredicate field="Education" booleanOperator="isIn">
                <Array n="9" type="string">&quot;Associate&quot;   &quot;Bachelor&quot;   &quot;College&quot;   &quot;Doctorate&quot;   &quot;HSgrad&quot;   &quot;Master&quot;   &quot;Professional&quot;   &quot;Yr10&quot;   &quot;Yr9&quot;</Array>
               </SimpleSetPredicate>
               <Node id="134">
                <SimplePredicate field="Income" operator="lessOrEqual" value="29770.43"/>
                <Node id="152">
                 <SimpleSetPredicate field="Occupation" booleanOperator="isIn">
                  <Array n="9" type="string">&quot;Clerical&quot;   &quot;Executive&quot;   &quot;Farming&quot;   &quot;Home&quot;   &quot;Machinist&quot;   &quot;Military&quot;   &quot;Repair&quot;   &quot;Sales&quot;   &quot;Support&quot;</Array>
                 </SimpleSetPredicate>
                 <Node id="166" score="1">
                  <SimpleSetPredicate field="Education" booleanOperator="isIn">
                   <Array n="13" type="string">&quot;Associate&quot;   &quot;Bachelor&quot;   &quot;Doctorate&quot;   &quot;Master&quot;   &quot;Preschool&quot;   &quot;Professional&quot;   &quot;Vocational&quot;   &quot;Yr11&quot;   &quot;Yr12&quot;   &quot;Yr1t4&quot;   &quot;Yr5t6&quot;   &quot;Yr7t8&quot;   &quot;Yr9&quot;</Array>
                  </SimpleSetPredicate>
                 </Node>
                 <Node id="167">
                  <SimpleSetPredicate field="Education" booleanOperator="isIn">
                   <Array n="3" type="string">&quot;College&quot;   &quot;HSgrad&quot;   &quot;Yr10&quot;</Array>
                  </SimpleSetPredicate>
                  <Node id="182">
                   <SimplePredicate field="Income" operator="lessOrEqual" value="21502.46"/>
                   <Node id="194" score="1">
                    <SimpleSetPredicate field="Education" booleanOperator="isIn">
                     <Array n="14" type="string">&quot;Associate&quot;   &quot;Bachelor&quot;   &quot;College&quot;   &quot;Doctorate&quot;   &quot;Master&quot;   &quot;Preschool&quot;   &quot;Professional&quot;   &quot;Vocational&quot;   &quot;Yr11&quot;   &quot;Yr12&quot;   &quot;Yr1t4&quot;   &quot;Yr5t6&quot;   &quot;Yr7t8&quot;   &quot;Yr9&quot;</Array>
                    </SimpleSetPredicate>
                   </Node>
                   <Node id="195">
                    <SimpleSetPredicate field="Education" booleanOperator="isIn">
                     <Array n="2" type="string">&quot;HSgrad&quot;   &quot;Yr10&quot;</Array>
                    </SimpleSetPredicate>
                    <Node id="204" score="0">
                     <SimplePredicate field="Income" operator="lessOrEqual" value="19251.585"/>
                    </Node>
                    <Node id="205" score="0">
                     <SimplePredicate field="Income" operator="greaterThan" value="19251.585"/>
                    </Node>
                   </Node>
                  </Node>
                  <Node id="183">
                   <SimplePredicate field="Income" operator="greaterThan" value="21502.46"/>
                   <Node id="196" score="0">
                    <SimpleSetPredicate field="Education" booleanOperator="isIn">
                     <Array n="14" type="string">&quot;Associate&quot;   &quot;Bachelor&quot;   &quot;Doctorate&quot;   &quot;HSgrad&quot;   &quot;Master&quot;   &quot;Preschool&quot;   &quot;Professional&quot;   &quot;Vocational&quot;   &quot;Yr11&quot;   &quot;Yr12&quot;   &quot;Yr1t4&quot;   &quot;Yr5t6&quot;   &quot;Yr7t8&quot;   &quot;Yr9&quot;</Array>
                    </SimpleSetPredicate>
                   </Node>
                   <Node id="197" score="0">
                    <SimpleSetPredicate field="Education" booleanOperator="isIn">
                     <Array n="2" type="string">&quot;College&quot;   &quot;Yr10&quot;</Array>
                    </SimpleSetPredicate>
                   </Node>
                  </Node>
                 </Node>
                </Node>
                <Node id="153" score="0">
                 <SimpleSetPredicate field="Occupation" booleanOperator="isIn">
                  <Array n="5" type="string">&quot;Cleaner&quot;   &quot;Professional&quot;   &quot;Protective&quot;   &quot;Service&quot;   &quot;Transport&quot;</Array>
                 </SimpleSetPredicate>
                </Node>
               </Node>
               <Node id="135">
                <SimplePredicate field="Income" operator="greaterThan" value="29770.43"/>
                <Node id="154" score="1">
                 <SimplePredicate field="Income" operator="lessOrEqual" value="31151.95"/>
                </Node>
                <Node id="155">
                 <SimplePredicate field="Income" operator="greaterThan" value="31151.95"/>
                 <Node id="168">
                  <SimplePredicate field="Income" operator="lessOrEqual" value="50111.375"/>
                  <Node id="184">
                   <SimplePredicate field="Income" operator="lessOrEqual" value="49563.22"/>
                   <Node id="198">
                    <SimplePredicate field="Hours" operator="lessOrEqual" value="46.5"/>
                    <Node id="206">
                     <SimpleSetPredicate field="Occupation" booleanOperator="isIn">
                      <Array n="8" type="string">&quot;Clerical&quot;   &quot;Executive&quot;   &quot;Home&quot;   &quot;Machinist&quot;   &quot;Military&quot;   &quot;Sales&quot;   &quot;Support&quot;   &quot;Transport&quot;</Array>
                     </SimpleSetPredicate>
                     <Node id="210" score="1">
                      <SimplePredicate field="Income" operator="lessOrEqual" value="42015.465"/>
                     </Node>
                     <Node id="211" score="0">
                      <SimplePredicate field="Income" operator="greaterThan" value="42015.465"/>
                     </Node>
                    </Node>
                    <Node id="207">
                     <SimpleSetPredicate field="Occupation" booleanOperator="isIn">
                      <Array n="6" type="string">&quot;Cleaner&quot;   &quot;Farming&quot;   &quot;Professional&quot;   &quot;Protective&quot;   &quot;Repair&quot;   &quot;Service&quot;</Array>
                     </SimpleSetPredicate>
                     <Node id="212">
                      <SimpleSetPredicate field="Occupation" booleanOperator="isIn">
                       <Array n="10" type="string">&quot;Clerical&quot;   &quot;Executive&quot;   &quot;Home&quot;   &quot;Machinist&quot;   &quot;Military&quot;   &quot;Repair&quot;   &quot;Sales&quot;   &quot;Service&quot;   &quot;Support&quot;   &quot;Transport&quot;</Array>
                      </SimpleSetPredicate>
                      <Node id="216">
                       <SimplePredicate field="Hours" operator="lessOrEqual" value="40.5"/>
                       <Node id="218">
                        <SimplePredicate field="Income" operator="lessOrEqual" value="47715.315"/>
                        <Node id="220">
                         <SimplePredicate field="Income" operator="lessOrEqual" value="45681.855"/>
                         <Node id="222">
                          <SimpleSetPredicate field="Employment" booleanOperator="isIn">
                           <Array n="5" type="string">&quot;Consultant&quot;   &quot;Private&quot;   &quot;PSFederal&quot;   &quot;PSState&quot;   &quot;SelfEmp&quot;</Array>
                          </SimpleSetPredicate>
                          <Node id="224" score="0">
                           <SimplePredicate field="Income" operator="lessOrEqual" value="37328.76"/>
                          </Node>
                          <Node id="225" score="0">
                           <SimplePredicate field="Income" operator="greaterThan" value="37328.76"/>
                          </Node>
                         </Node>
                         <Node id="223" score="1">
                          <SimpleSetPredicate field="Employment" booleanOperator="isIn">
                           <Array n="2" type="string">&quot;PSLocal&quot;   &quot;Volunteer&quot;</Array>
                          </SimpleSetPredicate>
                         </Node>
                        </Node>
                        <Node id="221" score="1">
                         <SimplePredicate field="Income" operator="greaterThan" value="45681.855"/>
                        </Node>
                       </Node>
                       <Node id="219" score="0">
                        <SimplePredicate field="Income" operator="greaterThan" value="47715.315"/>
                       </Node>
                      </Node>
                      <Node id="217" score="0">
                       <SimplePredicate field="Hours" operator="greaterThan" value="40.5"/>
                      </Node>
                     </Node>
                     <Node id="213" score="0">
                      <SimpleSetPredicate field="Occupation" booleanOperator="isIn">
                       <Array n="4" type="string">&quot;Cleaner&quot;   &quot;Farming&quot;   &quot;Professional&quot;   &quot;Protective&quot;</Array>
                      </SimpleSetPredicate>
                     </Node>
                    </Node>
                   </Node>
                   <Node id="199">
                    <SimplePredicate field="Hours" operator="greaterThan" value="46.5"/>
                    <Node id="208">
                     <SimpleSetPredicate field="Occupation" booleanOperator="isIn">
                      <Array n="12" type="string">&quot;Cleaner&quot;   &quot;Clerical&quot;   &quot;Executive&quot;   &quot;Home&quot;   &quot;Machinist&quot;   &quot;Military&quot;   &quot;Professional&quot;   &quot;Protective&quot;   &quot;Repair&quot;   &quot;Sales&quot;   &quot;Support&quot;   &quot;Transport&quot;</Array>
                     </SimpleSetPredicate>
                     <Node id="214" score="1">
                      <SimplePredicate field="Income" operator="lessOrEqual" value="46785.655"/>
                     </Node>
                     <Node id="215" score="0">
                      <SimplePredicate field="Income" operator="greaterThan" value="46785.655"/>
                     </Node>
                    </Node>
                    <Node id="209" score="0">
                     <SimpleSetPredicate field="Occupation" booleanOperator="isIn">
                      <Array n="2" type="string">&quot;Farming&quot;   &quot;Service&quot;</Array>
                     </SimpleSetPredicate>
                    </Node>
                   </Node>
                  </Node>
                  <Node id="185" score="1">
                   <SimplePredicate field="Income" operator="greaterThan" value="49563.22"/>
                  </Node>
                 </Node>
                 <Node id="169" score="0">
                  <SimplePredicate field="Income" operator="greaterThan" value="50111.375"/>
                 </Node>
                </Node>
               </Node>
              </Node>
              <Node id="117" score="0">
               <SimpleSetPredicate field="Education" booleanOperator="isIn">
                <Array n="7" type="string">&quot;Preschool&quot;   &quot;Vocational&quot;   &quot;Yr11&quot;   &quot;Yr12&quot;   &quot;Yr1t4&quot;   &quot;Yr5t6&quot;   &quot;Yr7t8&quot;</Array>
               </SimpleSetPredicate>
              </Node>
             </Node>
            </Node>
           </Node>
           <Node id="55">
            <SimplePredicate field="Income" operator="greaterThan" value="58520.57"/>
            <Node id="74" score="1">
             <SimpleSetPredicate field="Occupation" booleanOperator="isIn">
              <Array n="8" type="string">&quot;Clerical&quot;   &quot;Executive&quot;   &quot;Farming&quot;   &quot;Home&quot;   &quot;Machinist&quot;   &quot;Military&quot;   &quot;Repair&quot;   &quot;Support&quot;</Array>
             </SimpleSetPredicate>
            </Node>
            <Node id="75">
             <SimpleSetPredicate field="Occupation" booleanOperator="isIn">
              <Array n="6" type="string">&quot;Cleaner&quot;   &quot;Professional&quot;   &quot;Protective&quot;   &quot;Sales&quot;   &quot;Service&quot;   &quot;Transport&quot;</Array>
             </SimpleSetPredicate>
             <Node id="96" score="1">
              <SimplePredicate field="Income" operator="lessOrEqual" value="59181.92"/>
             </Node>
             <Node id="97">
              <SimplePredicate field="Income" operator="greaterThan" value="59181.92"/>
              <Node id="118" score="1">
               <SimpleSetPredicate field="Education" booleanOperator="isIn">
                <Array n="12" type="string">&quot;Bachelor&quot;   &quot;Doctorate&quot;   &quot;Master&quot;   &quot;Preschool&quot;   &quot;Professional&quot;   &quot;Vocational&quot;   &quot;Yr10&quot;   &quot;Yr11&quot;   &quot;Yr12&quot;   &quot;Yr1t4&quot;   &quot;Yr5t6&quot;   &quot;Yr7t8&quot;</Array>
               </SimpleSetPredicate>
              </Node>
              <Node id="119">
               <SimpleSetPredicate field="Education" booleanOperator="isIn">
                <Array n="4" type="string">&quot;Associate&quot;   &quot;College&quot;   &quot;HSgrad&quot;   &quot;Yr9&quot;</Array>
               </SimpleSetPredicate>
               <Node id="136" score="0">
                <SimpleSetPredicate field="Occupation" booleanOperator="isIn">
                 <Array n="10" type="string">&quot;Clerical&quot;   &quot;Executive&quot;   &quot;Farming&quot;   &quot;Home&quot;   &quot;Machinist&quot;   &quot;Military&quot;   &quot;Protective&quot;   &quot;Repair&quot;   &quot;Support&quot;   &quot;Transport&quot;</Array>
                </SimpleSetPredicate>
               </Node>
               <Node id="137" score="0">
                <SimpleSetPredicate field="Occupation" booleanOperator="isIn">
                 <Array n="4" type="string">&quot;Cleaner&quot;   &quot;Professional&quot;   &quot;Sales&quot;   &quot;Service&quot;</Array>
                </SimpleSetPredicate>
               </Node>
              </Node>
             </Node>
            </Node>
           </Node>
          </Node>
         </Node>
         <Node id="21" score="1">
          <SimplePredicate field="Deductions" operator="greaterThan" value="1708"/>
         </Node>
        </Node>
       </Node>
      </Node>
      <Node id="3">
       <SimpleSetPredicate field="Marital" booleanOperator="isIn">
        <Array n="5" type="string">&quot;Absent&quot;   &quot;Divorced&quot;   &quot;Married-spouse-absent&quot;   &quot;Unmarried&quot;   &quot;Widowed&quot;</Array>
       </SimpleSetPredicate>
       <Node id="6">
        <SimplePredicate field="Deductions" operator="lessOrEqual" value="1881.66666666667"/>
        <Node id="12">
         <SimpleSetPredicate field="Education" booleanOperator="isIn">
          <Array n="3" type="string">&quot;Doctorate&quot;   &quot;Professional&quot;   &quot;Yr1t4&quot;</Array>
         </SimpleSetPredicate>
         <Node id="22" score="0">
          <SimplePredicate field="Hours" operator="lessOrEqual" value="52.5"/>
         </Node>
         <Node id="23" score="1">
          <SimplePredicate field="Hours" operator="greaterThan" value="52.5"/>
         </Node>
        </Node>
        <Node id="13">
         <SimpleSetPredicate field="Education" booleanOperator="isIn">
          <Array n="13" type="string">&quot;Associate&quot;   &quot;Bachelor&quot;   &quot;College&quot;   &quot;HSgrad&quot;   &quot;Master&quot;   &quot;Preschool&quot;   &quot;Vocational&quot;   &quot;Yr10&quot;   &quot;Yr11&quot;   &quot;Yr12&quot;   &quot;Yr5t6&quot;   &quot;Yr7t8&quot;   &quot;Yr9&quot;</Array>
         </SimpleSetPredicate>
         <Node id="24">
          <SimpleSetPredicate field="Education" booleanOperator="isIn">
           <Array n="5" type="string">&quot;Bachelor&quot;   &quot;Doctorate&quot;   &quot;Master&quot;   &quot;Professional&quot;   &quot;Yr1t4&quot;</Array>
          </SimpleSetPredicate>
          <Node id="38" score="1">
           <SimplePredicate field="Hours" operator="lessOrEqual" value="7"/>
          </Node>
          <Node id="39">
           <SimplePredicate field="Hours" operator="greaterThan" value="7"/>
           <Node id="56">
            <SimplePredicate field="Hours" operator="lessOrEqual" value="48"/>
            <Node id="76">
             <SimplePredicate field="Income" operator="lessOrEqual" value="76022.975"/>
             <Node id="98">
              <SimplePredicate field="Income" operator="lessOrEqual" value="73975.3"/>
              <Node id="120">
               <SimpleSetPredicate field="Employment" booleanOperator="isIn">
                <Array n="4" type="string">&quot;Private&quot;   &quot;PSFederal&quot;   &quot;PSLocal&quot;   &quot;PSState&quot;</Array>
               </SimpleSetPredicate>
               <Node id="138">
                <SimplePredicate field="Income" operator="lessOrEqual" value="63525.08"/>
                <Node id="156">
                 <SimplePredicate field="Income" operator="lessOrEqual" value="62910.555"/>
                 <Node id="170">
                  <SimpleSetPredicate field="Gender" booleanOperator="isIn">
                   <Array n="1" type="string">&quot;Female&quot;</Array>
                  </SimpleSetPredicate>
                  <Node id="186" score="1">
                   <SimpleSetPredicate field="Marital" booleanOperator="isIn">
                    <Array n="4" type="string">&quot;Divorced&quot;   &quot;Married&quot;   &quot;Married-spouse-absent&quot;   &quot;Unmarried&quot;</Array>
                   </SimpleSetPredicate>
                  </Node>
                  <Node id="187">
                   <SimpleSetPredicate field="Marital" booleanOperator="isIn">
                    <Array n="2" type="string">&quot;Absent&quot;   &quot;Widowed&quot;</Array>
                   </SimpleSetPredicate>
                   <Node id="200" score="0">
                    <SimplePredicate field="Income" operator="lessOrEqual" value="29974.16"/>
                   </Node>
                   <Node id="201" score="0">
                    <SimplePredicate field="Income" operator="greaterThan" value="29974.16"/>
                   </Node>
                  </Node>
                 </Node>
                 <Node id="171" score="0">
                  <SimpleSetPredicate field="Gender" booleanOperator="isIn">
                   <Array n="1" type="string">&quot;Male&quot;</Array>
                  </SimpleSetPredicate>
                 </Node>
                </Node>
                <Node id="157" score="1">
                 <SimplePredicate field="Income" operator="greaterThan" value="62910.555"/>
                </Node>
               </Node>
               <Node id="139" score="0">
                <SimplePredicate field="Income" operator="greaterThan" value="63525.08"/>
               </Node>
              </Node>
              <Node id="121" score="1">
               <SimpleSetPredicate field="Employment" booleanOperator="isIn">
                <Array n="3" type="string">&quot;Consultant&quot;   &quot;SelfEmp&quot;   &quot;Volunteer&quot;</Array>
               </SimpleSetPredicate>
              </Node>
             </Node>
             <Node id="99" score="1">
              <SimplePredicate field="Income" operator="greaterThan" value="73975.3"/>
             </Node>
            </Node>
            <Node id="77">
             <SimplePredicate field="Income" operator="greaterThan" value="76022.975"/>
             <Node id="100" score="0">
              <SimplePredicate field="Hours" operator="lessOrEqual" value="42.5"/>
             </Node>
             <Node id="101" score="0">
              <SimplePredicate field="Hours" operator="greaterThan" value="42.5"/>
             </Node>
            </Node>
           </Node>
           <Node id="57">
            <SimplePredicate field="Hours" operator="greaterThan" value="48"/>
            <Node id="78">
             <SimpleSetPredicate field="Occupation" booleanOperator="isIn">
              <Array n="7" type="string">&quot;Cleaner&quot;   &quot;Executive&quot;   &quot;Home&quot;   &quot;Machinist&quot;   &quot;Military&quot;   &quot;Sales&quot;   &quot;Support&quot;</Array>
             </SimpleSetPredicate>
             <Node id="102" score="1">
              <SimplePredicate field="Income" operator="lessOrEqual" value="64555.47"/>
             </Node>
             <Node id="103" score="0">
