<?xml version="1.0"?>
<PMML version="4.1" xmlns="http://www.dmg.org/PMML-4_1" xmlns:xsi="http://www.w3.org/2001/XMLSchema-instance" xsi:schemaLocation="http://www.dmg.org/PMML-4_1 http://www.dmg.org/v4-1/pmml-4-1.xsd">
 <Header copyright="Copyright (c) 2013 Vfed" description="Random Forest Tree Model">
  <Extension name="user" value="Vfed" extender="Rattle/PMML"/>
  <Application name="Rattle/PMML" version="1.3"/>
  <Timestamp>2013-09-16 10:33:35</Timestamp>
 </Header>
 <DataDictionary numberOfFields="5">
  <DataField name="Species" optype="categorical" dataType="string">
   <Value value="setosa"/>
   <Value value="versicolor"/>
   <Value value="virginica"/>
  </DataField>
  <DataField name="Sepal.Length" optype="continuous" dataType="double"/>
  <DataField name="Sepal.Width" optype="continuous" dataType="double"/>
  <DataField name="Petal.Length" optype="continuous" dataType="double"/>
  <DataField name="Petal.Width" optype="continuous" dataType="double"/>
 </DataDictionary>
 <MiningModel modelName="randomForest_Model" functionName="classification">
  <MiningSchema>
   <MiningField name="Species" usageType="predicted" invalidValueTreatment="asIs"/>
   <MiningField name="Sepal.Length" usageType="active" invalidValueTreatment="asIs"/>
   <MiningField name="Sepal.Width" usageType="active" invalidValueTreatment="asIs"/>
   <MiningField name="Petal.Length" usageType="active" invalidValueTreatment="asIs"/>
   <MiningField name="Petal.Width" usageType="active" invalidValueTreatment="asIs"/>
  </MiningSchema>
  <Output>
   <OutputField name="Predicted_Species" feature="predictedValue"/>
   <OutputField name="Probability_setosa" optype="continuous" dataType="double" feature="probability" value="setosa"/>
   <OutputField name="Probability_versicolor" optype="continuous" dataType="double" feature="probability" value="versicolor"/>
   <OutputField name="Probability_virginica" optype="continuous" dataType="double" feature="probability" value="virginica"/>
  </Output>
  <Segmentation multipleModelMethod="majorityVote">
   <Segment id="1">
    <True/>
    <TreeModel modelName="randomForest_Model" functionName="classification" algorithmName="randomForest" splitCharacteristic="binarySplit">
     <MiningSchema>
      <MiningField name="Species" usageType="predicted" invalidValueTreatment="asIs"/>
      <MiningField name="Sepal.Length" usageType="active" invalidValueTreatment="asIs"/>
      <MiningField name="Sepal.Width" usageType="active" invalidValueTreatment="asIs"/>
      <MiningField name="Petal.Length" usageType="active" invalidValueTreatment="asIs"/>
      <MiningField name="Petal.Width" usageType="active" invalidValueTreatment="asIs"/>
     </MiningSchema>
     <Node id="1">
      <True/>
      <Node id="2" score="setosa">
       <SimplePredicate field="Petal.Length" operator="lessOrEqual" value="2.6"/>
      </Node>
      <Node id="3">
       <SimplePredicate field="Petal.Length" operator="greaterThan" value="2.6"/>
       <Node id="4">
        <SimplePredicate field="Petal.Length" operator="lessOrEqual" value="5.05"/>
        <Node id="6">
         <SimplePredicate field="Petal.Width" operator="lessOrEqual" value="1.75"/>
         <Node id="8" score="versicolor">
          <SimplePredicate field="Petal.Length" operator="lessOrEqual" value="4.95"/>
         </Node>
         <Node id="9" score="virginica">
          <SimplePredicate field="Petal.Length" operator="greaterThan" value="4.95"/>
         </Node>
        </Node>
        <Node id="7" score="virginica">
         <SimplePredicate field="Petal.Width" operator="greaterThan" value="1.75"/>
        </Node>
       </Node>
       <Node id="5" score="virginica">
        <SimplePredicate field="Petal.Length" operator="greaterThan" value="5.05"/>
       </Node>
      </Node>
     </Node>
    </TreeModel>
   </Segment>
   <Segment id="2">
    <True/>
    <TreeModel modelName="randomForest_Model" functionName="classification" algorithmName="randomForest" splitCharacteristic="binarySplit">
     <MiningSchema>
      <MiningField name="Species" usageType="predicted" invalidValueTreatment="asIs"/>
      <MiningField name="Sepal.Length" usageType="active" invalidValueTreatment="asIs"/>
      <MiningField name="Sepal.Width" usageType="active" invalidValueTreatment="asIs"/>
      <MiningField name="Petal.Length" usageType="active" invalidValueTreatment="asIs"/>
      <MiningField name="Petal.Width" usageType="active" invalidValueTreatment="asIs"/>
     </MiningSchema>
     <Node id="1">
      <True/>
      <Node id="2" score="setosa">
       <SimplePredicate field="Petal.Width" operator="lessOrEqual" value="0.8"/>
      </Node>
      <Node id="3">
       <SimplePredicate field="Petal.Width" operator="greaterThan" value="0.8"/>
       <Node id="4">
        <SimplePredicate field="Petal.Length" operator="lessOrEqual" value="4.85"/>
        <Node id="6" score="virginica">
         <SimplePredicate field="Sepal.Length" operator="lessOrEqual" value="4.95"/>
        </Node>
        <Node id="7" score="versicolor">
         <SimplePredicate field="Sepal.Length" operator="greaterThan" value="4.95"/>
        </Node>
       </Node>
       <Node id="5">
        <SimplePredicate field="Petal.Length" operator="greaterThan" value="4.85"/>
        <Node id="8" score="virginica">
         <SimplePredicate field="Petal.Width" operator="lessOrEqual" value="1.55"/>
        </Node>
        <Node id="9" score="virginica">
         <SimplePredicate field="Petal.Width" operator="greaterThan" value="1.55"/>
        </Node>
       </Node>
      </Node>
     </Node>
    </TreeModel>
   </Segment>
   <Segment id="3">
    <True/>
    <TreeModel modelName="randomForest_Model" functionName="classification" algorithmName="randomForest" splitCharacteristic="binarySplit">
     <MiningSchema>
      <MiningField name="Species" usageType="predicted" invalidValueTreatment="asIs"/>
      <MiningField name="Sepal.Length" usageType="active" invalidValueTreatment="asIs"/>
      <MiningField name="Sepal.Width" usageType="active" invalidValueTreatment="asIs"/>
      <MiningField name="Petal.Length" usageType="active" invalidValueTreatment="asIs"/>
      <MiningField name="Petal.Width" usageType="active" invalidValueTreatment="asIs"/>
     </MiningSchema>
     <Node id="1">
      <True/>
      <Node id="2" score="setosa">
       <SimplePredicate field="Petal.Width" operator="lessOrEqual" value="0.8"/>
      </Node>
      <Node id="3">
       <SimplePredicate field="Petal.Width" operator="greaterThan" value="0.8"/>
       <Node id="4">
        <SimplePredicate field="Petal.Length" operator="lessOrEqual" value="4.85"/>
        <Node id="6" score="versicolor">
         <SimplePredicate field="Petal.Width" operator="lessOrEqual" value="1.7"/>
        </Node>
        <Node id="7" score="versicolor">
         <SimplePredicate field="Petal.Width" operator="greaterThan" value="1.7"/>
        </Node>
       </Node>
       <Node id="5">
        <SimplePredicate field="Petal.Length" operator="greaterThan" value="4.85"/>
        <Node id="8" score="virginica">
         <SimplePredicate field="Petal.Width" operator="lessOrEqual" value="1.75"/>
        </Node>
        <Node id="9" score="virginica">
         <SimplePredicate field="Petal.Width" operator="greaterThan" value="1.75"/>
        </Node>
       </Node>
      </Node>
     </Node>
    </TreeModel>
   </Segment>
   <Segment id="4">
    <True/>
    <TreeModel modelName="randomForest_Model" functionName="classification" algorithmName="randomForest" splitCharacteristic="binarySplit">
     <MiningSchema>
      <MiningField name="Species" usageType="predicted" invalidValueTreatment="asIs"/>
      <MiningField name="Sepal.Length" usageType="active" invalidValueTreatment="asIs"/>
      <MiningField name="Sepal.Width" usageType="active" invalidValueTreatment="asIs"/>
      <MiningField name="Petal.Length" usageType="active" invalidValueTreatment="asIs"/>
      <MiningField name="Petal.Width" usageType="active" invalidValueTreatment="asIs"/>
     </MiningSchema>
     <Node id="1">
      <True/>
      <Node id="2" score="setosa">
       <SimplePredicate field="Petal.Length" operator="lessOrEqual" value="2.45"/>
      </Node>
      <Node id="3">
       <SimplePredicate field="Petal.Length" operator="greaterThan" value="2.45"/>
       <Node id="4">
        <SimplePredicate field="Petal.Width" operator="lessOrEqual" value="1.65"/>
        <Node id="6">
         <SimplePredicate field="Petal.Length" operator="lessOrEqual" value="5.35"/>
         <Node id="10" score="versicolor">
          <SimplePredicate field="Petal.Length" operator="lessOrEqual" value="5"/>
         </Node>
         <Node id="11" score="versicolor">
          <SimplePredicate field="Petal.Length" operator="greaterThan" value="5"/>
         </Node>
        </Node>
        <Node id="7" score="virginica">
         <SimplePredicate field="Petal.Length" operator="greaterThan" value="5.35"/>
        </Node>
       </Node>
       <Node id="5">
        <SimplePredicate field="Petal.Width" operator="greaterThan" value="1.65"/>
        <Node id="8" score="virginica">
         <SimplePredicate field="Petal.Length" operator="lessOrEqual" value="5.05"/>
        </Node>
        <Node id="9" score="virginica">
         <SimplePredicate field="Petal.Length" operator="greaterThan" value="5.05"/>
        </Node>
       </Node>
      </Node>
     </Node>
    </TreeModel>
   </Segment>
   <Segment id="5">
    <True/>
    <TreeModel modelName="randomForest_Model" functionName="classification" algorithmName="randomForest" splitCharacteristic="binarySplit">
     <MiningSchema>
      <MiningField name="Species" usageType="predicted" invalidValueTreatment="asIs"/>
      <MiningField name="Sepal.Length" usageType="active" invalidValueTreatment="asIs"/>
      <MiningField name="Sepal.Width" usageType="active" invalidValueTreatment="asIs"/>
      <MiningField name="Petal.Length" usageType="active" invalidValueTreatment="asIs"/>
      <MiningField name="Petal.Width" usageType="active" invalidValueTreatment="asIs"/>
     </MiningSchema>
     <Node id="1">
      <True/>
      <Node id="2">
       <SimplePredicate field="Petal.Width" operator="lessOrEqual" value="1.65"/>
       <Node id="4" score="setosa">
        <SimplePredicate field="Petal.Width" operator="lessOrEqual" value="0.7"/>
       </Node>
       <Node id="5">
        <SimplePredicate field="Petal.Width" operator="greaterThan" value="0.7"/>
        <Node id="6" score="versicolor">
         <SimplePredicate field="Petal.Length" operator="lessOrEqual" value="4.95"/>
        </Node>
        <Node id="7" score="virginica">
         <SimplePredicate field="Petal.Length" operator="greaterThan" value="4.95"/>
        </Node>
       </Node>
      </Node>
      <Node id="3" score="virginica">
       <SimplePredicate field="Petal.Width" operator="greaterThan" value="1.65"/>
      </Node>
     </Node>
    </TreeModel>
   </Segment>
   <Segment id="6">
    <True/>
    <TreeModel modelName="randomForest_Model" functionName="classification" algorithmName="randomForest" splitCharacteristic="binarySplit">
     <MiningSchema>
      <MiningField name="Species" usageType="predicted" invalidValueTreatment="asIs"/>
      <MiningField name="Sepal.Length" usageType="active" invalidValueTreatment="asIs"/>
      <MiningField name="Sepal.Width" usageType="active" invalidValueTreatment="asIs"/>
      <MiningField name="Petal.Length" usageType="active" invalidValueTreatment="asIs"/>
      <MiningField name="Petal.Width" usageType="active" invalidValueTreatment="asIs"/>
     </MiningSchema>
     <Node id="1">
      <True/>
      <Node id="2" score="setosa">
       <SimplePredicate field="Petal.Length" operator="lessOrEqual" value="2.45"/>
      </Node>
      <Node id="3">
       <SimplePredicate field="Petal.Length" operator="greaterThan" value="2.45"/>
       <Node id="4">
        <SimplePredicate field="Petal.Width" operator="lessOrEqual" value="1.75"/>
        <Node id="6">
         <SimplePredicate field="Petal.Length" operator="lessOrEqual" value="5.05"/>
         <Node id="8" score="versicolor">
          <SimplePredicate field="Sepal.Width" operator="lessOrEqual" value="2.3"/>
         </Node>
         <Node id="9">
          <SimplePredicate field="Sepal.Width" operator="greaterThan" value="2.3"/>
          <Node id="10" score="versicolor">
           <SimplePredicate field="Sepal.Length" operator="lessOrEqual" value="5"/>
          </Node>
          <Node id="11" score="versicolor">
           <SimplePredicate field="Sepal.Length" operator="greaterThan" value="5"/>
          </Node>
         </Node>
        </Node>
        <Node id="7" score="virginica">
         <SimplePredicate field="Petal.Length" operator="greaterThan" value="5.05"/>
        </Node>
       </Node>
       <Node id="5" score="virginica">
        <SimplePredicate field="Petal.Width" operator="greaterThan" value="1.75"/>
       </Node>
      </Node>
     </Node>
    </TreeModel>
   </Segment>
   <Segment id="7">
    <True/>
    <TreeModel modelName="randomForest_Model" functionName="classification" algorithmName="randomForest" splitCharacteristic="binarySplit">
     <MiningSchema>
      <MiningField name="Species" usageType="predicted" invalidValueTreatment="asIs"/>
      <MiningField name="Sepal.Length" usageType="active" invalidValueTreatment="asIs"/>
      <MiningField name="Sepal.Width" usageType="active" invalidValueTreatment="asIs"/>
      <MiningField name="Petal.Length" usageType="active" invalidValueTreatment="asIs"/>
      <MiningField name="Petal.Width" usageType="active" invalidValueTreatment="asIs"/>
     </MiningSchema>
     <Node id="1">
      <True/>
      <Node id="2" score="setosa">
       <SimplePredicate field="Petal.Width" operator="lessOrEqual" value="0.8"/>
      </Node>
      <Node id="3">
       <SimplePredicate field="Petal.Width" operator="greaterThan" value="0.8"/>
       <Node id="4">
        <SimplePredicate field="Petal.Length" operator="lessOrEqual" value="4.95"/>
        <Node id="6" score="versicolor">
         <SimplePredicate field="Petal.Width" operator="lessOrEqual" value="1.65"/>
        </Node>
        <Node id="7" score="virginica">
         <SimplePredicate field="Petal.Width" operator="greaterThan" value="1.65"/>
        </Node>
       </Node>
       <Node id="5">
        <SimplePredicate field="Petal.Length" operator="greaterThan" value="4.95"/>
        <Node id="8" score="virginica">
         <SimplePredicate field="Petal.Width" operator="lessOrEqual" value="1.75"/>
        </Node>
        <Node id="9" score="virginica">
         <SimplePredicate field="Petal.Width" operator="greaterThan" value="1.75"/>
        </Node>
       </Node>
      </Node>
     </Node>
    </TreeModel>
   </Segment>
   <Segment id="8">
    <True/>
    <TreeModel modelName="randomForest_Model" functionName="classification" algorithmName="randomForest" splitCharacteristic="binarySplit">
     <MiningSchema>
      <MiningField name="Species" usageType="predicted" invalidValueTreatment="asIs"/>
      <MiningField name="Sepal.Length" usageType="active" invalidValueTreatment="asIs"/>
      <MiningField name="Sepal.Width" usageType="active" invalidValueTreatment="asIs"/>
      <MiningField name="Petal.Length" usageType="active" invalidValueTreatment="asIs"/>
      <MiningField name="Petal.Width" usageType="active" invalidValueTreatment="asIs"/>
     </MiningSchema>
     <Node id="1">
      <True/>
      <Node id="2" score="setosa">
       <SimplePredicate field="Petal.Length" operator="lessOrEqual" value="2.45"/>
      </Node>
      <Node id="3">
       <SimplePredicate field="Petal.Length" operator="greaterThan" value="2.45"/>
       <Node id="4">
        <SimplePredicate field="Petal.Width" operator="lessOrEqual" value="1.7"/>
        <Node id="6">
         <SimplePredicate field="Petal.Length" operator="lessOrEqual" value="5.35"/>
         <Node id="8" score="versicolor">
          <SimplePredicate field="Petal.Length" operator="lessOrEqual" value="5"/>
         </Node>
         <Node id="9" score="versicolor">
          <SimplePredicate field="Petal.Length" operator="greaterThan" value="5"/>
         </Node>
        </Node>
        <Node id="7" score="virginica">
         <SimplePredicate field="Petal.Length" operator="greaterThan" value="5.35"/>
        </Node>
       </Node>
       <Node id="5" score="virginica">
        <SimplePredicate field="Petal.Width" operator="greaterThan" value="1.7"/>
       </Node>
      </Node>
     </Node>
    </TreeModel>
   </Segment>
   <Segment id="9">
    <True/>
    <TreeModel modelName="randomForest_Model" functionName="classification" algorithmName="randomForest" splitCharacteristic="binarySplit">
     <MiningSchema>
      <MiningField name="Species" usageType="predicted" invalidValueTreatment="asIs"/>
      <MiningField name="Sepal.Length" usageType="active" invalidValueTreatment="asIs"/>
      <MiningField name="Sepal.Width" usageType="active" invalidValueTreatment="asIs"/>
      <MiningField name="Petal.Length" usageType="active" invalidValueTreatment="asIs"/>
      <MiningField name="Petal.Width" usageType="active" invalidValueTreatment="asIs"/>
     </MiningSchema>
     <Node id="1">
      <True/>
      <Node id="2" score="setosa">
       <SimplePredicate field="Petal.Width" operator="lessOrEqual" value="0.8"/>
      </Node>
      <Node id="3">
       <SimplePredicate field="Petal.Width" operator="greaterThan" value="0.8"/>
       <Node id="4">
        <SimplePredicate field="Petal.Length" operator="lessOrEqual" value="4.95"/>
        <Node id="6" score="versicolor">
         <SimplePredicate field="Petal.Width" operator="lessOrEqual" value="1.65"/>
        </Node>
        <Node id="7" score="virginica">
         <SimplePredicate field="Petal.Width" operator="greaterThan" value="1.65"/>
        </Node>
       </Node>
       <Node id="5">
        <SimplePredicate field="Petal.Length" operator="greaterThan" value="4.95"/>
        <Node id="8" score="virginica">
         <SimplePredicate field="Petal.Width" operator="lessOrEqual" value="1.75"/>
        </Node>
        <Node id="9" score="virginica">
         <SimplePredicate field="Petal.Width" operator="greaterThan" value="1.75"/>
        </Node>
       </Node>
      </Node>
     </Node>
    </TreeModel>
   </Segment>
   <Segment id="10">
    <True/>
    <TreeModel modelName="randomForest_Model" functionName="classification" algorithmName="randomForest" splitCharacteristic="binarySplit">
     <MiningSchema>
      <MiningField name="Species" usageType="predicted" invalidValueTreatment="asIs"/>
      <MiningField name="Sepal.Length" usageType="active" invalidValueTreatment="asIs"/>
      <MiningField name="Sepal.Width" usageType="active" invalidValueTreatment="asIs"/>
      <MiningField name="Petal.Length" usageType="active" invalidValueTreatment="asIs"/>
      <MiningField name="Petal.Width" usageType="active" invalidValueTreatment="asIs"/>
     </MiningSchema>
     <Node id="1">
      <True/>
      <Node id="2" score="setosa">
       <SimplePredicate field="Petal.Width" operator="lessOrEqual" value="0.75"/>
      </Node>
      <Node id="3">
       <SimplePredicate field="Petal.Width" operator="greaterThan" value="0.75"/>
       <Node id="4">
        <SimplePredicate field="Petal.Length" operator="lessOrEqual" value="4.85"/>
        <Node id="6" score="versicolor">
         <SimplePredicate field="Petal.Width" operator="lessOrEqual" value="1.65"/>
        </Node>
        <Node id="7" score="virginica">
         <SimplePredicate field="Petal.Width" operator="greaterThan" value="1.65"/>
        </Node>
       </Node>
       <Node id="5">
        <SimplePredicate field="Petal.Length" operator="greaterThan" value="4.85"/>
        <Node id="8" score="virginica">
         <SimplePredicate field="Petal.Width" operator="lessOrEqual" value="1.75"/>
        </Node>
        <Node id="9" score="virginica">
         <SimplePredicate field="Petal.Width" operator="greaterThan" value="1.75"/>
        </Node>
       </Node>
      </Node>
     </Node>
    </TreeModel>
   </Segment>
   <Segment id="11">
    <True/>
    <TreeModel modelName="randomForest_Model" functionName="classification" algorithmName="randomForest" splitCharacteristic="binarySplit">
     <MiningSchema>
      <MiningField name="Species" usageType="predicted" invalidValueTreatment="asIs"/>
      <MiningField name="Sepal.Length" usageType="active" invalidValueTreatment="asIs"/>
      <MiningField name="Sepal.Width" usageType="active" invalidValueTreatment="asIs"/>
      <MiningField name="Petal.Length" usageType="active" invalidValueTreatment="asIs"/>
      <MiningField name="Petal.Width" usageType="active" invalidValueTreatment="asIs"/>
     </MiningSchema>
     <Node id="1">
      <True/>
      <Node id="2">
       <SimplePredicate field="Petal.Width" operator="lessOrEqual" value="1.75"/>
       <Node id="4" score="setosa">
        <SimplePredicate field="Petal.Length" operator="lessOrEqual" value="2.45"/>
       </Node>
       <Node id="5">
        <SimplePredicate field="Petal.Length" operator="greaterThan" value="2.45"/>
        <Node id="6">
         <SimplePredicate field="Petal.Length" operator="lessOrEqual" value="5.05"/>
         <Node id="8" score="virginica">
          <SimplePredicate field="Sepal.Length" operator="lessOrEqual" value="5"/>
         </Node>
         <Node id="9" score="versicolor">
          <SimplePredicate field="Sepal.Length" operator="greaterThan" value="5"/>
         </Node>
        </Node>
        <Node id="7" score="virginica">
         <SimplePredicate field="Petal.Length" operator="greaterThan" value="5.05"/>
        </Node>
       </Node>
      </Node>
      <Node id="3" score="virginica">
       <SimplePredicate field="Petal.Width" operator="greaterThan" value="1.75"/>
      </Node>
     </Node>
    </TreeModel>
   </Segment>
   <Segment id="12">
    <True/>
    <TreeModel modelName="randomForest_Model" functionName="classification" algorithmName="randomForest" splitCharacteristic="binarySplit">
     <MiningSchema>
      <MiningField name="Species" usageType="predicted" invalidValueTreatment="asIs"/>
      <MiningField name="Sepal.Length" usageType="active" invalidValueTreatment="asIs"/>
      <MiningField name="Sepal.Width" usageType="active" invalidValueTreatment="asIs"/>
      <MiningField name="Petal.Length" usageType="active" invalidValueTreatment="asIs"/>
      <MiningField name="Petal.Width" usageType="active" invalidValueTreatment="asIs"/>
     </MiningSchema>
     <Node id="1">
      <True/>
      <Node id="2" score="setosa">
       <SimplePredicate field="Petal.Width" operator="lessOrEqual" value="0.8"/>
      </Node>
      <Node id="3">
       <SimplePredicate field="Petal.Width" operator="greaterThan" value="0.8"/>
       <Node id="4">
        <SimplePredicate field="Petal.Width" operator="lessOrEqual" value="1.75"/>
        <Node id="6" score="versicolor">
         <SimplePredicate field="Petal.Length" operator="lessOrEqual" value="5.05"/>
        </Node>
        <Node id="7" score="virginica">
         <SimplePredicate field="Petal.Length" operator="greaterThan" value="5.05"/>
        </Node>
       </Node>
       <Node id="5">
        <SimplePredicate field="Petal.Width" operator="greaterThan" value="1.75"/>
        <Node id="8" score="versicolor">
         <SimplePredicate field="Petal.Length" operator="lessOrEqual" value="4.85"/>
        </Node>
        <Node id="9" score="virginica">
         <SimplePredicate field="Petal.Length" operator="greaterThan" value="4.85"/>
        </Node>
       </Node>
      </Node>
     </Node>
    </TreeModel>
   </Segment>
   <Segment id="13">
    <True/>
    <TreeModel modelName="randomForest_Model" functionName="classification" algorithmName="randomForest" splitCharacteristic="binarySplit">
     <MiningSchema>
      <MiningField name="Species" usageType="predicted" invalidValueTreatment="asIs"/>
      <MiningField name="Sepal.Length" usageType="active" invalidValueTreatment="asIs"/>
      <MiningField name="Sepal.Width" usageType="active" invalidValueTreatment="asIs"/>
      <MiningField name="Petal.Length" usageType="active" invalidValueTreatment="asIs"/>
      <MiningField name="Petal.Width" usageType="active" invalidValueTreatment="asIs"/>
     </MiningSchema>
     <Node id="1">
      <True/>
      <Node id="2" score="setosa">
       <SimplePredicate field="Petal.Width" operator="lessOrEqual" value="0.8"/>
      </Node>
      <Node id="3">
       <SimplePredicate field="Petal.Width" operator="greaterThan" value="0.8"/>
       <Node id="4">
        <SimplePredicate field="Petal.Length" operator="lessOrEqual" value="4.85"/>
        <Node id="6" score="versicolor">
         <SimplePredicate field="Petal.Width" operator="lessOrEqual" value="1.7"/>
        </Node>
        <Node id="7" score="versicolor">
         <SimplePredicate field="Petal.Width" operator="greaterThan" value="1.7"/>
        </Node>
       </Node>
       <Node id="5">
        <SimplePredicate field="Petal.Length" operator="greaterThan" value="4.85"/>
        <Node id="8" score="virginica">
         <SimplePredicate field="Petal.Width" operator="lessOrEqual" value="1.75"/>
        </Node>
        <Node id="9" score="virginica">
         <SimplePredicate field="Petal.Width" operator="greaterThan" value="1.75"/>
        </Node>
       </Node>
      </Node>
     </Node>
    </TreeModel>
   </Segment>
   <Segment id="14">
    <True/>
    <TreeModel modelName="randomForest_Model" functionName="classification" algorithmName="randomForest" splitCharacteristic="binarySplit">
     <MiningSchema>
      <MiningField name="Species" usageType="predicted" invalidValueTreatment="asIs"/>
      <MiningField name="Sepal.Length" usageType="active" invalidValueTreatment="asIs"/>
      <MiningField name="Sepal.Width" usageType="active" invalidValueTreatment="asIs"/>
      <MiningField name="Petal.Length" usageType="active" invalidValueTreatment="asIs"/>
      <MiningField name="Petal.Width" usageType="active" invalidValueTreatment="asIs"/>
     </MiningSchema>
     <Node id="1">
      <True/>
      <Node id="2" score="setosa">
       <SimplePredicate field="Petal.Length" operator="lessOrEqual" value="2.7"/>
      </Node>
      <Node id="3">
       <SimplePredicate field="Petal.Length" operator="greaterThan" value="2.7"/>
       <Node id="4">
        <SimplePredicate field="Petal.Width" operator="lessOrEqual" value="1.75"/>
        <Node id="6">
         <SimplePredicate field="Petal.Length" operator="lessOrEqual" value="5.05"/>
         <Node id="8" score="virginica">
          <SimplePredicate field="Sepal.Length" operator="lessOrEqual" value="4.95"/>
         </Node>
         <Node id="9" score="versicolor">
          <SimplePredicate field="Sepal.Length" operator="greaterThan" value="4.95"/>
         </Node>
        </Node>
        <Node id="7" score="virginica">
         <SimplePredicate field="Petal.Length" operator="greaterThan" value="5.05"/>
        </Node>
       </Node>
       <Node id="5" score="virginica">
        <SimplePredicate field="Petal.Width" operator="greaterThan" value="1.75"/>
       </Node>
      </Node>
     </Node>
    </TreeModel>
   </Segment>
   <Segment id="15">
    <True/>
    <TreeModel modelName="randomForest_Model" functionName="classification" algorithmName="randomForest" splitCharacteristic="binarySplit">
     <MiningSchema>
      <MiningField name="Species" usageType="predicted" invalidValueTreatment="asIs"/>
      <MiningField name="Sepal.Length" usageType="active" invalidValueTreatment="asIs"/>
      <MiningField name="Sepal.Width" usageType="active" invalidValueTreatment="asIs"/>
      <MiningField name="Petal.Length" usageType="active" invalidValueTreatment="asIs"/>
      <MiningField name="Petal.Width" usageType="active" invalidValueTreatment="asIs"/>
     </MiningSchema>
     <Node id="1">
      <True/>
      <Node id="2">
       <SimplePredicate field="Petal.Width" operator="lessOrEqual" value="1.65"/>
       <Node id="4" score="setosa">
        <SimplePredicate field="Petal.Width" operator="lessOrEqual" value="0.8"/>
       </Node>
       <Node id="5">
        <SimplePredicate field="Petal.Width" operator="greaterThan" value="0.8"/>
        <Node id="8" score="versicolor">
         <SimplePredicate field="Petal.Length" operator="lessOrEqual" value="4.95"/>
        </Node>
        <Node id="9" score="virginica">
         <SimplePredicate field="Petal.Length" operator="greaterThan" value="4.95"/>
        </Node>
       </Node>
      </Node>
      <Node id="3">
       <SimplePredicate field="Petal.Width" operator="greaterThan" value="1.65"/>
       <Node id="6" score="virginica">
        <SimplePredicate field="Petal.Length" operator="lessOrEqual" value="4.85"/>
       </Node>
       <Node id="7" score="virginica">
        <SimplePredicate field="Petal.Length" operator="greaterThan" value="4.85"/>
       </Node>
      </Node>
     </Node>
    </TreeModel>
   </Segment>
  </Segmentation>
 </MiningModel>
</PMML>
